{"learner":{"attributes":{"scikit_learn":"{\"_estimator_type\": \"classifier\"}"},"feature_names":["male","age","education","currentSmoker","cigsPerDay","BPMeds","prevalentStroke","prevalentHyp","diabetes","totChol","sysBP","diaBP","BMI","heartRate","glucose"],"feature_types":["int","int","float","int","float","float","int","int","int","float","float","float","float","float","float"],"gradient_booster":{"model":{"gbtree_model_param":{"num_parallel_tree":"1","num_trees":"100"},"iteration_indptr":[0,1,2,3,4,5,6,7,8,9,10,11,12,13,14,15,16,17,18,19,20,21,22,23,24,25,26,27,28,29,30,31,32,33,34,35,36,37,38,39,40,41,42,43,44,45,46,47,48,49,50,51,52,53,54,55,56,57,58,59,60,61,62,63,64,65,66,67,68,69,70,71,72,73,74,75,76,77,78,79,80,81,82,83,84,85,86,87,88,89,90,91,92,93,94,95,96,97,98,99,100],"tree_info":[0,0,0,0,0,0,0,0,0,0,0,0,0,0,0,0,0,0,0,0,0,0,0,0,0,0,0,0,0,0,0,0,0,0,0,0,0,0,0,0,0,0,0,0,0,0,0,0,0,0,0,0,0,0,0,0,0,0,0,0,0,0,0,0,0,0,0,0,0,0,0,0,0,0,0,0,0,0,0,0,0,0,0,0,0,0,0,0,0,0,0,0,0,0,0,0,0,0,0,0],"trees":[{"base_weights":[-3.5954025E-1,-7.0804787E-1,1.2265493E-1,-7.662517E-1,8.402519E-2,-1.5450318E-1,5.4694945E-1,-9.410222E-1,-5.7928085E-1,-5.639731E-1,7.723655E-1,-4.552945E-1,2.0714606E-1,8.0149466E-1,4.7613013E-1,-1.0478145E0,-5.89435E-1,6.011994E-2,-6.7270064E-1,-9.5004296E-1,3.7467417E-1,1.7797536E0,1.5782464E-1,-5.8445233E-1,4.2683798E-1,-3.5636848E-1,5.224275E-1,2.914602E-1,1.1249986E0,-1.0642393E0,-1.9587713E-1,-8.967395E-1,-2.9568124E-1,-3.5547724E-1,6.2397444E-1,-7.619506E-1,-9.179511E-2,-4.451654E-2,-3.155059E-1,3.3127087E-1,-2.0223898E-1,6.684232E-1,1.0094814E-1,-5.1023054E-1,8.896684E-1,-2.9257023E-1,-8.7756264E-1,9.724962E-1,-4.5809838E-1,-7.607497E-1,3.1103098E-1,3.3322805E-1,1.4052602E0,1.4939562E0,1.9520167E-1,3.6526093E-1,2.7011275E0,-3.2355988E-1,-1.7292935E-1,-1.899812E-1,1.0094814E-1,-4.451654E-2,-2.8225535E-1,-1.9917381E-1,6.606265E-2,6.66467E-3,-2.8072786E-1,-1.899812E-1,2.7648124E-1,-2.3983894E-1,7.751797E-2,-1.7207047E-1,1.5854223E-1,-2.61231E-1,1.0094814E-1,-2.5405133E-2,5.373422E-1,2.1236317E-1,-1.24029584E-1,-2.806841E-1,1.0094814E-1,3.3744648E-2,6.7469233E-1,-2.507808E-1,1.0094814E-1,-2.8206447E-1,3.7245687E-2,-1.8959048E-1,2.576414E-1,-4.419861E-3,2.2743393E-1,6.940318E-2,6.5599394E-1,7.309481E-1,5.7974376E-2,-3.3513427E-2,1.6415347E-1,-1.0093539E-1,2.5304872E-1,1.3515486E-1,1.0393919E0],"categories":[],"categories_nodes":[],"categories_segments":[],"categories_sizes":[],"default_left":[0,0,0,0,0,0,0,0,0,0,0,0,0,0,0,0,0,0,0,0,0,0,0,0,0,0,0,0,0,0,0,0,0,0,0,0,0,0,0,0,0,0,0,0,0,0,0,0,0,0,0,0,0,0,0,0,0,0,0,0,0,0,0,0,0,0,0,0,0,0,0,0,0,0,0,0,0,0,0,0,0,0,0,0,0,0,0,0,0,0,0,0,0,0,0,0,0,0,0,0,0],"id":0,"left_children":[1,3,5,7,9,11,13,15,17,19,21,23,25,-1,27,29,31,33,35,37,39,41,43,45,47,49,51,53,55,57,59,61,63,65,67,69,71,-1,-1,-1,-1,-1,-1,73,75,77,79,81,83,85,87,89,91,93,95,97,99,-1,-1,-1,-1,-1,-1,-1,-1,-1,-1,-1,-1,-1,-1,-1,-1,-1,-1,-1,-1,-1,-1,-1,-1,-1,-1,-1,-1,-1,-1,-1,-1,-1,-1,-1,-1,-1,-1,-1,-1,-1,-1,-1,-1],"loss_changes":[8.069432E1,1.2907318E1,2.3849483E1,7.93808E0,9.3433695E0,1.3476458E1,1.0776014E1,4.360359E0,7.68787E0,4.2931566E0,5.9754906E0,7.9369745E0,1.023247E1,0E0,9.102907E0,1.1965027E0,2.7295485E0,4.261504E0,5.7258224E0,4.942727E-1,3.7159572E0,1.6648998E0,4.059241E0,4.814686E0,4.8856697E0,5.872125E0,5.6559076E0,6.956287E0,1.9474245E1,6.3583374E-2,9.406985E-1,3.793621E-1,3.651659E0,2.335472E0,3.4565578E0,3.9102821E0,5.0917773E0,0E0,0E0,0E0,0E0,0E0,0E0,1.6638879E0,3.5627913E0,4.065387E0,2.3640652E0,6.3428235E0,1.5383575E0,2.2277765E0,4.9790044E0,4.6689463E0,5.1446056E0,5.0344753E0,6.448291E0,4.540976E0,7.72036E0,0E0,0E0,0E0,0E0,0E0,0E0,0E0,0E0,0E0,0E0,0E0,0E0,0E0,0E0,0E0,0E0,0E0,0E0,0E0,0E0,0E0,0E0,0E0,0E0,0E0,0E0,0E0,0E0,0E0,0E0,0E0,0E0,0E0,0E0,0E0,0E0,0E0,0E0,0E0,0E0,0E0,0E0,0E0,0E0],"parents":[2147483647,0,0,1,1,2,2,3,3,4,4,5,5,6,6,7,7,8,8,9,9,10,10,11,11,12,12,14,14,15,15,16,16,17,17,18,18,19,19,20,20,21,21,22,22,23,23,24,24,25,25,26,26,27,27,28,28,29,29,30,30,31,31,32,32,33,33,34,34,35,35,36,36,43,43,44,44,45,45,46,46,47,47,48,48,49,49,50,50,51,51,52,52,53,53,54,54,55,55,56,56],"right_children":[2,4,6,8,10,12,14,16,18,20,22,24,26,-1,28,30,32,34,36,38,40,42,44,46,48,50,52,54,56,58,60,62,64,66,68,70,72,-1,-1,-1,-1,-1,-1,74,76,78,80,82,84,86,88,90,92,94,96,98,100,-1,-1,-1,-1,-1,-1,-1,-1,-1,-1,-1,-1,-1,-1,-1,-1,-1,-1,-1,-1,-1,-1,-1,-1,-1,-1,-1,-1,-1,-1,-1,-1,-1,-1,-1,-1,-1,-1,-1,-1,-1,-1,-1,-1],"split_conditions":[5.1E1,1.505E2,1E0,9E0,1E0,1E0,7.05E1,4.7E1,6.6E1,3E0,9.35E1,8.9E1,1.2E2,8.0149466E-1,1.1E1,3.05E2,7.3E1,2.41E2,8.85E1,7.3E1,2.44E2,2.9E1,8.4E1,7.3E1,8.1E1,1.1E1,2.904E1,1.85E2,8.4E1,3.249E1,8.65E1,6.4E1,2.621E1,3E0,2.185E1,1.05E2,2.707E1,-4.451654E-2,-3.155059E-1,3.3127087E-1,-2.0223898E-1,6.684232E-1,1.0094814E-1,1.07E2,4.4E1,6.75E1,1.535E2,1E0,9.3E1,2.64E2,5.6E1,1E1,8.3E1,2.523E1,2.704E1,2.546E1,1.475E2,-3.2355988E-1,-1.7292935E-1,-1.899812E-1,1.0094814E-1,-4.451654E-2,-2.8225535E-1,-1.9917381E-1,6.606265E-2,6.66467E-3,-2.8072786E-1,-1.899812E-1,2.7648124E-1,-2.3983894E-1,7.751797E-2,-1.7207047E-1,1.5854223E-1,-2.61231E-1,1.0094814E-1,-2.5405133E-2,5.373422E-1,2.1236317E-1,-1.24029584E-1,-2.806841E-1,1.0094814E-1,3.3744648E-2,6.7469233E-1,-2.507808E-1,1.0094814E-1,-2.8206447E-1,3.7245687E-2,-1.8959048E-1,2.576414E-1,-4.419861E-3,2.2743393E-1,6.940318E-2,6.5599394E-1,7.309481E-1,5.7974376E-2,-3.3513427E-2,1.6415347E-1,-1.0093539E-1,2.5304872E-1,1.3515486E-1,1.0393919E0],"split_indices":[1,10,7,4,0,0,11,1,14,2,11,13,10,0,4,9,13,9,11,13,9,4,13,13,14,4,12,9,14,12,11,14,12,2,12,14,12,0,0,0,0,0,0,11,1,11,10,3,14,9,1,4,11,12,12,12,10,0,0,0,0,0,0,0,0,0,0,0,0,0,0,0,0,0,0,0,0,0,0,0,0,0,0,0,0,0,0,0,0,0,0,0,0,0,0,0,0,0,0,0,0],"split_type":[0,0,0,0,0,0,0,0,0,0,0,0,0,0,0,0,0,0,0,0,0,0,0,0,0,0,0,0,0,0,0,0,0,0,0,0,0,0,0,0,0,0,0,0,0,0,0,0,0,0,0,0,0,0,0,0,0,0,0,0,0,0,0,0,0,0,0,0,0,0,0,0,0,0,0,0,0,0,0,0,0,0,0,0,0,0,0,0,0,0,0,0,0,0,0,0,0,0,0,0,0],"sum_hessian":[4.7866742E2,2.7757855E2,2.0108888E2,2.586079E2,1.897065E1,1.2201922E2,7.906967E1,1.3158043E2,1.2702747E2,9.8647375E0,9.105912E0,6.647316E1,5.5546062E1,1.3658868E0,7.770378E1,9.9406204E1,3.217422E1,1.6238876E1,1.107886E2,6.9811993E0,2.8835387E0,2.7317736E0,6.3741384E0,5.8277836E1,8.195321E0,1.988124E1,3.566482E1,6.161667E1,1.608711E1,9.7281494E1,2.1247127E0,1.4721224E1,1.7452997E1,9.561208E0,6.6776686E0,9.576384E1,1.5024755E1,1.0623564E0,5.918843E0,1.6694171E0,1.2141216E0,1.6694171E0,1.0623564E0,3.4905996E0,2.8835387E0,3.0201275E1,2.8076561E1,5.0082517E0,3.1870692E0,1.2292981E1,7.5882597E0,3.0504805E1,5.1600165E0,3.4905996E0,5.8126072E1,1.168592E1,4.4011908E0,9.3335594E1,3.9458952E0,1.0623564E0,1.0623564E0,1.0623564E0,1.3658868E1,1.0016503E1,7.436495E0,6.3741384E0,3.1870692E0,1.0623564E0,5.615312E0,9.257677E1,3.1870692E0,8.498851E0,6.5259037E0,2.4282432E0,1.0623564E0,1.8211824E0,1.0623564E0,2.7317736E0,2.7469501E1,2.7014206E1,1.0623564E0,3.6423647E0,1.3658868E0,2.1247127E0,1.0623564E0,1.0168268E1,2.1247127E0,2.7317736E0,4.8564863E0,1.7301233E1,1.3203572E1,2.5800083E0,2.5800083E0,1.517652E0,1.9729476E0,3.1415396E1,2.6710674E1,4.8564863E0,6.829434E0,1.517652E0,2.8835387E0],"tree_param":{"num_deleted":"0","num_feature":"15","num_nodes":"101","size_leaf_vector":"1"}},{"base_weights":[-2.8471157E-1,-6.398185E-1,4.4882126E-2,-8.458191E-1,-4.1248962E-1,-1.7516203E-1,3.541059E-1,-8.6864936E-1,2.0581865E-1,-5.874315E-1,6.592853E-2,-2.8374952E-1,5.5854E-1,2.0599172E-1,1.0885879E0,-9.327721E-1,-5.1980853E-1,-7.959573E-1,-1.4777724E-1,1.2539814E0,-1.5177119E-1,-5.195268E-1,2.1733101E-2,1.3835442E0,1.3825639E-1,7.617003E-1,-1.4132393E-2,-3.9223883E-1,1.3940939E0,-3.0993981E-2,-9.4931155E-1,-9.5431805E-1,-1.2482648E-1,-1.1905362E-1,-8.936407E-1,-5.6642324E-1,1.02615915E-1,3.315314E-2,1.7539567E0,3.4740977E-2,-8.3696026E-1,-7.2712106E-1,-2.7505094E-1,-7.187586E-2,1.3538398E0,5.37517E-1,5.504296E-1,-4.8287073E-1,9.652505E-1,-1.7308941E-3,1.1033356E0,-2.797442E-1,2.6312387E-1,-2.2799845E-1,6.927269E-2,-2.1346803E-3,1.5780894E0,-2.8734553E-1,-3.3223707E-2,-3.1293455E-1,-4.098828E-2,1.666063E-1,-1.8194982E-1,-1.9879438E-1,3.5837397E-1,-2.847536E-1,4.6024818E-2,2.8577084E-2,-2.6347715E-1,-1.672923E-1,1.4456081E-1,6.863638E-1,1.09751E-1,1.1378536E-1,-1.6946703E-1,-2.902989E-1,-4.165397E-2,9.4026506E-2,-2.3716645E-1,-1.13099225E-1,1.56304E-1,9.839587E-3,-2.3187497E-1,7.804817E-2,5.25431E-1,3.0711824E-1,-6.5604925E-2,-2.6530612E-1,1.3857101E-1,4.5355478E-1,-1.1181724E-1,-1.5307093E-1,2.700841E-1,5.1661044E-1,1.7705859E-1,4.6194777E-2,-1.896187E-1,2.5162572E-1,-2.2238646E-2,5.485618E-1,9.796551E-2],"categories":[],"categories_nodes":[],"categories_segments":[],"categories_sizes":[],"default_left":[0,0,0,0,0,0,0,0,0,0,0,0,0,0,0,0,0,0,0,0,0,0,0,0,0,0,0,0,0,0,0,0,0,0,0,0,0,0,0,0,0,0,0,0,0,0,0,0,0,0,0,0,0,0,0,0,0,0,0,0,0,0,0,0,0,0,0,0,0,0,0,0,0,0,0,0,0,0,0,0,0,0,0,0,0,0,0,0,0,0,0,0,0,0,0,0,0,0,0,0,0],"id":1,"left_children":[1,3,5,7,9,11,13,15,-1,17,19,21,23,25,27,29,31,33,35,37,39,41,43,45,47,49,51,53,55,-1,57,59,61,63,65,67,69,-1,71,73,75,77,79,81,83,-1,85,87,89,91,93,95,97,-1,-1,-1,99,-1,-1,-1,-1,-1,-1,-1,-1,-1,-1,-1,-1,-1,-1,-1,-1,-1,-1,-1,-1,-1,-1,-1,-1,-1,-1,-1,-1,-1,-1,-1,-1,-1,-1,-1,-1,-1,-1,-1,-1,-1,-1,-1,-1],"loss_changes":[5.2232918E1,9.708862E0,1.58657465E1,4.5031357E0,8.747444E0,1.1022978E1,1.0316584E1,1.9873276E0,0E0,6.8768253E0,7.6287446E0,8.614773E0,6.0212717E0,1.0025128E1,7.7974625E0,1.1654358E0,3.2137585E0,3.3002625E0,2.759709E0,2.4141974E0,3.2492938E0,3.2235546E0,6.70541E0,1.0323915E0,7.134137E0,6.064824E0,4.464245E0,9.824822E-1,3.493185E0,0E0,5.372162E-1,5.1797867E-1,4.0465345E0,6.2550178E0,2.7548447E0,2.1054838E0,4.518902E0,0E0,1.4655838E0,4.504647E0,3.6122656E-1,2.6155014E0,2.8408947E0,3.7284088E0,1.0792623E0,0E0,1.4598634E0,3.473271E0,4.8793635E0,4.2136445E0,4.082699E0,4.8244357E0,5.8252535E0,0E0,0E0,0E0,3.146223E0,0E0,0E0,0E0,0E0,0E0,0E0,0E0,0E0,0E0,0E0,0E0,0E0,0E0,0E0,0E0,0E0,0E0,0E0,0E0,0E0,0E0,0E0,0E0,0E0,0E0,0E0,0E0,0E0,0E0,0E0,0E0,0E0,0E0,0E0,0E0,0E0,0E0,0E0,0E0,0E0,0E0,0E0,0E0,0E0],"parents":[2147483647,0,0,1,1,2,2,3,3,4,4,5,5,6,6,7,7,9,9,10,10,11,11,12,12,13,13,14,14,15,15,16,16,17,17,18,18,19,19,20,20,21,21,22,22,23,23,24,24,25,25,26,26,27,27,28,28,30,30,31,31,32,32,33,33,34,34,35,35,36,36,38,38,39,39,40,40,41,41,42,42,43,43,44,44,46,46,47,47,48,48,49,49,50,50,51,51,52,52,56,56],"right_children":[2,4,6,8,10,12,14,16,-1,18,20,22,24,26,28,30,32,34,36,38,40,42,44,46,48,50,52,54,56,-1,58,60,62,64,66,68,70,-1,72,74,76,78,80,82,84,-1,86,88,90,92,94,96,98,-1,-1,-1,100,-1,-1,-1,-1,-1,-1,-1,-1,-1,-1,-1,-1,-1,-1,-1,-1,-1,-1,-1,-1,-1,-1,-1,-1,-1,-1,-1,-1,-1,-1,-1,-1,-1,-1,-1,-1,-1,-1,-1,-1,-1,-1,-1,-1],"split_conditions":[4.9E1,1E1,5.8E1,1.075E2,1.33E2,1.59E2,9.4E1,4.7E1,2.0581865E-1,2.41E2,2.193E1,2E0,2.509E1,2.23E2,2.13E2,6.05E1,1.255E2,1.05E2,4.1E1,8.15E1,3E1,2.621E1,3.18E2,2.41E2,1E0,1.28E2,1E0,8.15E1,2.182E1,-3.0993981E-2,1.06E2,2.927E1,4.8E1,1.03E2,4.8E1,2.406E1,2.329E1,3.315314E-2,7.6E1,8.2E1,8.3E1,5.9E1,4E0,9.35E1,2.281E1,5.37517E-1,2.374E1,5.5E1,1.07E2,7.9E1,8.6E1,7.8E1,7.3E1,-2.2799845E-1,6.927269E-2,-2.1346803E-3,6.4E1,-2.8734553E-1,-3.3223707E-2,-3.1293455E-1,-4.098828E-2,1.666063E-1,-1.8194982E-1,-1.9879438E-1,3.5837397E-1,-2.847536E-1,4.6024818E-2,2.8577084E-2,-2.6347715E-1,-1.672923E-1,1.4456081E-1,6.863638E-1,1.09751E-1,1.1378536E-1,-1.6946703E-1,-2.902989E-1,-4.165397E-2,9.4026506E-2,-2.3716645E-1,-1.13099225E-1,1.56304E-1,9.839587E-3,-2.3187497E-1,7.804817E-2,5.25431E-1,3.0711824E-1,-6.5604925E-2,-2.6530612E-1,1.3857101E-1,4.5355478E-1,-1.1181724E-1,-1.5307093E-1,2.700841E-1,5.1661044E-1,1.7705859E-1,4.6194777E-2,-1.896187E-1,2.5162572E-1,-2.2238646E-2,5.485618E-1,9.796551E-2],"split_indices":[1,4,1,11,10,10,14,1,0,9,12,4,12,9,9,11,10,10,1,11,12,12,9,9,0,10,7,11,12,0,13,12,1,10,1,12,12,0,13,14,14,13,2,11,12,0,12,1,11,13,11,11,13,0,0,0,1,0,0,0,0,0,0,0,0,0,0,0,0,0,0,0,0,0,0,0,0,0,0,0,0,0,0,0,0,0,0,0,0,0,0,0,0,0,0,0,0,0,0,0,0],"split_type":[0,0,0,0,0,0,0,0,0,0,0,0,0,0,0,0,0,0,0,0,0,0,0,0,0,0,0,0,0,0,0,0,0,0,0,0,0,0,0,0,0,0,0,0,0,0,0,0,0,0,0,0,0,0,0,0,0,0,0,0,0,0,0,0,0,0,0,0,0,0,0,0,0,0,0,0,0,0,0,0,0,0,0,0,0,0,0,0,0,0,0,0,0,0,0,0,0,0,0,0,0],"sum_hessian":[4.450334E2,2.1377222E2,2.3126115E2,1.10719696E2,1.0305253E2,1.3536719E2,9.5893974E1,1.09520424E2,1.1992731E0,7.529262E1,2.7759907E1,1.1844993E2,1.6917263E1,8.086696E1,1.5027011E1,9.1100685E1,1.841974E1,5.052055E1,2.4772068E1,3.5618234E0,2.4198084E1,6.645671E1,5.1993214E1,4.9360375E0,1.1981225E1,2.2246023E1,5.8620937E1,2.5214276E0,1.2505584E1,1.9227116E0,8.917797E1,8.0966835E0,1.0323057E1,6.6509686E0,4.3869583E1,8.798778E0,1.597329E1,1.4550581E0,2.1067653E0,1.9766762E1,4.4313216E0,3.4871613E1,3.1585098E1,4.9463394E1,2.5298173E0,2.5406365E0,2.3954012E0,7.0798807E0,4.901344E0,7.185026E0,1.5060998E1,2.9934593E1,2.8686344E1,1.4475422E0,1.0738854E0,1.5631101E0,1.0942473E1,8.814161E1,1.0363629E0,7.054875E0,1.0418084E0,4.216241E0,6.106816E0,5.054803E0,1.5961654E0,4.1748634E1,2.1209474E0,3.0408745E0,5.757903E0,5.6560655E0,1.0317225E1,1.0534023E0,1.0533631E0,1.2786947E1,6.9798145E0,3.407289E0,1.0240327E0,1.7772578E0,3.3094357E1,2.8466068E1,3.11903E0,4.3866737E1,5.596659E0,1.1155578E0,1.4142597E0,1.277934E0,1.1174673E0,5.0133877E0,2.0664933E0,3.3875039E0,1.5138401E0,4.872504E0,2.312522E0,5.7601013E0,9.300897E0,1.3669494E1,1.62651E1,1.0048457E1,1.8637888E1,8.7337055E0,2.2087686E0],"tree_param":{"num_deleted":"0","num_feature":"15","num_nodes":"101","size_leaf_vector":"1"}},{"base_weights":[-2.2606975E-1,-5.919824E-1,-3.6952407E-3,-8.280759E-1,-3.6975327E-1,-1.9602975E-1,2.2870335E-1,-8.543972E-1,-1.2770852E-1,-6.2375706E-1,-7.868899E-2,-3.0271223E-1,3.21545E-1,-8.466129E-3,5.812403E-1,-8.7393796E-1,-2.8343858E-2,-2.121703E-1,1.750115E-1,-7.732354E-1,1.318762E-1,-3.0214962E-1,3.0408344E-1,5.636224E-1,-3.4340814E-1,-1.0824619E-1,7.9549223E-1,-2.5418055E-1,2.5406903E-1,6.440718E-1,-4.2811143E-1,-9.099309E-1,-4.3361184E-1,1.8232103E-1,-8.578403E-1,4.217685E-1,-4.1150698E-1,-5.78388E-1,5.1111585E-1,2.867375E-2,1.3374547E0,-3.1170642E-1,4.2057076E-1,-4.1497228E-1,1.8290515E-1,6.706868E-1,-4.5060495E-1,3.822506E-1,4.6457562E-1,-3.5236046E-1,3.8275126E-1,9.663953E-1,-4.5771502E-2,4.032749E-1,1.02885E0,-2.1683954E-1,3.1244434E-2,-6.7952864E-2,-2.7627507E-1,1.23744816E-1,-1.9159362E-1,2.6644364E-1,-1.1754672E-1,9.005042E-2,-2.721551E-1,6.359391E-2,-2.1829155E-1,-3.2785617E-2,-3.220621E-1,3.5213175E-1,-1.153233E-1,3.9738235E-1,-5.817948E-2,4.922545E-1,1.0642334E-1,-2.159968E-1,1.09545775E-1,-1.3339345E-1,3.7677446E-1,2.4851911E-1,-9.8317645E-2,3.6547402E-1,-1.0461709E-1,8.5889205E-2,-1.8606937E-1,1.8176709E-1,-1.9247524E-1,-1.6367166E-1,4.8511285E-2,-1.9256018E-1,3.6807638E-1,1.2604918E-1,-1.17355414E-1,1.7674974E-1,-8.248132E-2,1.8052742E-1,5.1986605E-1],"categories":[],"categories_nodes":[],"categories_segments":[],"categories_sizes":[],"default_left":[0,0,0,0,0,0,0,0,0,0,0,0,0,0,0,0,0,0,0,0,0,0,0,0,0,0,0,0,0,0,0,0,0,0,0,0,0,0,0,0,0,0,0,0,0,0,0,0,0,0,0,0,0,0,0,0,0,0,0,0,0,0,0,0,0,0,0,0,0,0,0,0,0,0,0,0,0,0,0,0,0,0,0,0,0,0,0,0,0,0,0,0,0,0,0,0,0],"id":2,"left_children":[1,3,5,7,9,11,13,15,17,19,21,23,25,27,29,31,-1,-1,-1,33,35,37,39,41,43,45,47,49,51,53,55,57,59,61,63,-1,65,67,69,71,73,75,-1,77,79,81,83,85,-1,87,-1,89,91,93,95,-1,-1,-1,-1,-1,-1,-1,-1,-1,-1,-1,-1,-1,-1,-1,-1,-1,-1,-1,-1,-1,-1,-1,-1,-1,-1,-1,-1,-1,-1,-1,-1,-1,-1,-1,-1,-1,-1,-1,-1,-1,-1],"loss_changes":[3.401392E1,7.984413E0,1.171235E1,1.2884369E0,6.102358E0,8.013332E0,9.92659E0,9.99794E-1,2.0286646E0,5.1041794E0,3.5062523E0,4.402399E0,5.175527E0,4.704396E0,3.3033104E0,7.297554E-1,0E0,0E0,0E0,3.1572304E0,6.233212E0,6.070529E0,4.291107E0,4.6450024E0,4.393981E0,4.031162E0,3.1431675E0,6.1056485E0,7.5779147E0,3.7860775E0,6.0830086E-1,2.7695084E-1,1.524782E0,1.9057004E0,2.2307549E0,0E0,1.4353334E0,4.4486055E0,4.6339293E0,4.0167055E0,3.6581182E-1,1.2642599E0,0E0,5.577236E0,5.023313E0,3.032279E0,1.4665334E0,2.4671578E0,0E0,3.6803446E0,0E0,5.1845503E0,4.31314E0,3.8852959E0,4.0111904E0,0E0,0E0,0E0,0E0,0E0,0E0,0E0,0E0,0E0,0E0,0E0,0E0,0E0,0E0,0E0,0E0,0E0,0E0,0E0,0E0,0E0,0E0,0E0,0E0,0E0,0E0,0E0,0E0,0E0,0E0,0E0,0E0,0E0,0E0,0E0,0E0,0E0,0E0,0E0,0E0,0E0,0E0],"parents":[2147483647,0,0,1,1,2,2,3,3,4,4,5,5,6,6,7,7,8,8,9,9,10,10,11,11,12,12,13,13,14,14,15,15,19,19,20,20,21,21,22,22,23,23,24,24,25,25,26,26,27,27,28,28,29,29,30,30,31,31,32,32,33,33,34,34,36,36,37,37,38,38,39,39,40,40,41,41,43,43,44,44,45,45,46,46,47,47,49,49,51,51,52,52,53,53,54,54],"right_children":[2,4,6,8,10,12,14,16,18,20,22,24,26,28,30,32,-1,-1,-1,34,36,38,40,42,44,46,48,50,52,54,56,58,60,62,64,-1,66,68,70,72,74,76,-1,78,80,82,84,86,-1,88,-1,90,92,94,96,-1,-1,-1,-1,-1,-1,-1,-1,-1,-1,-1,-1,-1,-1,-1,-1,-1,-1,-1,-1,-1,-1,-1,-1,-1,-1,-1,-1,-1,-1,-1,-1,-1,-1,-1,-1,-1,-1,-1,-1,-1,-1],"split_conditions":[4.7E1,1E1,1E0,1.545E2,2.32E2,6.3E1,1.375E2,3.05E2,1E0,1.355E2,2.677E1,1.988E1,2.655E1,7.3E1,1.795E2,3.051E1,-2.8343858E-2,-2.121703E-1,1.750115E-1,1.966E1,2.269E1,4.5E1,9.7E1,7.6E1,1.65E2,6.8E1,2.75E2,6.6E1,2.419E1,1.555E2,7.9E1,6E1,3.131E1,7.2E1,5.9E1,4.217685E-1,1.44E2,2.429E1,1.245E2,2.717E1,1.535E2,5.7E1,4.2057076E-1,1.22E2,2.624E1,2.341E1,2.22E2,2.68E2,4.6457562E-1,2.57E2,3.8275126E-1,2.042E1,2.26E2,1.495E2,8.2E1,-2.1683954E-1,3.1244434E-2,-6.7952864E-2,-2.7627507E-1,1.23744816E-1,-1.9159362E-1,2.6644364E-1,-1.1754672E-1,9.005042E-2,-2.721551E-1,6.359391E-2,-2.1829155E-1,-3.2785617E-2,-3.220621E-1,3.5213175E-1,-1.153233E-1,3.9738235E-1,-5.817948E-2,4.922545E-1,1.0642334E-1,-2.159968E-1,1.09545775E-1,-1.3339345E-1,3.7677446E-1,2.4851911E-1,-9.8317645E-2,3.6547402E-1,-1.0461709E-1,8.5889205E-2,-1.8606937E-1,1.8176709E-1,-1.9247524E-1,-1.6367166E-1,4.8511285E-2,-1.9256018E-1,3.6807638E-1,1.2604918E-1,-1.17355414E-1,1.7674974E-1,-8.248132E-2,1.8052742E-1,5.1986605E-1],"split_indices":[1,4,0,10,9,1,10,9,0,10,12,12,12,13,10,12,0,0,0,12,12,1,11,13,10,13,9,1,12,10,14,14,12,14,13,0,10,12,10,12,10,1,0,14,12,12,9,9,0,9,0,12,9,10,13,0,0,0,0,0,0,0,0,0,0,0,0,0,0,0,0,0,0,0,0,0,0,0,0,0,0,0,0,0,0,0,0,0,0,0,0,0,0,0,0,0,0],"split_type":[0,0,0,0,0,0,0,0,0,0,0,0,0,0,0,0,0,0,0,0,0,0,0,0,0,0,0,0,0,0,0,0,0,0,0,0,0,0,0,0,0,0,0,0,0,0,0,0,0,0,0,0,0,0,0,0,0,0,0,0,0,0,0,0,0,0,0,0,0,0,0,0,0,0,0,0,0,0,0,0,0,0,0,0,0,0,0,0,0,0,0,0,0,0,0,0,0],"sum_hessian":[4.170442E2,1.5701581E2,2.6002838E2,7.481115E1,8.220466E1,1.4236375E2,1.1766463E2,7.1889465E1,2.921684E0,4.3286606E1,3.8918053E1,1.1837868E2,2.3985077E1,7.092546E1,4.6739166E1,6.994094E1,1.948528E0,1.6127288E0,1.3089553E0,3.6118416E1,7.168189E0,2.4705648E1,1.4212405E1,4.734791E0,1.1364388E2,1.2983139E1,1.1001937E1,3.665282E1,3.4272636E1,4.434087E1,2.3982966E0,6.366997E1,6.2709703E0,2.843866E0,3.327455E1,1.6686249E0,5.499564E0,1.8657234E1,6.048414E0,1.20331335E1,2.1792717E0,2.6235008E0,2.1112902E0,1.0022728E2,1.3416604E1,3.6712685E0,9.31187E0,8.077292E0,2.9246447E0,3.5165955E1,1.4868667E0,9.494256E0,2.477838E1,2.8532866E1,1.5808004E1,1.3132377E0,1.0850589E0,1.349311E0,6.232066E1,1.02586E0,5.2451105E0,1.0303268E0,1.8135394E0,1.1521518E0,3.21224E1,1.9611557E0,3.5384088E0,1.0207478E1,8.449757E0,3.2976036E0,2.7508109E0,1.0382591E0,1.0994874E1,1.1534485E0,1.0258232E0,1.5966666E0,1.0268341E0,9.9199524E1,1.0277559E0,5.650926E0,7.7656775E0,2.2614934E0,1.4097751E0,1.613702E0,7.6981683E0,6.964277E0,1.1130158E0,2.5514875E1,9.65108E0,1.1195265E0,8.37473E0,1.0456699E1,1.4321681E1,2.2497765E1,6.0351014E0,1.0993632E1,4.8143725E0],"tree_param":{"num_deleted":"0","num_feature":"15","num_nodes":"97","size_leaf_vector":"1"}},{"base_weights":[-1.7574555E-1,-4.177213E-1,5.6613717E-2,-5.863828E-1,-2.3205905E-1,-4.3378296E-1,1.3114053E-1,2.0910488E-1,-6.092604E-1,-4.5305663E-1,9.210484E-2,-5.669661E-1,2.4380006E-1,1.1036133E-1,1.1530824E0,-9.3392295E-1,-5.067149E-1,-6.854346E-1,-8.585706E-2,-5.290856E-1,2.0813246E-1,2.618105E-1,-6.93149E-1,1.0264977E-2,2.9281306E-1,9.153373E-2,4.6119577E-1,-1.0089128E0,-2.4476256E-2,-7.023802E-1,-2.9046667E-1,-7.4619824E-1,9.6397914E-2,-5.365011E-1,2.2468004E-1,1.6913441E-1,-2.7914232E-1,3.4616834E-1,1.1790892E-1,-1.1151787E-1,2.3764153E-1,-7.5857884E-1,6.302687E-2,3.5393894E-1,-1.516806E-1,1.2642241E-2,5.2632916E-1,-3.1576788E-1,-4.6246625E-2,1.3228853E-1,-2.2881852E-1,1.5678102E-1,-1.2157965E-1,-2.3707944E-1,8.909349E-3,2.50669E-1,-1.8893455E-1,1.8561314E-1,-2.6643687E-1,3.273654E-1,-4.5482874E-2,-2.4011952E-3,2.4142285E-1,-2.8506827E-1,-1.14977546E-1,-1.5504119E-1,1.5016794E-1,-7.0553355E-2,1.93336E-1,4.685504E-1,-5.330425E-2,-1.5839958E-1,2.0061322E-1],"categories":[],"categories_nodes":[],"categories_segments":[],"categories_sizes":[],"default_left":[0,0,0,0,0,0,0,0,0,0,0,0,0,0,0,0,0,0,0,0,0,0,0,0,0,0,0,0,0,0,0,0,0,0,0,0,0,0,0,0,0,0,0,0,0,0,0,0,0,0,0,0,0,0,0,0,0,0,0,0,0,0,0,0,0,0,0,0,0,0,0,0,0],"id":3,"left_children":[1,3,5,7,9,11,13,-1,15,17,19,21,-1,23,25,27,29,31,33,35,37,39,41,43,45,-1,-1,47,-1,49,51,53,55,57,59,-1,-1,-1,61,-1,-1,63,-1,65,67,69,71,-1,-1,-1,-1,-1,-1,-1,-1,-1,-1,-1,-1,-1,-1,-1,-1,-1,-1,-1,-1,-1,-1,-1,-1,-1,-1],"loss_changes":[2.2162912E1,5.9077873E0,7.430459E0,3.3748398E0,6.742059E0,4.9176893E0,3.6080883E0,0E0,2.8311653E0,4.701049E0,2.902722E0,2.7797298E0,0E0,3.165664E0,6.3859034E-1,1.3646431E0,3.0800438E0,1.688118E0,3.3060238E0,3.3234096E0,2.7110076E0,1.641329E0,1.4498825E0,6.347018E0,4.012361E0,0E0,0E0,6.1073303E-1,0E0,3.099142E0,3.812216E0,1.1066761E0,2.3184528E0,4.441557E0,4.7894993E0,0E0,0E0,0E0,2.7369442E0,0E0,0E0,1.1160164E0,0E0,4.920758E0,5.307212E0,8.81331E0,5.3789835E0,0E0,0E0,0E0,0E0,0E0,0E0,0E0,0E0,0E0,0E0,0E0,0E0,0E0,0E0,0E0,0E0,0E0,0E0,0E0,0E0,0E0,0E0,0E0,0E0,0E0,0E0],"parents":[2147483647,0,0,1,1,2,2,3,3,4,4,5,5,6,6,8,8,9,9,10,10,11,11,13,13,14,14,15,15,16,16,17,17,18,18,19,19,20,20,21,21,22,22,23,23,24,24,27,27,29,29,30,30,31,31,32,32,33,33,34,34,38,38,41,41,43,43,44,44,45,45,46,46],"right_children":[2,4,6,8,10,12,14,-1,16,18,20,22,-1,24,26,28,30,32,34,36,38,40,42,44,46,-1,-1,48,-1,50,52,54,56,58,60,-1,-1,-1,62,-1,-1,64,-1,66,68,70,72,-1,-1,-1,-1,-1,-1,-1,-1,-1,-1,-1,-1,-1,-1,-1,-1,-1,-1,-1,-1,-1,-1,-1,-1,-1,-1],"split_conditions":[5.1E1,1E0,1.155E2,1.806E1,1.32E2,2.3E1,1.23E2,2.0910488E-1,4E1,2.41E2,4E1,6.3E1,2.4380006E-1,5E0,8.75E1,1.355E2,5E0,8.9E1,1.17E2,7.1E1,2.148E1,2E0,8.9E1,6.9E1,2.526E1,9.153373E-2,4.6119577E-1,2.75E2,-2.4476256E-2,1.04E2,6.6E1,3.079E1,9.1E1,6.7E1,1.195E2,1.6913441E-1,-2.7914232E-1,3.4616834E-1,3.5E1,-1.1151787E-1,2.3764153E-1,1.12E2,6.302687E-2,6.9E1,1.745E2,8E0,1.225E2,-3.1576788E-1,-4.6246625E-2,1.3228853E-1,-2.2881852E-1,1.5678102E-1,-1.2157965E-1,-2.3707944E-1,8.909349E-3,2.50669E-1,-1.8893455E-1,1.8561314E-1,-2.6643687E-1,3.273654E-1,-4.5482874E-2,-2.4011952E-3,2.4142285E-1,-2.8506827E-1,-1.14977546E-1,-1.5504119E-1,1.5016794E-1,-7.0553355E-2,1.93336E-1,4.685504E-1,-5.330425E-2,-1.5839958E-1,2.0061322E-1],"split_indices":[1,0,10,12,10,4,14,0,1,9,1,11,0,4,11,10,4,13,10,14,12,2,13,13,12,0,0,9,0,10,14,12,13,14,10,0,0,0,4,0,0,10,0,14,10,4,10,0,0,0,0,0,0,0,0,0,0,0,0,0,0,0,0,0,0,0,0,0,0,0,0,0,0],"split_type":[0,0,0,0,0,0,0,0,0,0,0,0,0,0,0,0,0,0,0,0,0,0,0,0,0,0,0,0,0,0,0,0,0,0,0,0,0,0,0,0,0,0,0,0,0,0,0,0,0,0,0,0,0,0,0,0,0,0,0,0,0,0,0,0,0,0,0,0,0,0,0,0,0],"sum_hessian":[3.9275983E2,1.9200781E2,2.0075203E2,9.9479294E1,9.252851E1,2.5848019E1,1.7490402E2,1.2261575E0,9.8253136E1,5.4782864E1,3.7745644E1,2.3845285E1,2.0027328E0,1.7250447E2,2.3995497E0,2.163825E1,7.661489E1,3.3019936E1,2.176293E1,5.380334E0,3.236531E1,3.0087554E0,2.083653E1,1.1207457E2,6.0429897E1,1.3076901E0,1.0918597E0,1.9719585E1,1.9186645E0,3.904146E1,3.7573433E1,3.0680998E1,2.3389359E0,8.581707E0,1.3181223E1,1.3365939E0,4.0437403E0,1.7919575E0,3.0573353E1,1.5072445E0,1.5015109E0,1.957844E1,1.2580893E0,3.55168E1,7.655777E1,2.7949926E1,3.247997E1,1.8541388E1,1.1781985E0,1.6411785E0,3.740028E1,4.209194E0,3.336424E1,2.9014612E1,1.6663861E0,1.0844573E0,1.2544787E0,1.8253026E0,6.756404E0,3.4156215E0,9.765601E0,2.6672077E1,3.901276E0,1.1946473E1,7.6319675E0,4.754761E0,3.0762037E1,6.99284E1,6.6293774E0,2.2696E0,2.5680326E1,3.5421562E0,2.8937815E1],"tree_param":{"num_deleted":"0","num_feature":"15","num_nodes":"73","size_leaf_vector":"1"}},{"base_weights":[-1.3624524E-1,-4.1888687E-1,2.5615823E-3,-6.884427E-1,-2.3401794E-1,-1.10363E-1,1.6938852E-1,4.2553775E-2,-7.156626E-1,-4.91452E-1,1.236612E-2,-1.3413899E-1,3.256757E-1,1.1924805E-1,1.29538E0,-7.544134E-1,-8.6937E-2,-6.3312846E-1,8.277995E-2,-5.959728E-1,1.3932255E-1,-2.9238972E-1,3.2350257E-2,6.486661E-2,5.647772E-1,4.745253E-2,4.8750237E-1,-7.871729E-1,4.6688616E-2,-2.0641652E-1,1.8199311E-1,4.817338E-2,-7.7251387E-1,9.7458345E-1,-3.815797E-1,7.8646384E-2,-7.950623E-1,-6.561357E-1,2.4674457E-1,-8.521226E-2,-5.859388E-1,-1.5904412E-1,3.3863553E-1,1.3674146E-1,-4.2935857E-1,9.400835E-1,-6.0074556E-1,-8.605288E-2,-2.4943307E-1,2.4509357E-1,-1.2472599E-1,3.9954085E-2,-2.6083374E-1,3.9918303E-1,4.541049E-2,6.1485272E-2,-2.5541586E-1,-2.3487275E-2,-2.7859995E-1,-2.885566E-2,-2.4070443E-1,2.082745E-1,2.0159934E-2,-1.5764546E-1,3.9154664E-2,-1.9818787E-1,2.3620084E-1,4.8002474E-2,-1.4225616E-1,-1.5029728E-1,1.4972457E-1,1.1021574E-2,1.9497226E-1,-1.8309686E-1,2.1992968E-1,4.387794E-1,6.41657E-2,-5.2745853E-2,-2.1654415E-1],"categories":[],"categories_nodes":[],"categories_segments":[],"categories_sizes":[],"default_left":[0,0,0,0,0,0,0,0,0,0,0,0,0,0,0,0,0,0,0,0,0,0,0,0,0,0,0,0,0,0,0,0,0,0,0,0,0,0,0,0,0,0,0,0,0,0,0,0,0,0,0,0,0,0,0,0,0,0,0,0,0,0,0,0,0,0,0,0,0,0,0,0,0,0,0,0,0,0,0],"id":4,"left_children":[1,3,5,7,9,11,13,-1,15,17,19,21,-1,23,25,27,29,31,33,35,37,39,41,43,45,-1,-1,47,-1,-1,-1,49,51,53,55,-1,57,59,61,63,65,67,69,71,73,75,77,-1,-1,-1,-1,-1,-1,-1,-1,-1,-1,-1,-1,-1,-1,-1,-1,-1,-1,-1,-1,-1,-1,-1,-1,-1,-1,-1,-1,-1,-1,-1,-1],"loss_changes":[1.4729253E1,6.000616E0,4.780368E0,1.2267361E0,4.7543344E0,4.4488125E0,5.6280937E0,0E0,1.1129513E0,3.0327835E0,3.1126251E0,3.9424198E0,0E0,2.3658116E0,1.3417435E0,1.4770126E0,2.0594852E0,2.8386326E0,3.740382E0,1.397917E0,3.0043392E0,4.6105046E0,4.370991E0,3.237996E0,5.2263603E0,0E0,0E0,7.365627E-1,0E0,0E0,0E0,2.4624016E0,2.2709084E0,6.973562E-1,1.8464564E0,0E0,4.9222827E-1,2.692243E-1,2.3664465E0,4.4466114E0,3.7546759E0,4.7013626E0,4.108445E0,4.024911E0,2.8886998E0,2.8938966E0,3.801632E-2,0E0,0E0,0E0,0E0,0E0,0E0,0E0,0E0,0E0,0E0,0E0,0E0,0E0,0E0,0E0,0E0,0E0,0E0,0E0,0E0,0E0,0E0,0E0,0E0,0E0,0E0,0E0,0E0,0E0,0E0,0E0,0E0],"parents":[2147483647,0,0,1,1,2,2,3,3,4,4,5,5,6,6,8,8,9,9,10,10,11,11,13,13,14,14,15,15,16,16,17,17,18,18,19,19,20,20,21,21,22,22,23,23,24,24,27,27,31,31,32,32,33,33,34,34,36,36,37,37,38,38,39,39,40,40,41,41,42,42,43,43,44,44,45,45,46,46],"right_children":[2,4,6,8,10,12,14,-1,16,18,20,22,-1,24,26,28,30,32,34,36,38,40,42,44,46,-1,-1,48,-1,-1,-1,50,52,54,56,-1,58,60,62,64,66,68,70,72,74,76,78,-1,-1,-1,-1,-1,-1,-1,-1,-1,-1,-1,-1,-1,-1,-1,-1,-1,-1,-1,-1,-1,-1,-1,-1,-1,-1,-1,-1,-1,-1,-1,-1],"split_conditions":[4.7E1,9E0,5.8E1,6.05E1,2.32E2,1.02E2,3.5E1,4.2553775E-2,3.249E1,1.355E2,6.8E1,1E0,3.256757E-1,2.96E2,2.07E2,3.05E2,8.4E1,1.05E2,7.3E1,6.8E1,2.185E1,8E1,8.9E1,1.685E2,1E0,4.745253E-2,4.8750237E-1,6.6E1,4.6688616E-2,-2.0641652E-1,1.8199311E-1,2.002E1,6.1E1,1.44E2,2.546E1,7.8646384E-2,7.15E1,1.9E1,2.416E1,7.2E1,1.105E2,7.95E1,6.4E1,9.4E1,1.03E2,3.13E2,8.25E1,-8.605288E-2,-2.4943307E-1,2.4509357E-1,-1.2472599E-1,3.9954085E-2,-2.6083374E-1,3.9918303E-1,4.541049E-2,6.1485272E-2,-2.5541586E-1,-2.3487275E-2,-2.7859995E-1,-2.885566E-2,-2.4070443E-1,2.082745E-1,2.0159934E-2,-1.5764546E-1,3.9154664E-2,-1.9818787E-1,2.3620084E-1,4.8002474E-2,-1.4225616E-1,-1.5029728E-1,1.4972457E-1,1.1021574E-2,1.9497226E-1,-1.8309686E-1,2.1992968E-1,4.387794E-1,6.41657E-2,-5.2745853E-2,-2.1654415E-1],"split_indices":[1,4,1,11,9,13,4,0,12,10,13,0,0,9,9,9,13,10,13,14,12,14,11,10,3,0,0,14,0,0,0,12,13,10,12,0,11,4,12,14,11,11,13,11,14,9,11,0,0,0,0,0,0,0,0,0,0,0,0,0,0,0,0,0,0,0,0,0,0,0,0,0,0,0,0,0,0,0,0],"split_type":[0,0,0,0,0,0,0,0,0,0,0,0,0,0,0,0,0,0,0,0,0,0,0,0,0,0,0,0,0,0,0,0,0,0,0,0,0,0,0,0,0,0,0,0,0,0,0,0,0,0,0,0,0,0,0,0,0,0,0,0,0,0,0,0,0,0,0,0,0,0,0,0,0,0,0,0,0,0,0],"sum_hessian":[3.744068E2,1.2264877E2,2.5175803E2,4.8787777E1,7.386099E1,1.5033514E2,1.0142288E2,1.4149977E0,4.7372776E1,3.5634098E1,3.82269E1,1.482752E2,2.0599377E0,9.8157814E1,3.265069E0,4.4434216E1,2.9385633E0,2.8499931E1,7.134166E0,5.9624133E0,3.226449E1,7.563074E1,7.264447E1,8.850095E1,9.65686E0,1.0662841E0,2.198785E0,4.3020584E1,1.4136316E0,1.5784804E0,1.360083E0,4.9515657E0,2.3548365E1,2.066562E0,5.0676036E0,1.0631584E0,4.899255E0,3.2309964E0,2.903349E1,4.5094666E1,3.0536076E1,4.500319E1,2.7641277E1,7.789592E1,1.0605032E1,7.451008E0,2.205852E0,4.105139E0,3.8915443E1,1.5770757E0,3.37449E0,2.2404542E0,2.130791E1,1.012371E0,1.0541909E0,2.5045495E0,2.563054E0,1.0189099E0,3.8803449E0,1.0122453E0,2.218751E0,7.4924164E0,2.1541075E1,1.4357333E1,3.0737331E1,2.9453167E1,1.0829095E0,2.2607508E1,2.2395683E1,4.094099E0,2.3547178E1,6.608855E1,1.1807369E1,9.587483E0,1.0175488E0,3.7434611E0,3.707547E0,1.0328797E0,1.1729724E0],"tree_param":{"num_deleted":"0","num_feature":"15","num_nodes":"79","size_leaf_vector":"1"}},{"base_weights":[-1.0623832E-1,-3.4564602E-1,1.144504E-3,-6.286967E-1,-1.984056E-1,-3.0448171E-1,4.8538383E-2,3.4325164E-2,-6.616889E-1,-2.623859E-1,4.0677446E-1,-4.1236985E-1,4.1622472E-1,6.2997675E-1,2.525262E-2,-9.15163E-1,-4.8101592E-1,-3.48069E-1,6.785743E-2,3.693183E-1,-1.2790698E-1,-4.9668315E-1,2.5121883E-1,-2.9051435E-1,3.8782892E-1,7.931409E-1,-7.721684E-2,-2.1674152E-2,3.1406072E-1,-2.9370457E-1,-2.5807867E-2,-2.3047581E-1,-8.648889E-1,-4.5522678E-1,1.7944847E-1,4.6830142E-1,-4.719171E-1,-2.5510845E-1,6.3824475E-1,1.5720118E-2,-6.6414505E-1,-1.0042248E-1,2.3337287E-1,1.0581501E-1,-2.0873927E-1,2.2606312E-1,4.4399634E-1,-3.980311E-2,9.0221107E-1,4.9456146E-1,-2.484606E-1,-1.1127919E-1,2.505686E-1,-2.8418878E-1,-3.5533614E-2,-1.5372078E-1,1.4859588E-1,-1.4179514E-1,2.597539E-1,3.1115225E-1,-8.882493E-2,3.8420763E-2,-2.2732206E-1,5.4808114E-2,2.4848711E-1,-1.1315589E-1,2.0974891E-1,-5.3267337E-2,-2.3416582E-1,-2.2572426E-1,2.7850637E-1,-1.9922636E-3,-1.7138886E-1,3.370225E-1,6.516262E-2,2.2867344E-1,-8.964626E-2,1.0091921E-1,-2.434074E-1],"categories":[],"categories_nodes":[],"categories_segments":[],"categories_sizes":[],"default_left":[0,0,0,0,0,0,0,0,0,0,0,0,0,0,0,0,0,0,0,0,0,0,0,0,0,0,0,0,0,0,0,0,0,0,0,0,0,0,0,0,0,0,0,0,0,0,0,0,0,0,0,0,0,0,0,0,0,0,0,0,0,0,0,0,0,0,0,0,0,0,0,0,0,0,0,0,0,0,0],"id":5,"left_children":[1,3,5,7,9,11,13,-1,15,17,19,21,23,25,27,29,31,33,35,-1,37,39,41,43,-1,45,-1,47,49,-1,-1,51,53,55,57,59,61,-1,63,65,67,-1,-1,-1,-1,69,-1,71,73,75,77,-1,-1,-1,-1,-1,-1,-1,-1,-1,-1,-1,-1,-1,-1,-1,-1,-1,-1,-1,-1,-1,-1,-1,-1,-1,-1,-1,-1],"loss_changes":[9.283236E0,4.5351963E0,3.6399183E0,1.0024405E0,3.0111818E0,2.794892E0,2.929344E0,0E0,1.2240267E0,1.9604445E0,3.491261E0,1.7946787E0,3.4051247E0,1.4109006E0,2.8556108E0,6.5777683E-1,2.0439544E0,3.163041E0,3.4497387E0,0E0,3.5837233E0,2.3116293E0,1.5037698E0,1.1640879E0,0E0,2.5029879E0,0E0,3.0801394E0,3.1125815E0,0E0,0E0,2.626435E0,4.320631E-1,2.7315302E0,4.8497663E0,4.2543197E0,1.2734722E0,0E0,1.2897432E-1,2.2998517E0,1.0075846E0,0E0,0E0,0E0,0E0,4.2517695E0,0E0,3.154958E0,2.9238534E-1,5.033037E0,2.8469365E0,0E0,0E0,0E0,0E0,0E0,0E0,0E0,0E0,0E0,0E0,0E0,0E0,0E0,0E0,0E0,0E0,0E0,0E0,0E0,0E0,0E0,0E0,0E0,0E0,0E0,0E0,0E0,0E0],"parents":[2147483647,0,0,1,1,2,2,3,3,4,4,5,5,6,6,8,8,9,9,10,10,11,11,12,12,13,13,14,14,15,15,16,16,17,17,18,18,20,20,21,21,22,22,23,23,25,25,27,27,28,28,31,31,32,32,33,33,34,34,35,35,36,36,38,38,39,39,40,40,45,45,47,47,48,48,49,49,50,50],"right_children":[2,4,6,8,10,12,14,-1,16,18,20,22,24,26,28,30,32,34,36,-1,38,40,42,44,-1,46,-1,48,50,-1,-1,52,54,56,58,60,62,-1,64,66,68,-1,-1,-1,-1,70,-1,72,74,76,78,-1,-1,-1,-1,-1,-1,-1,-1,-1,-1,-1,-1,-1,-1,-1,-1,-1,-1,-1,-1,-1,-1,-1,-1,-1,-1,-1,-1],"split_conditions":[4.7E1,5E0,1.155E2,6.05E1,1.505E2,2.81E2,1.988E1,3.4325164E-2,7.9E1,4.5E1,7.8E1,2.9E1,1.9E1,9.1E1,9E1,2.59E2,1.345E2,9E1,1.245E2,3.693183E-1,2.54E2,7.2E1,5.5E1,7.05E1,3.8782892E-1,5.9E1,-7.721684E-2,1.915E2,2.72E2,-2.9370457E-1,-2.5807867E-2,9.25E1,1.035E2,1.01E2,2.707E1,1E0,2.433E1,-2.5510845E-1,9.3E1,5.8E1,1.045E2,-1.0042248E-1,2.3337287E-1,1.0581501E-1,-2.0873927E-1,7.7E1,4.4399634E-1,1.045E2,1.055E2,9.7E1,1.435E2,-1.1127919E-1,2.505686E-1,-2.8418878E-1,-3.5533614E-2,-1.5372078E-1,1.4859588E-1,-1.4179514E-1,2.597539E-1,3.1115225E-1,-8.882493E-2,3.8420763E-2,-2.2732206E-1,5.4808114E-2,2.4848711E-1,-1.1315589E-1,2.0974891E-1,-5.3267337E-2,-2.3416582E-1,-2.2572426E-1,2.7850637E-1,-1.9922636E-3,-1.7138886E-1,3.370225E-1,6.516262E-2,2.2867344E-1,-8.964626E-2,1.0091921E-1,-2.434074E-1],"split_indices":[1,4,10,11,10,9,12,0,11,1,13,4,4,13,13,9,10,11,10,0,9,14,1,11,0,1,0,10,9,0,0,11,11,14,12,0,12,0,13,1,10,0,0,0,0,13,0,11,11,13,10,0,0,0,0,0,0,0,0,0,0,0,0,0,0,0,0,0,0,0,0,0,0,0,0,0,0,0,0],"split_type":[0,0,0,0,0,0,0,0,0,0,0,0,0,0,0,0,0,0,0,0,0,0,0,0,0,0,0,0,0,0,0,0,0,0,0,0,0,0,0,0,0,0,0,0,0,0,0,0,0,0,0,0,0,0,0,0,0,0,0,0,0,0,0,0,0,0,0,0,0,0,0,0,0,0,0,0,0,0,0],"sum_hessian":[3.600837E2,1.1081197E2,2.4927174E2,3.6799618E1,7.401236E1,3.2737137E1,2.165346E2,1.4594364E0,3.5340183E1,6.74481E1,6.564256E0,2.8846678E1,3.890457E0,7.3347216E0,2.0919989E2,1.3015239E1,2.2324944E1,5.351057E1,1.3937531E1,2.0702522E0,4.494004E0,2.5817867E1,3.0288105E0,2.5239787E0,1.3664782E0,6.285215E0,1.0495065E0,1.80755E2,2.844489E1,1.1916759E1,1.0984802E0,1.4476831E1,7.8481126E0,4.4589813E1,8.920755E0,8.077481E0,5.8600497E0,2.256392E0,2.2376118E0,6.5825567E0,1.9235312E1,1.6062496E0,1.4225608E0,1.02573E0,1.4982486E0,4.170817E0,2.114398E0,1.7821489E2,2.5401082E0,2.1626297E1,6.8185916E0,1.3367056E1,1.109776E0,6.8255014E0,1.0226111E0,4.249468E1,2.0951357E0,4.7343664E0,4.1863885E0,4.4263864E0,3.651095E0,2.0689452E0,3.7911046E0,1.2360466E0,1.0015652E0,4.464218E0,2.1183386E0,4.2008686E0,1.5034443E1,1.7129103E0,2.4579065E0,1.6870135E2,9.513537E0,1.4362996E0,1.1038086E0,1.619981E1,5.426489E0,3.5414057E0,3.277186E0],"tree_param":{"num_deleted":"0","num_feature":"15","num_nodes":"79","size_leaf_vector":"1"}},{"base_weights":[-8.11767E-2,-3.4896722E-1,-1.8461123E-2,-5.645107E-1,-1.7130917E-1,-4.816859E-1,1.4151114E-2,-2.0747581E-1,-8.360749E-1,-2.7071932E-1,4.0987536E-1,-5.940305E-1,1.8606715E-1,7.9901767E-1,-5.027201E-3,2.6784322E-1,-4.0988222E-1,-2.808765E-1,-1.3959366E-1,-1.0551026E-1,-6.964445E-1,-1.2994851E-1,2.9597735E-1,2.4108322E-1,-7.6268095E-1,1.1274776E-1,4.6796098E-1,-1.1847503E-1,1.0975891E-1,1.847958E-1,-6.072081E-1,-1.691592E-1,1.0576325E-1,-4.7732267E-1,2.2589819E-1,-2.9845193E-1,7.522827E-2,-2.1925683E-1,2.1697436E-1,-1.6528723E-1,2.3501666E-1,1.0992151E-1,-8.80663E-1,-6.134439E-1,3.6381388E-1,5.8274563E-2,-2.293503E-1,1.4198459E-2,4.4338548E-1,1.7641354E-1,-8.439216E-2,-2.126015E-1,-4.386551E-2,-2.4834476E-1,2.1434994E-2,2.2222658E-1,-5.064942E-2,-2.9690078E-1,-8.826494E-2,-3.790859E-2,-2.3294331E-1,-4.1565966E-2,9.034662E-2,-8.477781E-2,1.9169153E-1,2.2502717E-2,-1.7166337E-1,8.4416024E-2,3.5548556E-1],"categories":[],"categories_nodes":[],"categories_segments":[],"categories_sizes":[],"default_left":[0,0,0,0,0,0,0,0,0,0,0,0,0,0,0,0,0,0,0,0,0,0,0,0,0,0,0,0,0,0,0,0,0,0,0,0,0,0,0,0,0,0,0,0,0,0,0,0,0,0,0,0,0,0,0,0,0,0,0,0,0,0,0,0,0,0,0,0,0],"id":6,"left_children":[1,3,5,7,9,11,13,15,17,19,21,23,-1,25,27,-1,29,-1,31,33,35,37,-1,39,41,43,-1,45,47,49,51,-1,-1,53,55,-1,-1,-1,-1,-1,-1,-1,57,59,-1,61,63,65,67,-1,-1,-1,-1,-1,-1,-1,-1,-1,-1,-1,-1,-1,-1,-1,-1,-1,-1,-1,-1],"loss_changes":[5.865098E0,2.4415274E0,4.3020353E0,2.688077E0,2.293216E0,2.686975E0,4.016909E0,3.501684E0,1.0158949E0,2.23743E0,1.9696205E0,2.6496015E0,0E0,3.1476874E0,3.4147937E0,0E0,1.5881629E0,0E0,8.756466E-1,3.1697903E0,2.7952776E0,2.5479374E0,0E0,2.021434E0,2.2949772E0,4.278165E0,0E0,2.5974758E0,4.15003E0,8.9852697E-1,3.4902883E-1,0E0,0E0,2.3733904E0,2.9331293E0,0E0,0E0,0E0,0E0,0E0,0E0,0E0,5.8453655E-1,1.6625178E-1,0E0,2.5098438E0,3.9361124E0,3.693569E0,3.149692E0,0E0,0E0,0E0,0E0,0E0,0E0,0E0,0E0,0E0,0E0,0E0,0E0,0E0,0E0,0E0,0E0,0E0,0E0,0E0,0E0],"parents":[2147483647,0,0,1,1,2,2,3,3,4,4,5,5,6,6,7,7,8,8,9,9,10,10,11,11,13,13,14,14,16,16,18,18,19,19,20,20,21,21,23,23,24,24,25,25,27,27,28,28,29,29,30,30,33,33,34,34,42,42,43,43,45,45,46,46,47,47,48,48],"right_children":[2,4,6,8,10,12,14,16,18,20,22,24,-1,26,28,-1,30,-1,32,34,36,38,-1,40,42,44,-1,46,48,50,52,-1,-1,54,56,-1,-1,-1,-1,-1,-1,-1,58,60,-1,62,64,66,68,-1,-1,-1,-1,-1,-1,-1,-1,-1,-1,-1,-1,-1,-1,-1,-1,-1,-1,-1,-1],"split_conditions":[1.17E2,4.6E1,4E1,7.6E1,2.81E2,1.525E2,6.75E1,6.15E1,4E0,2.5E2,1.9E1,1.19E2,1.8606715E-1,1.315E2,1E0,2.6784322E-1,2.144E1,-2.808765E-1,1E0,3E0,7.75E1,5.8E1,2.9597735E-1,2.41E2,2.042E1,2.44E2,4.6796098E-1,7.3E1,2.904E1,7.1E1,7.8E1,-1.691592E-1,1.0576325E-1,7.4E1,1.095E2,-2.9845193E-1,7.522827E-2,-2.1925683E-1,2.1697436E-1,-1.6528723E-1,2.3501666E-1,1.0992151E-1,9.15E1,7.9E1,3.6381388E-1,1E0,1.8E2,2.835E1,8.6E1,1.7641354E-1,-8.439216E-2,-2.126015E-1,-4.386551E-2,-2.4834476E-1,2.1434994E-2,2.2222658E-1,-5.064942E-2,-2.9690078E-1,-8.826494E-2,-3.790859E-2,-2.3294331E-1,-4.1565966E-2,9.034662E-2,-8.477781E-2,1.9169153E-1,2.2502717E-2,-1.7166337E-1,8.4416024E-2,3.5548556E-1],"split_indices":[10,1,1,14,9,10,11,11,2,9,4,10,0,10,0,0,12,0,0,4,11,1,0,9,12,9,0,13,12,13,11,0,0,13,10,0,0,0,0,0,0,0,11,14,0,7,10,12,13,0,0,0,0,0,0,0,0,0,0,0,0,0,0,0,0,0,0,0,0],"split_type":[0,0,0,0,0,0,0,0,0,0,0,0,0,0,0,0,0,0,0,0,0,0,0,0,0,0,0,0,0,0,0,0,0,0,0,0,0,0,0,0,0,0,0,0,0,0,0,0,0,0,0,0,0,0,0,0,0,0,0,0,0,0,0,0,0,0,0,0,0],"sum_hessian":[3.4860806E2,6.528443E1,2.833236E2,2.8513247E1,3.6771187E1,1.77291E1,2.655945E2,1.3080223E1,1.5433023E1,3.185642E1,4.914767E0,1.650704E1,1.2220579E0,5.3651433E0,2.6022937E2,1.5023623E0,1.1577861E1,1.319135E1,2.241673E0,2.3849213E1,8.007209E0,2.938714E0,1.9760528E0,2.701319E0,1.3805722E1,3.424508E0,1.9406354E0,1.3086148E2,1.293679E2,2.9004173E0,8.677444E0,1.1255748E0,1.1160983E0,1.1031977E1,1.2817235E1,6.0507655E0,1.9564432E0,1.8084267E0,1.1302873E0,1.0913875E0,1.6099316E0,1.1069196E0,1.2698802E1,2.3291323E0,1.0953759E0,5.0628105E1,8.023337E1,1.0137397E2,2.7993927E1,1.41479E0,1.4856272E0,6.67172E0,2.005724E0,6.42191E0,4.610067E0,5.181823E0,7.6354127E0,1.0128576E1,2.5702262E0,1.0292367E0,1.2998955E0,2.8202595E1,2.242551E1,7.623356E1,3.999815E0,9.2639366E1,8.734602E0,2.410707E1,3.8868566E0],"tree_param":{"num_deleted":"0","num_feature":"15","num_nodes":"69","size_leaf_vector":"1"}},{"base_weights":[-6.2321033E-2,-1.2179012E-1,1.4750464E-1,-1.3484669E-1,8.300087E-1,6.4816274E-2,8.154784E-1,-1.7924972E-1,1.5848294E-1,-8.8904634E-2,4.3150863E-1,3.6045393E-1,-1.05434805E-1,1.1407439E0,-5.010508E-2,-2.261767E-1,1.1310017E-1,6.2120414E-1,-4.5191247E-2,-1.9266175E-1,6.825886E-1,-2.2880466E-1,5.850204E-1,-1.9062996E-2,1.7557217E0,-1.6030923E-1,-6.0880977E-1,4.2657468E-1,-1.375429E-1,1.1661606E0,-2.8210238E-1,2.8546327E-1,-1.5042351E-1,-7.649444E-1,7.059078E-1,1.3724757E0,2.8134698E-1,7.1587905E-2,-4.3375334E-1,8.0473024E-1,-8.6791895E-2,8.3059765E-2,-9.1502056E-2,6.7385834E-1,2.2115302E-1,-1.1390596E-1,-2.2050044E-2,-2.1223967E-1,1.4954445E-1,3.852556E-2,4.0639874E-1,-2.7501535E-1,3.8676925E-2,3.9076385E-1,7.1285225E-2,1.7693427E-1,-2.099866E-1,-1.5801537E-1,3.512146E-2,-2.9555336E-1,-2.6327344E-2,3.7494776E-1,5.409825E-2,5.580146E-1,-8.793204E-2,-1.2682498E-2,2.5539225E-1,8.086318E-2,-1.9354253E-1,-1.5337573E-1,1.4319918E-1,-4.5926314E-2,3.1215724E-1],"categories":[],"categories_nodes":[],"categories_segments":[],"categories_sizes":[],"default_left":[0,0,0,0,0,0,0,0,0,0,0,0,0,0,0,0,0,0,0,0,0,0,0,0,0,0,0,0,0,0,0,0,0,0,0,0,0,0,0,0,0,0,0,0,0,0,0,0,0,0,0,0,0,0,0,0,0,0,0,0,0,0,0,0,0,0,0,0,0,0,0,0,0],"id":7,"left_children":[1,3,5,7,9,11,13,15,17,-1,-1,19,21,23,-1,25,27,29,31,33,35,37,39,41,43,45,47,49,51,53,55,-1,57,59,61,63,65,67,69,71,-1,-1,-1,-1,-1,-1,-1,-1,-1,-1,-1,-1,-1,-1,-1,-1,-1,-1,-1,-1,-1,-1,-1,-1,-1,-1,-1,-1,-1,-1,-1,-1,-1],"loss_changes":[4.2628026E0,3.4126754E0,4.1214576E0,3.452249E0,2.9848692E0,3.4775825E0,2.8233466E0,3.1642456E0,3.3352592E0,0E0,0E0,4.6213865E0,3.8935957E0,4.539254E0,0E0,4.879264E0,2.597306E0,5.6419983E0,2.7966669E0,5.7102556E0,4.0828648E0,2.3807383E0,1.5721512E0,3.5338432E-1,4.1186333E-1,3.2062683E0,3.4816809E0,3.8659785E0,4.002977E0,5.6767654E-1,2.1857622E0,0E0,2.4518778E0,9.011831E-1,1.0416138E0,5.157078E0,2.1508348E0,2.4918163E0,1.8559375E0,1.4774301E0,0E0,0E0,0E0,0E0,0E0,0E0,0E0,0E0,0E0,0E0,0E0,0E0,0E0,0E0,0E0,0E0,0E0,0E0,0E0,0E0,0E0,0E0,0E0,0E0,0E0,0E0,0E0,0E0,0E0,0E0,0E0,0E0,0E0],"parents":[2147483647,0,0,1,1,2,2,3,3,4,4,5,5,6,6,7,7,8,8,11,11,12,12,13,13,15,15,16,16,17,17,18,18,19,19,20,20,21,21,22,22,23,23,24,24,25,25,26,26,27,27,28,28,29,29,30,30,32,32,33,33,34,34,35,35,36,36,37,37,38,38,39,39],"right_children":[2,4,6,8,10,12,14,16,18,-1,-1,20,22,24,-1,26,28,30,32,34,36,38,40,42,44,46,48,50,52,54,56,-1,58,60,62,64,66,68,70,72,-1,-1,-1,-1,-1,-1,-1,-1,-1,-1,-1,-1,-1,-1,-1,-1,-1,-1,-1,-1,-1,-1,-1,-1,-1,-1,-1,-1,-1,-1,-1,-1,-1],"split_conditions":[6E1,1.1E2,4E0,1.555E2,8.75E1,2.33E2,2.64E2,2.83E2,7.1E1,-8.8904634E-2,4.3150863E-1,1.335E2,3.03E2,7.65E1,-5.010508E-2,1.44E2,7.7E1,1.015E2,1.57E2,7.6E1,1.465E2,7.1E1,1E0,7.9E1,8.35E1,1.17E2,2.75E2,2.911E1,7.8E1,2.86E1,5E1,2.8546327E-1,9.75E1,2.655E1,7.05E1,8.6E1,8.9E1,9.5E1,6.8E1,1.305E2,-8.6791895E-2,8.3059765E-2,-9.1502056E-2,6.7385834E-1,2.2115302E-1,-1.1390596E-1,-2.2050044E-2,-2.1223967E-1,1.4954445E-1,3.852556E-2,4.0639874E-1,-2.7501535E-1,3.8676925E-2,3.9076385E-1,7.1285225E-2,1.7693427E-1,-2.099866E-1,-1.5801537E-1,3.512146E-2,-2.9555336E-1,-2.6327344E-2,3.7494776E-1,5.409825E-2,5.580146E-1,-8.793204E-2,-1.2682498E-2,2.5539225E-1,8.086318E-2,-1.9354253E-1,-1.5337573E-1,1.4319918E-1,-4.5926314E-2,3.1215724E-1],"split_indices":[1,13,2,10,11,9,9,9,13,0,0,10,9,11,0,10,14,11,10,13,10,13,3,14,11,10,9,12,11,12,1,0,11,12,11,14,14,14,1,10,0,0,0,0,0,0,0,0,0,0,0,0,0,0,0,0,0,0,0,0,0,0,0,0,0,0,0,0,0,0,0,0,0],"split_type":[0,0,0,0,0,0,0,0,0,0,0,0,0,0,0,0,0,0,0,0,0,0,0,0,0,0,0,0,0,0,0,0,0,0,0,0,0,0,0,0,0,0,0,0,0,0,0,0,0,0,0,0,0,0,0,0,0,0,0,0,0,0,0,0,0,0,0,0,0,0,0,0,0],"sum_hessian":[3.3918192E2,2.6460638E2,7.457554E1,2.6187238E2,2.7339847E0,6.7336945E1,7.238596E0,2.2778078E2,3.4091606E1,1.1386527E0,1.595332E0,2.4198877E1,4.3138065E1,5.3172097E0,1.9213865E0,1.964704E2,3.1310383E1,9.79306E0,2.4298546E1,9.054289E0,1.51445875E1,3.7165913E1,5.9721513E0,2.178225E0,3.1389844E0,1.6882703E2,2.7643372E1,1.3599646E1,1.7710737E1,5.9266043E0,3.8664563E0,1.5523859E0,2.274616E1,5.622274E0,3.432015E0,4.679012E0,1.0465576E1,1.5337094E1,2.1828821E1,4.8364086E0,1.1357427E0,1.0860244E0,1.0922006E0,1.3051852E0,1.8337992E0,4.690882E1,1.21918205E2,2.5713474E1,1.9298966E0,1.1154527E1,2.4451184E0,3.891448E0,1.381929E1,4.816383E0,1.1102213E0,1.1193622E0,2.747094E0,9.048397E0,1.3697763E1,3.8993304E0,1.7229435E0,1.0094024E0,2.4226127E0,3.5291529E0,1.1498587E0,7.265866E0,3.1997101E0,1.2506741E1,2.830354E0,2.0522018E1,1.3068011E0,1.0247064E0,3.811702E0],"tree_param":{"num_deleted":"0","num_feature":"15","num_nodes":"73","size_leaf_vector":"1"}},{"base_weights":[-4.2083286E-2,-4.048469E-1,-1.2230597E-2,-7.04018E-1,-2.6292395E-2,-3.610645E-2,3.950875E-1,1.8745288E-1,-8.939696E-1,-2.4650836E-1,2.814824E-1,-2.3672913E-1,-2.259356E-3,1.1078974E-2,1.008224E0,-6.470191E-2,-2.8849757E-1,8.6247873E-1,-1.965436E-1,2.3680606E-1,-3.9943245E-1,1.3489674E-1,-6.287569E-2,-4.7186074E-1,6.706394E-1,-3.5987142E-2,1.4044443E0,-4.171326E-2,1.276279E0,-2.4460234E-1,2.0651689E-1,-1.6292755E-1,1.203806E0,-8.5867614E-1,-2.3438914E-1,-6.773529E-1,2.125132E-1,3.913411E-1,-1.08270094E-1,2.2034274E-1,-2.5818288E-1,1.7907592E-2,3.5335436E-1,7.929817E-2,4.963693E-1,7.210303E-2,5.278012E-1,-1.7026742E-1,9.418724E-2,5.499953E-1,-3.2804586E-2,-3.0751904E-2,-2.873836E-1,-2.0650809E-1,-8.224815E-3,-2.7489227E-1,9.380073E-2,9.2746384E-2,-1.4145237E-1,-1.4670277E-1,1.757317E-1,-1.3180986E-1,-1.7658994E-2,-5.665897E-2,1.6948009E-1,1.9134538E-1,-2.1274786E-1],"categories":[],"categories_nodes":[],"categories_segments":[],"categories_sizes":[],"default_left":[0,0,0,0,0,0,0,0,0,0,0,0,0,0,0,0,0,0,0,0,0,0,0,0,0,0,0,0,0,0,0,0,0,0,0,0,0,0,0,0,0,0,0,0,0,0,0,0,0,0,0,0,0,0,0,0,0,0,0,0,0,0,0,0,0,0,0],"id":8,"left_children":[1,3,5,7,9,11,13,-1,15,-1,17,19,21,23,25,-1,-1,27,29,31,33,35,37,39,41,-1,43,-1,45,-1,-1,47,49,51,53,55,57,59,61,63,-1,65,-1,-1,-1,-1,-1,-1,-1,-1,-1,-1,-1,-1,-1,-1,-1,-1,-1,-1,-1,-1,-1,-1,-1,-1,-1],"loss_changes":[3.57652E0,2.8258142E0,2.995975E0,4.0898147E0,3.1996367E0,1.972374E0,4.0057564E0,0E0,3.7345886E-1,0E0,2.80445E0,3.3252308E0,2.0837E0,3.9800208E0,3.1004386E0,0E0,0E0,2.0291467E0,3.8574193E0,4.5837035E0,2.1923962E0,4.9870896E0,3.6256588E0,2.1343129E0,1.7252319E0,0E0,9.693632E-1,0E0,1.2084894E0,0E0,0E0,1.8978277E0,3.043326E0,5.0033426E-1,2.293208E0,1.9281585E0,4.8314257E0,3.0263045E0,2.571518E0,5.8544385E-1,0E0,1.9495695E0,0E0,0E0,0E0,0E0,0E0,0E0,0E0,0E0,0E0,0E0,0E0,0E0,0E0,0E0,0E0,0E0,0E0,0E0,0E0,0E0,0E0,0E0,0E0,0E0,0E0],"parents":[2147483647,0,0,1,1,2,2,3,3,4,4,5,5,6,6,8,8,10,10,11,11,12,12,13,13,14,14,17,17,18,18,19,19,20,20,21,21,22,22,23,23,24,24,26,26,28,28,31,31,32,32,33,33,34,34,35,35,36,36,37,37,38,38,39,39,41,41],"right_children":[2,4,6,8,10,12,14,-1,16,-1,18,20,22,24,26,-1,-1,28,30,32,34,36,38,40,42,-1,44,-1,46,-1,-1,48,50,52,54,56,58,60,62,64,-1,66,-1,-1,-1,-1,-1,-1,-1,-1,-1,-1,-1,-1,-1,-1,-1,-1,-1,-1,-1,-1,-1,-1,-1,-1,-1],"split_conditions":[4E1,2.32E2,3.5E1,1.966E1,2E0,1.155E2,2.48E2,1.8745288E-1,6.1E1,-2.4650836E-1,1.19E2,1.05E2,2.23E2,5.4E1,1.245E2,-6.470191E-2,-2.8849757E-1,1E0,9.15E1,1.03E2,1.09E2,1.2E2,1.21E2,4.5E1,1.345E2,-3.5987142E-2,6.6E1,-4.171326E-2,7.6E1,-2.4460234E-1,2.0651689E-1,2.26E2,7.15E1,6.55E1,4.6E1,2.19E2,9.4E1,2.36E2,6.4E1,1.355E2,-2.5818288E-1,7.7E1,3.5335436E-1,7.929817E-2,4.963693E-1,7.210303E-2,5.278012E-1,-1.7026742E-1,9.418724E-2,5.499953E-1,-3.2804586E-2,-3.0751904E-2,-2.873836E-1,-2.0650809E-1,-8.224815E-3,-2.7489227E-1,9.380073E-2,9.2746384E-2,-1.4145237E-1,-1.4670277E-1,1.757317E-1,-1.3180986E-1,-1.7658994E-2,-5.665897E-2,1.6948009E-1,1.9134538E-1,-2.1274786E-1],"split_indices":[1,9,4,12,2,10,9,0,13,0,10,10,9,1,10,0,0,0,11,10,10,10,10,1,10,0,14,0,13,0,0,9,11,11,1,9,14,9,13,10,0,14,0,0,0,0,0,0,0,0,0,0,0,0,0,0,0,0,0,0,0,0,0,0,0,0,0],"split_type":[0,0,0,0,0,0,0,0,0,0,0,0,0,0,0,0,0,0,0,0,0,0,0,0,0,0,0,0,0,0,0,0,0,0,0,0,0,0,0,0,0,0,0,0,0,0,0,0,0,0,0,0,0,0,0,0,0,0,0,0,0,0,0,0,0,0,0],"sum_hessian":[3.297153E2,2.4114876E1,3.0560043E2,1.2989521E1,1.1125355E1,2.8953976E2,1.6060658E1,1.3382092E0,1.1651312E1,2.638003E0,8.487351E0,4.093149E1,2.4860828E2,1.0501574E1,5.5590854E0,1.4370613E0,1.0214251E1,3.4680307E0,5.019321E0,1.0350814E1,3.0580677E1,7.58217E1,1.7278658E2,6.226802E0,4.274771E0,1.626137E0,3.9329484E0,1.208083E0,2.2599475E0,3.000109E0,2.019212E0,7.91179E0,2.439024E0,6.9735603E0,2.3607119E1,5.9394054E0,6.988229E1,1.5006863E1,1.5777971E2,2.3951728E0,3.8316288E0,2.321944E0,1.9528275E0,1.0776263E0,2.8553221E0,1.1949279E0,1.0650197E0,4.1772842E0,3.7345054E0,1.3809129E0,1.0581111E0,1.0451177E0,5.9284425E0,6.66418E0,1.6942938E1,4.8445644E0,1.0948406E0,6.171147E1,8.170825E0,2.440705E0,1.2566157E1,1.9462214E1,1.383175E2,1.301521E0,1.093652E0,1.3195902E0,1.0023538E0],"tree_param":{"num_deleted":"0","num_feature":"15","num_nodes":"67","size_leaf_vector":"1"}},{"base_weights":[-3.4534395E-2,-2.608512E-1,-1.115535E-3,-3.903513E-1,1.5647814E-1,-1.1269046E-2,6.8389916E-1,-2.2308388E-1,-6.701733E-1,-5.73929E-1,6.411855E-1,1.322177E-2,-2.7386516E-1,3.6577353E-1,-1.300059E-1,-3.3432436E-1,2.0206782E-1,8.061436E-2,-7.905445E-1,-2.42296E-1,3.6380645E-2,4.6772608E-1,-8.58056E-2,-1.3659137E-2,4.6128076E-1,-4.9418637E-1,4.067776E-1,-4.318432E-1,1.7051129E-1,-2.5722998E-1,-3.0266501E-2,-1.3141227E-1,7.5862594E-2,-8.533701E-4,-7.003952E-1,-4.4865572E-1,6.6124743E-1,-7.33979E-1,3.5515362E-1,-1.835489E-1,8.5331374E-1,1.340055E-1,-1.6296768E-1,-4.772693E-3,2.2182456E-1,-2.5401082E-2,-2.5844157E-1,-1.9866253E-1,-2.4129092E-3,3.1989992E-1,5.1911224E-2,2.4862172E-1,-2.7544937E-1,-1.0337874E-1,4.0270838E-1,3.795853E-1,-9.29617E-3],"categories":[],"categories_nodes":[],"categories_segments":[],"categories_sizes":[],"default_left":[0,0,0,0,0,0,0,0,0,0,0,0,0,0,0,0,0,0,0,0,0,0,0,0,0,0,0,0,0,0,0,0,0,0,0,0,0,0,0,0,0,0,0,0,0,0,0,0,0,0,0,0,0,0,0,0,0],"id":9,"left_children":[1,3,5,7,9,11,13,15,17,19,21,23,25,-1,-1,27,-1,-1,29,-1,-1,-1,31,33,35,37,39,41,-1,-1,-1,-1,-1,43,45,47,49,51,53,-1,55,-1,-1,-1,-1,-1,-1,-1,-1,-1,-1,-1,-1,-1,-1,-1,-1],"loss_changes":[2.4614646E0,2.3241673E0,1.9872866E0,1.359684E0,4.131591E0,1.8136234E0,3.0244474E0,2.387591E0,1.5193782E0,8.727044E-1,4.7131014E0,3.1183603E0,3.8083484E0,0E0,0E0,2.0021024E0,0E0,0E0,3.9804268E-1,0E0,0E0,0E0,6.806758E-1,2.151628E0,2.962892E0,4.0537963E0,3.447174E0,2.060545E0,0E0,0E0,0E0,0E0,0E0,2.7005856E0,3.712659E-1,2.9913807E-1,2.2712107E0,5.035162E0,3.7607102E0,0E0,1.8201423E0,0E0,0E0,0E0,0E0,0E0,0E0,0E0,0E0,0E0,0E0,0E0,0E0,0E0,0E0,0E0,0E0],"parents":[2147483647,0,0,1,1,2,2,3,3,4,4,5,5,6,6,7,7,8,8,9,9,10,10,11,11,12,12,15,15,18,18,22,22,23,23,24,24,25,25,26,26,27,27,33,33,34,34,35,35,36,36,37,37,38,38,40,40],"right_children":[2,4,6,8,10,12,14,16,18,20,22,24,26,-1,-1,28,-1,-1,30,-1,-1,-1,32,34,36,38,40,42,-1,-1,-1,-1,-1,44,46,48,50,52,54,-1,56,-1,-1,-1,-1,-1,-1,-1,-1,-1,-1,-1,-1,-1,-1,-1,-1],"split_conditions":[4.2E1,1.37E2,1.22E2,8E1,1.8E1,9.9E1,1.35E2,7.7E1,6.4E1,1.525E2,1E0,9.4E1,2.911E1,3.6577353E-1,-1.300059E-1,3.01E2,2.0206782E-1,8.061436E-2,9.3E1,-2.42296E-1,3.6380645E-2,4.6772608E-1,1.505E2,3.4E2,2.11E2,6.2E1,2.23E2,2.002E1,1.7051129E-1,-2.5722998E-1,-3.0266501E-2,-1.3141227E-1,7.5862594E-2,3.23E2,5E1,1.355E2,9.6E1,4.5E1,8.75E1,-1.835489E-1,3.232E1,1.340055E-1,-1.6296768E-1,-4.772693E-3,2.2182456E-1,-2.5401082E-2,-2.5844157E-1,-1.9866253E-1,-2.4129092E-3,3.1989992E-1,5.1911224E-2,2.4862172E-1,-2.7544937E-1,-1.0337874E-1,4.0270838E-1,3.795853E-1,-9.29617E-3],"split_indices":[1,10,14,13,4,14,14,13,14,10,7,14,12,0,0,9,0,0,14,0,0,0,10,9,9,1,9,12,0,0,0,0,0,9,1,10,14,1,11,0,12,0,0,0,0,0,0,0,0,0,0,0,0,0,0,0,0],"split_type":[0,0,0,0,0,0,0,0,0,0,0,0,0,0,0,0,0,0,0,0,0,0,0,0,0,0,0,0,0,0,0,0,0,0,0,0,0,0,0,0,0,0,0,0,0,0,0,0,0,0,0,0,0,0,0,0,0],"sum_hessian":[3.244891E2,4.0874725E1,2.8361438E2,3.124411E1,9.630613E0,2.8044113E2,3.173241E0,2.0679745E1,1.0564365E1,3.768211E0,5.8624024E0,2.573859E2,2.3055239E1,2.083578E0,1.0896627E0,1.8955235E1,1.7245103E0,1.0604603E0,9.503905E0,2.6990385E0,1.0691725E0,2.0851326E0,3.7772698E0,2.4373288E2,1.3653026E1,1.7624275E1,5.4309626E0,1.7577888E1,1.3773453E0,8.441865E0,1.0620404E0,1.7077748E0,2.0694952E0,2.4025403E2,3.478844E0,2.2357452E0,1.141728E1,1.3849887E1,3.7743893E0,1.5423934E0,3.888569E0,1.6391026E0,1.59387865E1,2.3642413E2,3.8298926E0,1.0377263E0,2.4411175E0,1.167139E0,1.0686063E0,5.59267E0,5.82461E0,1.0912993E0,1.2758588E1,2.5897028E0,1.1846863E0,2.3588283E0,1.5297408E0],"tree_param":{"num_deleted":"0","num_feature":"15","num_nodes":"57","size_leaf_vector":"1"}},{"base_weights":[-2.4968138E-2,-7.556411E-2,8.712449E-2,-1.8082213E-1,9.622581E-3,5.7385834E-3,3.404324E-1,-2.357223E-1,5.9899193E-1,-5.749315E-2,3.479626E-1,6.60766E-1,-3.9155435E-2,5.1962924E-1,-6.65829E-1,-4.3481314E-1,-5.277796E-2,1.0149342E0,-8.881199E-2,3.153951E-3,-3.6528048E-1,7.026933E-1,7.7896155E-2,-6.1326057E-2,9.379089E-1,-2.933677E-1,1.20481305E-1,-3.31331E-1,7.005209E-1,-2.5228795E-1,-3.0907156E-2,-6.271872E-2,-6.9220114E-1,1.3696116E-1,-3.8915253E-1,3.574413E-1,5.5673745E-2,-9.072663E-2,3.2249716E-1,-3.7909842E-3,-6.713982E-1,1.0481592E0,1.4849709E-1,-1.8839435E-1,3.1595364E-1,-3.0064648E-3,3.8495895E-1,3.278023E-1,-4.2138538E-1,6.202396E-1,-4.6969008E-2,4.574151E-2,-2.4223651E-1,1.8461558E-1,1.0222393E0,-7.121144E-2,2.7054858E-1,-1.4364083E-1,-2.6230708E-1,9.875194E-2,-1.8297303E-1,-2.4423374E-1,2.8637605E-2,5.016838E-2,-6.1609775E-2,-3.3507656E-2,2.0015451E-1,1.0041914E-1,-1.2264111E-1,-2.503098E-1,4.949397E-2,-6.032685E-2,4.4808096E-1,-1.5431398E-1,2.3955742E-1,1.6706118E-1,-1.465153E-1,-6.3684165E-2,3.0511618E-1,-5.8329266E-2,-2.1101595E-1,-1.6600332E-1,2.8494295E-1,-6.0388368E-2,1.332634E-1,1.467387E-1,-2.2244406E-1,3.466989E-1,-8.373739E-3],"categories":[],"categories_nodes":[],"categories_segments":[],"categories_sizes":[],"default_left":[0,0,0,0,0,0,0,0,0,0,0,0,0,0,0,0,0,0,0,0,0,0,0,0,0,0,0,0,0,0,0,0,0,0,0,0,0,0,0,0,0,0,0,0,0,0,0,0,0,0,0,0,0,0,0,0,0,0,0,0,0,0,0,0,0,0,0,0,0,0,0,0,0,0,0,0,0,0,0,0,0,0,0,0,0,0,0,0,0],"id":10,"left_children":[1,3,5,7,9,11,13,15,17,19,21,23,25,27,29,31,33,35,-1,37,39,41,43,-1,45,47,49,51,53,-1,-1,55,57,59,61,-1,-1,63,65,67,69,71,73,-1,75,-1,-1,77,79,81,83,-1,-1,85,87,-1,-1,-1,-1,-1,-1,-1,-1,-1,-1,-1,-1,-1,-1,-1,-1,-1,-1,-1,-1,-1,-1,-1,-1,-1,-1,-1,-1,-1,-1,-1,-1,-1,-1],"loss_changes":[1.8244289E0,1.9867499E0,2.062664E0,4.3827486E0,2.8199975E0,2.2846837E0,4.734102E0,3.374381E0,2.8314629E0,1.9378288E0,1.9142194E0,1.3865077E0,2.9908922E0,3.4982867E0,3.1914377E-1,4.2211943E0,3.228322E0,4.9153137E-1,0E0,2.657468E0,1.8882647E0,1.5213361E0,2.3482215E0,0E0,1.3066688E0,2.3952646E0,3.8322234E0,1.1363429E0,2.7689362E0,0E0,0E0,3.4665089E0,6.0063744E-1,4.872958E0,3.8260798E0,0E0,0E0,2.060858E0,3.088074E0,1.3489252E0,1.3979597E0,3.2110195E0,2.3620305E0,0E0,2.254765E0,0E0,0E0,2.2307634E0,1.3974557E0,4.964206E0,2.7401693E0,0E0,0E0,2.6369941E0,1.5392017E0,0E0,0E0,0E0,0E0,0E0,0E0,0E0,0E0,0E0,0E0,0E0,0E0,0E0,0E0,0E0,0E0,0E0,0E0,0E0,0E0,0E0,0E0,0E0,0E0,0E0,0E0,0E0,0E0,0E0,0E0,0E0,0E0,0E0,0E0],"parents":[2147483647,0,0,1,1,2,2,3,3,4,4,5,5,6,6,7,7,8,8,9,9,10,10,11,11,12,12,13,13,14,14,15,15,16,16,17,17,19,19,20,20,21,21,22,22,24,24,25,25,26,26,27,27,28,28,31,31,32,32,33,33,34,34,37,37,38,38,39,39,40,40,41,41,42,42,44,44,47,47,48,48,49,49,50,50,53,53,54,54],"right_children":[2,4,6,8,10,12,14,16,18,20,22,24,26,28,30,32,34,36,-1,38,40,42,44,-1,46,48,50,52,54,-1,-1,56,58,60,62,-1,-1,64,66,68,70,72,74,-1,76,-1,-1,78,80,82,84,-1,-1,86,88,-1,-1,-1,-1,-1,-1,-1,-1,-1,-1,-1,-1,-1,-1,-1,-1,-1,-1,-1,-1,-1,-1,-1,-1,-1,-1,-1,-1,-1,-1,-1,-1,-1,-1],"split_conditions":[5.8E1,5E0,1.1E1,1.705E2,2.83E2,1.85E2,2.76E2,2.608E1,2.86E2,9.35E1,7.6E1,6.1E1,2.4E2,1.96E2,8.1E1,7.2E1,2.97E1,8.3E1,-8.881199E-2,8.65E1,4.7E1,1.275E2,7.1E1,-6.1326057E-2,6.6E1,7.3E1,1.285E2,1.8E2,2.495E1,-2.5228795E-1,-3.0907156E-2,9.25E1,2.35E2,2.8E2,1E0,3.574413E-1,5.5673745E-2,1.9E1,4.7E1,2.41E2,3.034E1,4.4E1,1.455E2,-1.8839435E-1,2.9E1,-3.0064648E-3,3.8495895E-1,2.778E1,2.23E2,7E1,2.96E2,4.574151E-2,-2.4223651E-1,2.422E1,2.61E2,-7.121144E-2,2.7054858E-1,-1.4364083E-1,-2.6230708E-1,9.875194E-2,-1.8297303E-1,-2.4423374E-1,2.8637605E-2,5.016838E-2,-6.1609775E-2,-3.3507656E-2,2.0015451E-1,1.0041914E-1,-1.2264111E-1,-2.503098E-1,4.949397E-2,-6.032685E-2,4.4808096E-1,-1.5431398E-1,2.3955742E-1,1.6706118E-1,-1.465153E-1,-6.3684165E-2,3.0511618E-1,-5.8329266E-2,-2.1101595E-1,-1.6600332E-1,2.8494295E-1,-6.0388368E-2,1.332634E-1,1.467387E-1,-2.2244406E-1,3.466989E-1,-8.373739E-3],"split_indices":[1,4,4,10,9,9,9,12,9,11,14,1,9,9,14,13,12,14,0,11,1,10,13,0,13,14,10,9,12,0,0,11,9,9,0,0,0,4,1,9,12,1,10,0,4,0,0,12,9,14,9,0,0,12,9,0,0,0,0,0,0,0,0,0,0,0,0,0,0,0,0,0,0,0,0,0,0,0,0,0,0,0,0,0,0,0,0,0,0],"split_type":[0,0,0,0,0,0,0,0,0,0,0,0,0,0,0,0,0,0,0,0,0,0,0,0,0,0,0,0,0,0,0,0,0,0,0,0,0,0,0,0,0,0,0,0,0,0,0,0,0,0,0,0,0,0,0,0,0,0,0,0,0,0,0,0,0,0,0,0,0,0,0,0,0,0,0,0,0,0,0,0,0,0,0,0,0,0,0,0,0],"sum_hessian":[3.195265E2,2.2037865E2,9.914784E1,9.807409E1,1.2230456E2,7.5812515E1,2.333533E1,9.227547E1,5.798623E0,1.0275196E2,1.9552597E1,3.9828136E0,7.1829704E1,2.0218405E1,3.1169248E0,4.352847E1,4.8746998E1,3.8673918E0,1.9312314E0,8.666504E1,1.608692E1,7.759116E0,1.1793481E1,1.0299408E0,2.952873E0,2.738421E1,4.444549E1,3.398648E0,1.6819757E1,2.000264E0,1.1166608E0,1.8306807E1,2.5221663E1,3.1545774E1,1.7201223E1,2.8286586E0,1.0387332E0,6.75288E1,1.9136236E1,7.840538E0,8.246381E0,4.230599E0,3.5285172E0,2.561197E0,9.232285E0,1.0476626E0,1.9052103E0,4.4126167E0,2.2971594E1,1.0475917E1,3.3969574E1,2.0228944E0,1.3757536E0,7.0647E0,9.755056E0,1.613848E1,2.1683269E0,1.3285739E1,1.1935924E1,2.5533766E1,6.0120096E0,8.802396E0,8.3988285E0,2.063605E1,4.6892754E1,8.767731E0,1.03685055E1,4.3653674E0,3.4751706E0,6.9036207E0,1.3427604E0,1.2561859E0,2.9744132E0,1.8503106E0,1.6782068E0,7.341122E0,1.8911619E0,2.8620155E0,1.5506014E0,1.3664152E1,9.307442E0,2.1480002E0,8.327917E0,2.6297316E1,7.6722584E0,5.6716266E0,1.3930737E0,8.56623E0,1.1888268E0],"tree_param":{"num_deleted":"0","num_feature":"15","num_nodes":"89","size_leaf_vector":"1"}},{"base_weights":[-2.3072213E-2,-2.7724606E-1,-5.6186845E-3,-5.8501875E-1,4.9249623E-2,-1.3405974E-2,2.1595137E-1,1.325088E-1,-8.113341E-1,-2.1402739E-1,2.9390657E-1,1.146957E-3,-4.1340417E-1,-2.7142712E-1,-3.2927737E-2,7.4447954E-1,-1.464652E-1,-2.661892E-2,2.2934835E-1,1.6452825E-1,-5.896293E-1,-2.2823319E-2,1.0081415E0,-2.1894147E-1,4.8524126E-1,-8.135311E-3,-7.197842E-1,3.8368103E-1,-3.546824E-1,-8.3410454E-1,-7.198246E-2,4.521545E-1,3.0026095E-2,2.2017957E-1,3.2411597E-3,7.1374294E-3,-7.03055E-2,-2.8972736E-1,8.057363E-2,-1.3607663E-1,1.4344913E-1,-2.3527084E-1,-6.3150926E-3,-2.81752E-1,-4.629664E-2,1.4789554E-1,-2.0530082E-1],"categories":[],"categories_nodes":[],"categories_segments":[],"categories_sizes":[],"default_left":[0,0,0,0,0,0,0,0,0,0,0,0,0,0,0,0,0,0,0,0,0,0,0,0,0,0,0,0,0,0,0,0,0,0,0,0,0,0,0,0,0,0,0,0,0,0,0],"id":11,"left_children":[1,3,5,7,9,11,-1,-1,13,-1,15,17,19,-1,-1,21,23,25,27,-1,29,-1,31,-1,33,35,37,39,41,43,45,-1,-1,-1,-1,-1,-1,-1,-1,-1,-1,-1,-1,-1,-1,-1,-1],"loss_changes":[1.3940122E0,2.0579433E0,1.6784176E0,2.7917032E0,2.2101219E0,1.7074447E0,0E0,0E0,4.862113E-1,0E0,1.8601415E0,1.8052044E0,2.0686824E0,0E0,0E0,1.0560021E0,2.3067186E0,3.2488923E0,2.921628E0,0E0,1.1022558E0,0E0,1.4333372E0,0E0,3.630907E-1,1.7999579E0,1.8606601E0,2.1886363E0,9.8370296E-1,2.938733E-1,1.7352625E0,0E0,0E0,0E0,0E0,0E0,0E0,0E0,0E0,0E0,0E0,0E0,0E0,0E0,0E0,0E0,0E0],"parents":[2147483647,0,0,1,1,2,2,3,3,4,4,5,5,8,8,10,10,11,11,12,12,15,15,16,16,17,17,18,18,20,20,22,22,24,24,25,25,26,26,27,27,28,28,29,29,30,30],"right_children":[2,4,6,8,10,12,-1,-1,14,-1,16,18,20,-1,-1,22,24,26,28,-1,30,-1,32,-1,34,36,38,40,42,44,46,-1,-1,-1,-1,-1,-1,-1,-1,-1,-1,-1,-1,-1,-1,-1,-1],"split_conditions":[4E1,2.32E2,1.1E2,1.966E1,2E0,9.7E1,2.1595137E-1,1.325088E-1,4E0,-2.1402739E-1,1.19E2,8.9E1,1.88E2,-2.7142712E-1,-3.2927737E-2,7.1E1,9.15E1,8.7E1,2.72E2,1.6452825E-1,2.58E2,-2.2823319E-2,7.9E1,-2.1894147E-1,8.1E1,3.022E1,9.3E1,4.3E1,2.89E2,9.5E1,8.2E1,4.521545E-1,3.0026095E-2,2.2017957E-1,3.2411597E-3,7.1374294E-3,-7.03055E-2,-2.8972736E-1,8.057363E-2,-1.3607663E-1,1.4344913E-1,-2.3527084E-1,-6.3150926E-3,-2.81752E-1,-4.629664E-2,1.4789554E-1,-2.0530082E-1],"split_indices":[1,9,13,12,2,13,0,0,2,0,10,13,9,0,0,13,11,13,9,0,9,0,13,0,13,12,11,1,9,14,14,0,0,0,0,0,0,0,0,0,0,0,0,0,0,0,0],"split_type":[0,0,0,0,0,0,0,0,0,0,0,0,0,0,0,0,0,0,0,0,0,0,0,0,0,0,0,0,0,0,0,0,0,0,0,0,0,0,0,0,0,0,0,0,0,0,0],"sum_hessian":[3.1358466E2,1.919308E1,2.9439157E2,9.472228E0,9.720852E0,2.9223615E2,2.1554384E0,1.5389334E0,7.933295E0,1.895609E0,7.8252425E0,2.8293924E2,9.296902E0,6.7454505E0,1.1878444E0,3.5264904E0,4.2987523E0,2.5303513E2,2.9904112E1,1.1125504E0,8.184351E0,1.03059E0,2.4959004E0,2.1541991E0,2.1445532E0,2.4744853E2,5.586606E0,2.39249E1,5.979213E0,5.1437244E0,3.040627E0,1.1849145E0,1.310986E0,1.0481709E0,1.0963824E0,2.1762863E2,2.9819899E1,4.4916434E0,1.0949625E0,2.0406523E0,2.1884247E1,2.0234303E0,3.955783E0,4.1246324E0,1.019092E0,1.6828945E0,1.3577325E0],"tree_param":{"num_deleted":"0","num_feature":"15","num_nodes":"47","size_leaf_vector":"1"}},{"base_weights":[-2.0414734E-2,-2.769307E-2,5.173809E-1,-9.276902E-2,3.5217773E-2,2.7624786E-1,-1.1557538E-1,2.153065E-1,-1.0943133E-1,-3.5084173E-1,6.257431E-2,-1.2634368E-1,7.0328027E-1,-5.286956E-1,1.90653E-1,4.2292097E-1,2.714432E-2,-6.7753446E-1,-9.4974734E-2,3.859654E-2,2.7705577E-1,-5.553368E-2,-2.907055E-1,1.0179776E0,-3.7469146E-1,4.16259E-2,-2.241899E-1,-5.5182055E-2,-2.557942E-1,6.143846E-3,-8.23738E-2,1.0313303E-1,-1.7095539E-1,4.6327826E-2,4.2793676E-1,5.9631485E-2,-2.76054E-1,-4.661753E-3,1.153044E-1],"categories":[],"categories_nodes":[],"categories_segments":[],"categories_sizes":[],"default_left":[0,0,0,0,0,0,0,0,0,0,0,0,0,0,0,0,0,0,0,0,0,0,0,0,0,0,0,0,0,0,0,0,0,0,0,0,0,0,0],"id":12,"left_children":[1,3,5,7,9,-1,-1,-1,11,13,15,17,19,21,-1,23,25,27,29,-1,-1,31,-1,33,35,37,-1,-1,-1,-1,-1,-1,-1,-1,-1,-1,-1,-1,-1],"loss_changes":[1.23545E0,1.2672896E0,1.8902383E0,2.1316905E0,1.6875896E0,0E0,0E0,0E0,2.1484427E0,2.1933131E0,1.8796377E0,2.4883401E0,2.870394E-1,1.9287689E0,0E0,6.64246E0,1.5556186E0,5.162096E-1,2.926314E0,0E0,0E0,1.3557839E0,0E0,2.5396194E0,2.174743E0,2.6388083E0,0E0,0E0,0E0,0E0,0E0,0E0,0E0,0E0,0E0,0E0,0E0,0E0,0E0],"parents":[2147483647,0,0,1,1,2,2,3,3,4,4,8,8,9,9,10,10,11,11,12,12,13,13,15,15,16,16,17,17,18,18,21,21,23,23,24,24,25,25],"right_children":[2,4,6,8,10,-1,-1,-1,12,14,16,18,20,22,-1,24,26,28,30,-1,-1,32,-1,34,36,38,-1,-1,-1,-1,-1,-1,-1,-1,-1,-1,-1,-1,-1],"split_conditions":[1.22E2,1E0,1.35E2,1.806E1,6.2E1,2.7624786E-1,-1.1557538E-1,2.153065E-1,1.925E2,4E0,6.6E1,4E1,2.759E1,6E1,1.90653E-1,2.61E2,3.44E1,2.144E1,8E1,3.859654E-2,2.7705577E-1,2.759E1,-2.907055E-1,6.4E1,6.5E1,2.982E1,-2.241899E-1,-5.5182055E-2,-2.557942E-1,6.143846E-3,-8.23738E-2,1.0313303E-1,-1.7095539E-1,4.6327826E-2,4.2793676E-1,5.9631485E-2,-2.76054E-1,-4.661753E-3,1.153044E-1],"split_indices":[14,0,14,12,14,0,0,0,10,2,14,1,12,14,0,9,12,12,14,0,0,12,0,14,14,12,0,0,0,0,0,0,0,0,0,0,0,0,0],"split_type":[0,0,0,0,0,0,0,0,0,0,0,0,0,0,0,0,0,0,0,0,0,0,0,0,0,0,0,0,0,0,0,0,0,0,0,0,0,0,0],"sum_hessian":[3.109678E2,3.077513E2,3.2164915E0,1.5103932E2,1.56712E2,2.2089918E0,1.0074996E0,2.1951334E0,1.4884418E2,9.587466E0,1.4712454E2,1.4663724E2,2.2069483E0,8.51591E0,1.0715562E0,1.2191548E1,1.34933E2,6.786755E0,1.3985048E2,1.0504311E0,1.156517E0,4.647703E0,3.8682072E0,6.8241377E0,5.3674107E0,1.3338503E2,1.5479592E0,2.3141682E0,4.4725866E0,8.566737E1,5.4183105E1,2.8030403E0,1.8446627E0,2.6339135E0,4.190224E0,2.9264693E0,2.440941E0,1.1513543E2,1.8249603E1],"tree_param":{"num_deleted":"0","num_feature":"15","num_nodes":"39","size_leaf_vector":"1"}},{"base_weights":[-1.5674232E-2,-4.1352302E-1,-3.5799572E-3,1.0323595E-1,-6.032277E-1,4.7856632E-1,-1.3217234E-2,-2.4870697E-1,-1.9279006E-1,3.614948E-1,-1.770067E-1,-2.2382888E-1,-5.5368682E-3,7.8284934E-2,-1.3258313E-1,6.390043E-1,-1.302004E-2,3.4446442E-1,-5.844232E-2,-2.000219E-1,1.46158235E-2,-2.2108762E-1,-3.0671185E-2,4.5798488E-2,-8.256446E-3],"categories":[],"categories_nodes":[],"categories_segments":[],"categories_sizes":[],"default_left":[0,0,0,0,0,0,0,0,0,0,0,0,0,0,0,0,0,0,0,0,0,0,0,0,0],"id":13,"left_children":[1,3,5,-1,7,9,11,-1,13,-1,-1,-1,15,-1,-1,17,19,-1,-1,21,23,-1,-1,-1,-1],"loss_changes":[1.4837769E0,1.5152159E0,1.4029877E0,0E0,5.4814863E-1,5.3041296E0,1.6600825E0,0E0,5.691317E-1,0E0,0E0,0E0,1.424428E0,0E0,0E0,1.6628556E0,1.5079007E0,0E0,0E0,1.8968945E0,1.4854673E0,0E0,0E0,0E0,0E0],"parents":[2147483647,0,0,1,1,2,2,4,4,5,5,6,6,8,8,12,12,15,15,16,16,19,19,20,20],"right_children":[2,4,6,-1,8,10,12,-1,14,-1,-1,-1,16,-1,-1,18,20,-1,-1,22,24,-1,-1,-1,-1],"split_conditions":[1.67E2,6.55E1,1.75E2,1.0323595E-1,7.5E1,7.9E1,9.75E1,-2.4870697E-1,4.6E1,3.614948E-1,-1.770067E-1,-2.2382888E-1,1.005E2,7.8284934E-2,-1.3258313E-1,2.35E2,1.155E2,3.4446442E-1,-5.844232E-2,1.97E2,6.8E1,-2.2108762E-1,-3.0671185E-2,4.5798488E-2,-8.256446E-3],"split_indices":[9,11,9,0,13,14,10,0,1,0,0,0,10,0,0,9,10,0,0,9,13,0,0,0,0],"split_type":[0,0,0,0,0,0,0,0,0,0,0,0,0,0,0,0,0,0,0,0,0,0,0,0,0],"sum_hessian":[3.076767E2,8.097948E0,2.9957874E2,1.4586023E0,6.639345E0,4.917192E0,2.9466156E2,3.6251676E0,3.0141778E0,2.85128E0,2.0659122E0,2.0588388E0,2.9260272E2,1.0516491E0,1.9625287E0,2.3895967E0,2.902131E2,1.2494742E0,1.1401227E0,3.6563488E1,2.5364963E2,4.625924E0,3.1937565E1,5.8704662E1,1.9494496E2],"tree_param":{"num_deleted":"0","num_feature":"15","num_nodes":"25","size_leaf_vector":"1"}},{"base_weights":[-1.2958182E-2,-4.5385815E-2,9.364785E-2,-9.698916E-2,6.8078026E-2,1.5941882E-1,-3.2943273E-1,-3.7948303E-2,-3.5452628E-1,4.9888387E-1,-5.086149E-2,2.8277516E-2,1.1735966E0,-6.3330644E-1,1.7029913E-1,4.2109475E-1,-7.381997E-2,-1.435634E-1,-9.401778E-1,2.5879633E-1,1.2866191E0,-5.997155E-1,1.7570091E-2,2.491485E-1,-9.872683E-2,1.3492724E0,1.3791971E-1,7.358864E-2,-8.7961864E-1,-7.026568E-2,1.2700292E0,-2.5611714E-1,-4.027829E-2,-2.7016515E-1,2.6526463E-1,-3.1043786E-1,-9.824446E-2,9.862303E-1,-3.783164E-2,1.2230117E-1,4.7576234E-1,-2.827398E-1,1.1161661E-1,7.1795726E-1,-6.54111E-2,-6.665073E-2,6.9136596E-1,2.7748883E-1,-2.5682148E-1,1.2696235E-1,4.7746116E-1,-3.139895E-1,-9.908145E-4,8.525901E-2,-2.1098727E-1,7.9832986E-2,4.7658128E-1,2.703843E-2,-4.0303875E-2,-1.1754426E-1,1.7620099E-1,4.9669108E-1,-8.395957E-2,-1.3846713E-1,1.6245456E-1,2.3024231E-1,-1.8316978E-1,2.9403585E-1,-5.1430583E-2,-4.2169333E-2,2.3832713E-1,-1.5822293E-1,1.0638752E-1,2.4882002E-1,7.3510683E-3,-1.0669794E-1,1.9816522E-1,4.061901E-2,-1.2927656E-1],"categories":[],"categories_nodes":[],"categories_segments":[],"categories_sizes":[],"default_left":[0,0,0,0,0,0,0,0,0,0,0,0,0,0,0,0,0,0,0,0,0,0,0,0,0,0,0,0,0,0,0,0,0,0,0,0,0,0,0,0,0,0,0,0,0,0,0,0,0,0,0,0,0,0,0,0,0,0,0,0,0,0,0,0,0,0,0,0,0,0,0,0,0,0,0,0,0,0,0],"id":14,"left_children":[1,3,5,7,9,11,13,15,17,19,21,23,25,27,-1,29,31,33,35,37,39,41,43,45,47,49,-1,-1,51,53,55,-1,57,59,-1,-1,-1,61,63,-1,-1,-1,65,67,69,71,73,75,77,-1,-1,-1,-1,-1,-1,-1,-1,-1,-1,-1,-1,-1,-1,-1,-1,-1,-1,-1,-1,-1,-1,-1,-1,-1,-1,-1,-1,-1,-1],"loss_changes":[1.0670079E0,1.3907222E0,2.0568166E0,2.4635592E0,3.8422E0,8.347401E0,3.0901713E0,2.2317526E0,3.6038592E0,2.7324839E0,2.2370627E0,1.618527E0,2.814188E-1,1.937335E0,0E0,4.1920495E0,3.2305079E0,3.2872705E0,1.1525011E-1,2.9879012E0,2.8312588E-1,1.7144027E0,3.1668208E0,2.9827487E0,2.259622E0,5.050726E-1,0E0,0E0,9.378047E-1,1.81038E0,7.472577E-1,0E0,1.4928827E0,2.4858587E0,0E0,0E0,0E0,3.8516207E0,2.8708358E0,0E0,0E0,0E0,1.9086214E0,1.513346E0,3.272255E0,2.7453241E0,7.941928E-1,2.991863E0,1.8628376E0,0E0,0E0,0E0,0E0,0E0,0E0,0E0,0E0,0E0,0E0,0E0,0E0,0E0,0E0,0E0,0E0,0E0,0E0,0E0,0E0,0E0,0E0,0E0,0E0,0E0,0E0,0E0,0E0,0E0,0E0],"parents":[2147483647,0,0,1,1,2,2,3,3,4,4,5,5,6,6,7,7,8,8,9,9,10,10,11,11,12,12,13,13,15,15,16,16,17,17,18,18,19,19,20,20,21,21,22,22,23,23,24,24,25,25,28,28,29,29,30,30,32,32,33,33,37,37,38,38,42,42,43,43,44,44,45,45,46,46,47,47,48,48],"right_children":[2,4,6,8,10,12,14,16,18,20,22,24,26,28,-1,30,32,34,36,38,40,42,44,46,48,50,-1,-1,52,54,56,-1,58,60,-1,-1,-1,62,64,-1,-1,-1,66,68,70,72,74,76,78,-1,-1,-1,-1,-1,-1,-1,-1,-1,-1,-1,-1,-1,-1,-1,-1,-1,-1,-1,-1,-1,-1,-1,-1,-1,-1,-1,-1,-1,-1],"split_conditions":[6E1,2.6E2,9.75E1,2.45E2,2.68E2,9.35E1,8.9E1,1.05E2,1.425E2,1.555E2,2.71E2,2.34E2,1.635E2,6.1E1,1.7029913E-1,1.03E2,1.09E2,1.03E2,2.55E2,6.8E1,2E0,8.3E1,2.214E1,7.6E1,2.392E1,7.5E1,1.3791971E-1,7.358864E-2,1.9E2,1.005E2,2.151E1,-2.5611714E-1,2E0,1.39E2,2.6526463E-1,-3.1043786E-1,-9.824446E-2,2.759E1,2.64E2,1.2230117E-1,4.7576234E-1,-2.827398E-1,8.9E1,8.35E1,3.5E1,1.335E2,9.1E1,2.199E1,7.8E1,1.2696235E-1,4.7746116E-1,-3.139895E-1,-9.908145E-4,8.525901E-2,-2.1098727E-1,7.9832986E-2,4.7658128E-1,2.703843E-2,-4.0303875E-2,-1.1754426E-1,1.7620099E-1,4.9669108E-1,-8.395957E-2,-1.3846713E-1,1.6245456E-1,2.3024231E-1,-1.8316978E-1,2.9403585E-1,-5.1430583E-2,-4.2169333E-2,2.3832713E-1,-1.5822293E-1,1.0638752E-1,2.4882002E-1,7.3510683E-3,-1.0669794E-1,1.9816522E-1,4.061901E-2,-1.2927656E-1],"split_indices":[1,9,11,9,9,11,14,10,10,10,9,9,10,1,0,10,10,14,9,13,2,14,12,13,12,14,0,0,10,10,12,0,2,10,0,0,0,12,9,0,0,0,14,11,4,10,13,12,11,0,0,0,0,0,0,0,0,0,0,0,0,0,0,0,0,0,0,0,0,0,0,0,0,0,0,0,0,0,0],"split_type":[0,0,0,0,0,0,0,0,0,0,0,0,0,0,0,0,0,0,0,0,0,0,0,0,0,0,0,0,0,0,0,0,0,0,0,0,0,0,0,0,0,0,0,0,0,0,0,0,0,0,0,0,0,0,0,0,0,0,0,0,0,0,0,0,0,0,0,0,0,0,0,0,0,0,0,0,0,0,0],"sum_hessian":[3.0642355E2,2.3539494E2,7.1028625E1,1.6190552E2,7.3489426E1,6.2011658E1,9.01697E0,1.3264398E2,2.9261528E1,1.520859E1,5.8280834E1,5.582139E1,6.19027E0,6.9551115E0,2.0618582E0,8.83574E0,1.2380824E2,2.2427755E1,6.8337717E0,1.2674241E1,2.5343487E0,5.60027E0,5.2680565E1,2.0028482E1,3.5792904E1,4.2534394E0,1.9368302E0,1.5238011E0,5.43131E0,6.177471E0,2.6582692E0,4.096839E0,1.1971141E2,2.0624382E1,1.8033737E0,5.3228765E0,1.5108954E0,2.9977994E0,9.676442E0,1.2437094E0,1.2906393E0,3.5599847E0,2.0402849E0,4.7698116E0,4.791075E1,1.2179826E1,7.848656E0,1.0367146E1,2.542576E1,1.4515866E0,2.801853E0,4.39864E0,1.0326704E0,4.313293E0,1.8641781E0,1.0824571E0,1.575812E0,5.0183674E1,6.952773E1,1.8537626E1,2.0867565E0,1.759729E0,1.2380705E0,5.706274E0,3.9701676E0,1.0363749E0,1.0039101E0,3.605133E0,1.1646788E0,4.4829018E1,3.081732E0,5.6969767E0,6.482849E0,6.3007307E0,1.5479252E0,3.934874E0,6.432272E0,7.8848515E0,1.7540907E1],"tree_param":{"num_deleted":"0","num_feature":"15","num_nodes":"79","size_leaf_vector":"1"}},{"base_weights":[-6.991894E-3,-3.2480663E-1,2.9678345E-3,1.2770246E-1,-4.7510222E-1,-4.271567E-3,5.814128E-1,-6.5121394E-1,3.0259285E-3,4.04725E-3,-2.0842636E-1,2.518946E-1,8.129924E-3,-2.6023555E-1,2.087843E-2,1.288291E-1,-1.2972169E-1,5.894393E-1,-2.6876966E-3,3.6306408E-1,-7.55355E-2,-2.120515E-1,4.2456808E-3,5.268442E-3,-7.8446954E-2],"categories":[],"categories_nodes":[],"categories_segments":[],"categories_sizes":[],"default_left":[0,0,0,0,0,0,0,0,0,0,0,0,0,0,0,0,0,0,0,0,0,0,0,0,0],"id":15,"left_children":[1,3,5,-1,7,9,11,13,15,17,-1,-1,-1,-1,-1,-1,-1,19,21,-1,-1,-1,23,-1,-1],"loss_changes":[9.5800745E-1,1.2395208E0,1.234281E0,0E0,6.8691945E-1,1.6772496E0,4.9874723E-1,9.8767424E-1,7.7705353E-1,1.1411276E0,0E0,0E0,0E0,0E0,0E0,0E0,0E0,2.0238643E0,1.4029188E0,0E0,0E0,0E0,1.0128489E0,0E0,0E0],"parents":[2147483647,0,0,1,1,2,2,4,4,5,5,6,6,7,7,8,8,9,9,17,17,18,18,22,22],"right_children":[2,4,6,-1,8,10,12,14,16,18,-1,-1,-1,-1,-1,-1,-1,20,22,-1,-1,-1,24,-1,-1],"split_conditions":[1.68E2,1.966E1,1.925E2,1.2770246E-1,5.5E1,1.865E2,7.6E1,8.5E1,1.58E2,1.71E2,-2.0842636E-1,2.518946E-1,8.129924E-3,-2.6023555E-1,2.087843E-2,1.288291E-1,-1.2972169E-1,1.205E2,9.75E1,3.6306408E-1,-7.55355E-2,-2.120515E-1,1.045E2,5.268442E-3,-7.8446954E-2],"split_indices":[9,12,10,0,1,10,13,14,9,9,0,0,0,0,0,0,0,10,10,0,0,0,11,0,0],"split_type":[0,0,0,0,0,0,0,0,0,0,0,0,0,0,0,0,0,0,0,0,0,0,0,0,0],"sum_hessian":[3.0135013E2,8.196241E0,2.9315387E2,1.0618384E0,7.1344028E0,2.9051068E2,2.6432076E0,4.9493666E0,2.185036E0,2.880346E2,2.476052E0,1.4520097E0,1.191198E0,3.6507294E0,1.2986372E0,1.1109247E0,1.0741113E0,2.2920651E0,2.8574255E2,1.0664521E0,1.225613E0,1.801835E0,2.8394073E2,2.7128098E2,1.2659757E1],"tree_param":{"num_deleted":"0","num_feature":"15","num_nodes":"25","size_leaf_vector":"1"}},{"base_weights":[-5.8157626E-3,-3.6303782E-1,2.9448674E-3,5.4424856E-2,-4.9181023E-1,-1.9903661E-1,8.806391E-3,-6.748844E-1,2.2528756E-2,2.1045323E-1,2.8334493E-3,-2.2801135E-1,-6.061962E-2,-3.545693E-3,5.0226784E-1,9.611304E-3,-4.1287827E-1,-3.9046694E-2,2.762508E-1,-5.556355E-3,4.324744E-2,-1.7342882E-4,-2.0704609E-1],"categories":[],"categories_nodes":[],"categories_segments":[],"categories_sizes":[],"default_left":[0,0,0,0,0,0,0,0,0,0,0,0,0,0,0,0,0,0,0,0,0,0,0],"id":16,"left_children":[1,3,5,-1,7,-1,9,11,-1,-1,13,-1,-1,15,17,19,21,-1,-1,-1,-1,-1,-1],"loss_changes":[9.449236E-1,5.959494E-1,1.1596034E0,0E0,6.852846E-1,0E0,1.2135386E0,3.6543846E-2,0E0,0E0,9.3296325E-1,0E0,0E0,1.5635453E0,1.0974609E0,1.0683472E0,1.0331556E0,0E0,0E0,0E0,0E0,0E0,0E0],"parents":[2147483647,0,0,1,1,2,2,4,4,6,6,7,7,10,10,13,13,14,14,15,15,16,16],"right_children":[2,4,6,-1,8,-1,10,12,-1,-1,14,-1,-1,16,18,20,22,-1,-1,-1,-1,-1,-1],"split_conditions":[3.8E1,1.966E1,9.75E1,5.4424856E-2,2.66E2,-1.9903661E-1,9.85E1,8.3E1,2.2528756E-2,2.1045323E-1,1.1E2,-2.2801135E-1,-6.061962E-2,9.7E1,8.85E1,1.555E2,2E0,-3.9046694E-2,2.762508E-1,-5.556355E-3,4.324744E-2,-1.7342882E-4,-2.0704609E-1],"split_indices":[1,12,10,0,9,0,10,14,0,0,13,0,0,13,11,10,2,0,0,0,0,0,0],"split_type":[0,0,0,0,0,0,0,0,0,0,0,0,0,0,0,0,0,0,0,0,0,0,0],"sum_hessian":[3.0060007E2,6.2275314E0,2.9437253E2,1.1129844E0,5.114547E0,1.5884846E0,2.9278403E2,3.7220843E0,1.3924626E0,1.507483E0,2.9127655E2,2.6392937E0,1.0827906E0,2.8858347E2,2.693099E0,2.8054263E2,8.040838E0,1.3469737E0,1.3461252E0,2.32741E2,4.7801632E1,3.63612E0,4.404718E0],"tree_param":{"num_deleted":"0","num_feature":"15","num_nodes":"23","size_leaf_vector":"1"}},{"base_weights":[-5.173392E-3,-5.5064898E-2,4.7830924E-2,-3.5924605E-1,-4.155142E-3,7.8914076E-2,-4.3235645E-1,-2.8470486E-1,-1.6572769E-1,5.320002E-1,-6.1370157E-2,4.1621156E-2,3.8445827E-1,-2.408197E-1,1.8458644E-2,2.0408854E-1,-4.3282774E-1,-2.3076057E-1,8.0395645E-1,-4.8313287E-1,3.249411E-3,-6.0358744E-2,1.7310469E-1,5.586646E-1,-1.2338862E-1,2.0684715E-1,-1.9600889E-1,-6.14886E-1,8.515693E-1,-6.3000476E-1,1.4449064E-1,1.6081154E-1,-2.2349736E-1,6.0539372E-2,1.1821239E0,1.01338774E-1,-5.7814646E-1,-4.7812542E-1,3.7607294E-2,6.5197796E-2,-5.941391E-1,2.3166078E-1,-5.135241E-1,1.0000025E0,1.530506E-1,-2.1089505E-1,2.1205398E-1,-1.144152E-2,-2.3655184E-1,4.2910764E-1,-3.8181435E-2,4.0794708E-2,-2.360583E-1,3.3853766E-1,-1.8020919E-1,-1.1897713E-3,4.82783E-1,1.4237432E-1,-9.044272E-2,-1.981099E-1,1.7431546E-2,8.918772E-2,-2.6001057E-1,2.8074586E-1,1.8218866E-3,-3.902184E-2,6.589552E-2,-2.175624E-1,1.3169378E-1,8.2596526E-2,-1.7780514E-1,-1.9485094E-1,-1.0850899E-2,2.1713538E-2,4.110649E-1,-1.4816098E-1,1.3174035E-1],"categories":[],"categories_nodes":[],"categories_segments":[],"categories_sizes":[],"default_left":[0,0,0,0,0,0,0,0,0,0,0,0,0,0,0,0,0,0,0,0,0,0,0,0,0,0,0,0,0,0,0,0,0,0,0,0,0,0,0,0,0,0,0,0,0,0,0,0,0,0,0,0,0,0,0,0,0,0,0,0,0,0,0,0,0,0,0,0,0,0,0,0,0,0,0,0,0],"id":17,"left_children":[1,3,5,7,9,11,13,-1,15,17,19,21,23,-1,25,27,29,31,33,35,37,39,41,43,45,-1,-1,47,49,51,-1,-1,-1,53,55,57,59,61,63,65,67,69,71,73,75,-1,-1,-1,-1,-1,-1,-1,-1,-1,-1,-1,-1,-1,-1,-1,-1,-1,-1,-1,-1,-1,-1,-1,-1,-1,-1,-1,-1,-1,-1,-1,-1],"loss_changes":[7.9698354E-1,2.4018927E0,2.2160013E0,2.3809352E0,4.1420245E0,1.5580639E0,1.5245109E0,0E0,1.8620452E0,2.886433E0,3.3249283E0,1.676285E0,1.3875985E0,0E0,2.729581E0,4.8770857E0,2.2411716E0,2.0551145E0,2.6895332E0,9.586246E-1,1.7832297E0,4.7776523E0,2.3112652E0,1.8660536E0,2.7229803E0,0E0,0E0,3.9105535E-1,3.017195E0,1.2212341E0,0E0,0E0,0E0,3.7604923E0,3.2771568E0,6.1173046E-1,7.754607E-1,2.4220824E0,2.842319E0,1.7822543E0,2.1550431E0,1.9962642E0,2.7480352E-1,1.6938081E0,1.5231484E0,0E0,0E0,0E0,0E0,0E0,0E0,0E0,0E0,0E0,0E0,0E0,0E0,0E0,0E0,0E0,0E0,0E0,0E0,0E0,0E0,0E0,0E0,0E0,0E0,0E0,0E0,0E0,0E0,0E0,0E0,0E0,0E0],"parents":[2147483647,0,0,1,1,2,2,3,3,4,4,5,5,6,6,8,8,9,9,10,10,11,11,12,12,14,14,15,15,16,16,17,17,18,18,19,19,20,20,21,21,22,22,23,23,24,24,27,27,28,28,29,29,33,33,34,34,35,35,36,36,37,37,38,38,39,39,40,40,41,41,42,42,43,43,44,44],"right_children":[2,4,6,8,10,12,14,-1,16,18,20,22,24,-1,26,28,30,32,34,36,38,40,42,44,46,-1,-1,48,50,52,-1,-1,-1,54,56,58,60,62,64,66,68,70,72,74,76,-1,-1,-1,-1,-1,-1,-1,-1,-1,-1,-1,-1,-1,-1,-1,-1,-1,-1,-1,-1,-1,-1,-1,-1,-1,-1,-1,-1,-1,-1,-1,-1],"split_conditions":[5E0,7E1,3.108E1,6.5E1,7.3E1,2.904E1,3.249E1,-2.8470486E-1,2.33E2,1.265E2,4.7E1,1.325E2,5.3E1,-2.408197E-1,3.347E1,2.677E1,3.03E2,7.45E1,2.39E2,1.81E2,1.14E2,8.25E1,1.725E2,1E0,6E1,2.0684715E-1,-1.9600889E-1,4.5E1,8.55E1,6.1E1,1.4449064E-1,1.6081154E-1,-2.2349736E-1,1.91E2,2.503E1,1.245E2,9.2E1,6.7E1,1.165E2,7.3E1,2.96E2,6.4E1,8.1E1,4.5E1,2.34E2,-2.1089505E-1,2.1205398E-1,-1.144152E-2,-2.3655184E-1,4.2910764E-1,-3.8181435E-2,4.0794708E-2,-2.360583E-1,3.3853766E-1,-1.8020919E-1,-1.1897713E-3,4.82783E-1,1.4237432E-1,-9.044272E-2,-1.981099E-1,1.7431546E-2,8.918772E-2,-2.6001057E-1,2.8074586E-1,1.8218866E-3,-3.902184E-2,6.589552E-2,-2.175624E-1,1.3169378E-1,8.2596526E-2,-1.7780514E-1,-1.9485094E-1,-1.0850899E-2,2.1713538E-2,4.110649E-1,-1.4816098E-1,1.3174035E-1],"split_indices":[4,14,12,13,14,12,12,0,9,10,1,10,1,0,12,12,9,11,9,9,10,11,10,7,1,0,0,1,11,14,0,0,0,9,12,10,13,11,10,13,9,1,14,1,9,0,0,0,0,0,0,0,0,0,0,0,0,0,0,0,0,0,0,0,0,0,0,0,0,0,0,0,0,0,0,0,0],"split_type":[0,0,0,0,0,0,0,0,0,0,0,0,0,0,0,0,0,0,0,0,0,0,0,0,0,0,0,0,0,0,0,0,0,0,0,0,0,0,0,0,0,0,0,0,0,0,0,0,0,0,0,0,0,0,0,0,0,0,0,0,0,0,0,0,0,0,0,0,0,0,0,0,0,0,0,0,0],"sum_hessian":[2.99382E2,1.5419942E2,1.4518256E2,2.1239403E1,1.3296002E2,1.3714091E2,8.041649E0,4.282862E0,1.6956541E1,1.2020359E1,1.2093966E2,1.2323571E2,1.3905203E1,3.986137E0,4.0555124E0,7.209903E0,9.746638E0,3.1991434E0,8.821216E0,1.5207288E1,1.05732376E2,6.970938E1,5.3526325E1,1.0279104E1,3.6260989E0,2.015791E0,2.0397213E0,3.2055995E0,4.0043035E0,8.27372E0,1.4729178E0,1.2671757E0,1.9319677E0,3.36542E0,5.455796E0,2.1171532E0,1.3090135E1,6.1833825E0,9.954899E1,5.7145416E1,1.2563966E1,4.993081E1,3.5955164E0,4.220972E0,6.0581317E0,2.2256348E0,1.400464E0,1.023918E0,2.1816814E0,2.226496E0,1.7778075E0,1.4289075E0,6.844813E0,1.0167485E0,2.3486714E0,1.7069005E0,3.7488952E0,1.0064385E0,1.1107147E0,1.1558574E1,1.5315611E0,2.1426232E0,4.0407596E0,2.4038017E0,9.714519E1,2.5307676E1,3.1837738E1,1.141395E1,1.1500165E0,4.8051785E1,1.8790252E0,2.5176961E0,1.0778203E0,1.5450728E0,2.675899E0,1.6348771E0,4.423255E0],"tree_param":{"num_deleted":"0","num_feature":"15","num_nodes":"77","size_leaf_vector":"1"}},{"base_weights":[-8.477468E-3,2.8119364E-4,-3.476543E-1,-9.297033E-3,8.210265E-1,-2.3302212E-1,3.0274293E-1,5.9750965E-3,-2.8958067E-1,5.73353E-2,3.2908255E-1,2.2710927E-1,-8.024007E-2,-2.121515E-2,1.4108488E-1,-5.4947275E-1,3.3345647E-2,-4.217434E-2,3.3860356E-1,-5.6793343E-2,3.580288E-1,-7.606423E-1,3.9086763E-2,4.469968E-1,-3.9833078E-1,-7.977143E-2,-3.7961816E-3,2.2408726E-2,2.4150999E-1,6.827315E-2,-1.1476938E-1,3.2434157E-1,4.0227007E-2,-8.534783E-2,-2.876702E-1,-1.7800575E-1,1.8625152E-1,3.0034256E-1,-8.080454E-2,6.061259E-2,-2.4069256E-1],"categories":[],"categories_nodes":[],"categories_segments":[],"categories_sizes":[],"default_left":[0,0,0,0,0,0,0,0,0,0,0,0,0,0,0,0,0,0,0,0,0,0,0,0,0,0,0,0,0,0,0,0,0,0,0,0,0,0,0,0,0],"id":18,"left_children":[1,3,5,7,9,-1,11,13,15,-1,-1,-1,-1,17,19,21,23,25,27,29,31,33,35,37,39,-1,-1,-1,-1,-1,-1,-1,-1,-1,-1,-1,-1,-1,-1,-1,-1],"loss_changes":[8.8240045E-1,2.2915006E0,2.3218653E0,1.2352003E0,3.7476444E-1,0E0,1.1587713E0,1.0104904E0,1.2696675E0,0E0,0E0,0E0,0E0,1.7425869E0,1.9982944E0,1.0636108E0,1.5336245E0,1.4327911E0,1.5062588E0,2.3993323E0,3.436314E0,3.0973744E-1,1.5264684E0,1.9956043E0,1.191335E0,0E0,0E0,0E0,0E0,0E0,0E0,0E0,0E0,0E0,0E0,0E0,0E0,0E0,0E0,0E0,0E0],"parents":[2147483647,0,0,1,1,2,2,3,3,4,4,6,6,7,7,8,8,13,13,14,14,15,15,16,16,17,17,18,18,19,19,20,20,21,21,22,22,23,23,24,24],"right_children":[2,4,6,8,10,-1,12,14,16,-1,-1,-1,-1,18,20,22,24,26,28,30,32,34,36,38,40,-1,-1,-1,-1,-1,-1,-1,-1,-1,-1,-1,-1,-1,-1,-1,-1],"split_conditions":[3.29E2,3.25E2,8.3E1,1.045E2,3E0,-2.3302212E-1,1.38E2,6.2E1,1.09E2,5.73353E-2,3.2908255E-1,2.2710927E-1,-8.024007E-2,9.95E1,1.445E2,2.66E2,1.715E2,1.93E2,2.964E1,1.285E2,1.495E2,5.1E1,7.9E1,2.835E1,2.36E2,-7.977143E-2,-3.7961816E-3,2.2408726E-2,2.4150999E-1,6.827315E-2,-1.1476938E-1,3.2434157E-1,4.0227007E-2,-8.534783E-2,-2.876702E-1,-1.7800575E-1,1.8625152E-1,3.0034256E-1,-8.080454E-2,6.061259E-2,-2.4069256E-1],"split_indices":[9,9,14,11,2,0,10,1,11,0,0,0,0,11,10,9,10,9,12,10,10,1,14,12,9,0,0,0,0,0,0,0,0,0,0,0,0,0,0,0,0],"split_type":[0,0,0,0,0,0,0,0,0,0,0,0,0,0,0,0,0,0,0,0,0,0,0,0,0,0,0,0,0,0,0,0,0,0,0,0,0,0,0,0,0],"sum_hessian":[2.959981E2,2.8952087E2,6.47721E0,2.871584E2,2.362511E0,3.78553E0,2.69168E0,2.7324826E2,1.3910104E1,1.2352133E0,1.1272978E0,1.315768E0,1.3759118E0,2.2817253E2,4.5075733E1,7.3185616E0,6.591542E0,2.1644742E2,1.17251215E1,2.3959803E1,2.1115932E1,5.170909E0,2.1476529E0,3.3479242E0,3.2436173E0,2.4296978E1,1.9215044E2,8.229169E0,3.4959528E0,1.2953725E1,1.1006077E1,4.0879383E0,1.7027992E1,2.235927E0,2.9349818E0,1.019444E0,1.1282088E0,1.6635101E0,1.6844143E0,1.5057343E0,1.7378831E0],"tree_param":{"num_deleted":"0","num_feature":"15","num_nodes":"41","size_leaf_vector":"1"}},{"base_weights":[-5.6540333E-3,1.5008102E-1,-9.859897E-3,-2.2506067E-1,3.231744E-3,6.505732E-2,-2.4120186E-1,2.2575176E-1,-4.133718E-3,-3.0214337E-1,7.6544607E-1,-3.4067515E-1,5.769634E-3,1.11709684E-1,-4.7117347E-1,1.0728879E0,-3.3394758E-2,-7.601639E-1,4.6191996E-1,-3.613752E-1,1.4689915E-2,1.05179004E-1,-1.971234E-1,8.2069114E-2,3.8888377E-1,-2.5533876E-1,-5.4829616E-2,3.0716544E-1,-8.373604E-2,-2.0750083E-1,2.274879E-2,1.3631047E-1,-1.2385605E-3],"categories":[],"categories_nodes":[],"categories_segments":[],"categories_sizes":[],"default_left":[0,0,0,0,0,0,0,0,0,0,0,0,0,0,0,0,0,0,0,0,0,0,0,0,0,0,0,0,0,0,0,0,0],"id":19,"left_children":[1,-1,3,5,7,9,-1,-1,11,13,15,17,19,-1,21,23,-1,25,27,29,31,-1,-1,-1,-1,-1,-1,-1,-1,-1,-1,-1,-1],"loss_changes":[6.3162684E-1,0E0,8.2641023E-1,2.8775501E0,1.533195E0,3.3510618E0,0E0,0E0,9.203351E-1,1.164532E0,1.3203902E0,3.0086703E0,8.8516074E-1,0E0,1.3575583E0,2.5118756E-1,0E0,1.3657069E-1,1.6731409E0,9.783162E-1,2.179963E0,0E0,0E0,0E0,0E0,0E0,0E0,0E0,0E0,0E0,0E0,0E0,0E0],"parents":[2147483647,0,0,2,2,3,3,4,4,5,5,8,8,9,9,10,10,11,11,12,12,14,14,15,15,17,17,18,18,19,19,20,20],"right_children":[2,-1,4,6,8,10,-1,-1,12,14,16,18,20,-1,22,24,-1,26,28,30,32,-1,-1,-1,-1,-1,-1,-1,-1,-1,-1,-1,-1],"split_conditions":[5.75E1,1.5008102E-1,1.09E2,1.05E2,1.095E2,1.03E2,-2.4120186E-1,2.2575176E-1,1.115E2,6.05E1,7.15E1,7.7E1,1.68E2,1.11709684E-1,1.936E1,2.03E2,-3.3394758E-2,5.9E1,7.6E1,8.4E1,1.81E2,1.05179004E-1,-1.971234E-1,8.2069114E-2,3.8888377E-1,-2.5533876E-1,-5.4829616E-2,3.0716544E-1,-8.373604E-2,-2.0750083E-1,2.274879E-2,1.3631047E-1,-1.2385605E-3],"split_indices":[11,0,10,10,10,10,0,0,10,11,11,13,9,0,12,9,0,1,14,11,9,0,0,0,0,0,0,0,0,0,0,0,0],"split_type":[0,0,0,0,0,0,0,0,0,0,0,0,0,0,0,0,0,0,0,0,0,0,0,0,0,0,0,0,0,0,0,0,0],"sum_hessian":[2.9352023E2,1.4475567E0,2.920727E2,1.5820682E1,2.76252E2,1.1130603E1,4.690079E0,1.7043561E0,2.7454764E2,7.67523E0,3.455373E0,6.893365E0,2.6765427E2,1.296928E0,6.3783016E0,2.3926737E0,1.0626992E0,4.5618896E0,2.331475E0,5.4115534E0,2.6224274E2,1.0132862E0,5.3650155E0,1.0085475E0,1.3841262E0,3.5314572E0,1.0304326E0,1.1088767E0,1.2225984E0,2.7511325E0,2.660421E0,9.813487E0,2.5242924E2],"tree_param":{"num_deleted":"0","num_feature":"15","num_nodes":"33","size_leaf_vector":"1"}},{"base_weights":[-4.044077E-3,-2.0235837E-1,6.5873964E-3,-6.743523E-1,2.1256869E-1,2.4523607E-1,-1.2031157E-2,4.1541193E-2,-8.3478594E-1,4.1773495E-1,-1.3937122E-1,7.332221E-1,-1.3817836E-1,-2.2492279E-1,7.3184804E-3,-5.206553E-2,-2.8156424E-1,4.718028E-1,-6.2842405E-1,-8.811793E-2,1.0577188E0,-4.2646405E-1,4.2802885E-1,-4.3234682E-1,3.841482E-1,2.4775702E-1,-1.9421892E-2,-1.0613861E-1,3.1472266E-1,9.855316E-3,-2.513718E-1,1.3400744E0,-9.371677E-3,4.3331973E-2,-8.033016E-1,-3.1181099E-2,2.4548577E-1,1.9890827E-1,-5.999121E-1,6.041145E-1,-8.0726124E-2,5.086809E-1,-2.6482245E-1,-3.6449307E-1,-1.5150959E-3,5.0737303E-1,1.11909375E-1,-1.682922E-1,2.7319503E-1,-6.084534E-2,-2.7967873E-1,-2.2526136E-1,9.536949E-2,2.7991655E-1,-6.868042E-2,1.7999608E-2,2.5094292E-1,1.5835467E-1,-1.4154199E-1,-4.7000524E-2,-2.2396578E-1,3.1740165E-1,-4.020342E-3],"categories":[],"categories_nodes":[],"categories_segments":[],"categories_sizes":[],"default_left":[0,0,0,0,0,0,0,0,0,0,0,0,0,0,0,0,0,0,0,0,0,0,0,0,0,0,0,0,0,0,0,0,0,0,0,0,0,0,0,0,0,0,0,0,0,0,0,0,0,0,0,0,0,0,0,0,0,0,0,0,0,0,0],"id":20,"left_children":[1,3,5,7,9,11,13,-1,15,-1,17,19,21,23,25,-1,-1,27,29,-1,31,33,35,37,39,41,43,-1,-1,-1,-1,45,-1,47,49,-1,-1,-1,51,53,-1,55,57,59,61,-1,-1,-1,-1,-1,-1,-1,-1,-1,-1,-1,-1,-1,-1,-1,-1,-1,-1],"loss_changes":[6.192316E-1,3.06989E0,1.2431873E0,1.0584908E0,3.812005E0,3.8895888E0,1.0721828E0,0E0,2.611928E-1,0E0,2.5740755E0,3.3322802E0,2.1706595E0,2.905527E0,1.5426934E0,0E0,0E0,2.2576504E0,6.732898E-1,0E0,2.2272258E0,1.5522995E0,1.0417489E0,3.4530184E0,1.0301734E0,3.3462138E0,1.3352641E0,0E0,0E0,0E0,0E0,1.2935429E0,0E0,3.0078127E0,1.8321276E-1,0E0,0E0,0E0,2.3117313E0,1.5358348E0,0E0,2.3404808E0,1.6859106E0,7.295172E-1,2.6150093E0,0E0,0E0,0E0,0E0,0E0,0E0,0E0,0E0,0E0,0E0,0E0,0E0,0E0,0E0,0E0,0E0,0E0,0E0],"parents":[2147483647,0,0,1,1,2,2,3,3,4,4,5,5,6,6,8,8,10,10,11,11,12,12,13,13,14,14,17,17,18,18,20,20,21,21,22,22,23,23,24,24,25,25,26,26,31,31,33,33,34,34,38,38,39,39,41,41,42,42,43,43,44,44],"right_children":[2,4,6,8,10,12,14,-1,16,-1,18,20,22,24,26,-1,-1,28,30,-1,32,34,36,38,40,42,44,-1,-1,-1,-1,46,-1,48,50,-1,-1,-1,52,54,-1,56,58,60,62,-1,-1,-1,-1,-1,-1,-1,-1,-1,-1,-1,-1,-1,-1,-1,-1,-1,-1],"split_conditions":[6.2E1,2.32E2,6.6E1,1.78E2,2.34E2,8.05E1,7E1,4.1541193E-2,5.6E1,4.1773495E-1,2.532E1,7.15E1,2.813E1,5.9E1,7.3E1,-5.206553E-2,-2.8156424E-1,8.15E1,5.6E1,-8.811793E-2,2.61E2,7.7E1,4E0,1.04E2,1.575E2,1.6E1,1.09E2,-1.0613861E-1,3.1472266E-1,9.855316E-3,-2.513718E-1,5.2E1,-9.371677E-3,7.4E1,4.5E1,-3.1181099E-2,2.4548577E-1,1.9890827E-1,2.91E2,6.4E1,-8.0726124E-2,2E0,2.089E1,1.045E2,1.095E2,5.0737303E-1,1.11909375E-1,-1.682922E-1,2.7319503E-1,-6.084534E-2,-2.7967873E-1,-2.2526136E-1,9.536949E-2,2.7991655E-1,-6.868042E-2,1.7999608E-2,2.5094292E-1,1.5835467E-1,-1.4154199E-1,-4.7000524E-2,-2.2396578E-1,3.1740165E-1,-4.020342E-3],"split_indices":[14,9,14,9,9,11,14,0,14,0,12,11,12,1,14,0,0,11,14,0,9,13,4,10,10,4,10,0,0,0,0,1,0,13,1,0,0,0,9,1,0,2,12,10,10,0,0,0,0,0,0,0,0,0,0,0,0,0,0,0,0,0,0],"split_type":[0,0,0,0,0,0,0,0,0,0,0,0,0,0,0,0,0,0,0,0,0,0,0,0,0,0,0,0,0,0,0,0,0,0,0,0,0,0,0,0,0,0,0,0,0,0,0,0,0,0,0,0,0,0,0,0,0,0,0,0,0,0,0],"sum_hessian":[2.920689E2,1.3943312E1,2.781256E2,6.2305794E0,7.7127323E0,1.924722E1,2.588784E2,1.0496283E0,5.1809516E0,1.0927571E0,6.619975E0,8.067305E0,1.11799135E1,2.0683788E1,2.381946E2,1.0652298E0,4.1157217E0,2.9582696E0,3.6617055E0,1.9598156E0,6.107489E0,7.5716147E0,3.6082993E0,1.5645679E1,5.0381083E0,2.3012278E1,2.1518231E2,1.3766096E0,1.58166E0,1.0837601E0,2.5779452E0,4.666826E0,1.4406635E0,3.7640536E0,3.8075612E0,1.8373913E0,1.770908E0,1.683541E0,1.3962138E1,3.8252232E0,1.2128851E0,1.5254647E1,7.7576313E0,9.660749E0,2.0552156E2,2.8742125E0,1.7926133E0,2.4265544E0,1.337499E0,1.127988E0,2.679573E0,1.2146244E1,1.8158941E0,2.6562996E0,1.1689237E0,6.939284E0,8.315363E0,1.2852845E0,6.472347E0,7.170406E0,2.4903436E0,1.303631E0,2.0421793E2],"tree_param":{"num_deleted":"0","num_feature":"15","num_nodes":"63","size_leaf_vector":"1"}},{"base_weights":[-2.568396E-3,-5.08873E-2,4.3568127E-2,-4.369353E-1,-3.179409E-2,1.6482323E-1,-1.1711197E-2,-2.2672047E-1,-3.9041106E-2,3.86919E-2,-1.440977E-1,1.0816148E-1,3.2942778E-1,-5.2141476E-1,4.183877E-2,9.44791E-2,-1.17000215E-1,6.7313306E-2,-2.2637153E-1,-4.3219697E-1,1.1616675E-1,-4.1986138E-2,4.3470174E-1,-7.981457E-1,1.9758363E-1,7.451453E-2,-6.00643E-1,9.982188E-3,4.8792747E-1,-1.4214265E-1,-7.72295E-1,1.5135724E-2,3.259549E-1,4.1135505E-1,-1.6089402E-1,-1.4709538E-1,6.076001E-1,4.11193E-2,-3.1474265E-1,7.566948E-1,4.4666074E-2,-2.5481948E-1,2.5948478E-2,2.740324E-2,-8.9462474E-2,-1.01840004E-1,2.1351255E-1,1.5057389E-2,-2.3838568E-1,4.2754296E-2,-2.682989E-1,1.031223E-1,-9.577357E-2,-1.2363975E-1,2.469248E-1,-8.846629E-2,9.200077E-2,-1.8373817E-1,2.3068567E-1,3.178023E-1,1.5760995E-2,-4.971328E-2,4.8571818E-2],"categories":[],"categories_nodes":[],"categories_segments":[],"categories_sizes":[],"default_left":[0,0,0,0,0,0,0,0,0,0,0,0,0,0,0,0,0,0,0,0,0,0,0,0,0,0,0,0,0,0,0,0,0,0,0,0,0,0,0,0,0,0,0,0,0,0,0,0,0,0,0,0,0,0,0,0,0,0,0,0,0,0,0],"id":21,"left_children":[1,3,5,7,9,11,13,-1,15,17,19,21,-1,23,25,-1,-1,27,-1,29,31,33,35,37,-1,39,41,43,45,47,49,51,-1,53,55,-1,57,-1,-1,59,61,-1,-1,-1,-1,-1,-1,-1,-1,-1,-1,-1,-1,-1,-1,-1,-1,-1,-1,-1,-1,-1,-1],"loss_changes":[6.4954233E-1,1.0349472E0,1.001207E0,8.111818E-1,1.0874095E0,2.3533514E0,2.8422263E0,0E0,6.2005365E-1,1.9750952E0,4.0176744E0,2.2335155E0,0E0,3.7579694E0,2.0272608E0,0E0,0E0,1.9898982E0,0E0,2.388464E0,2.7861125E0,1.7837757E0,2.5881314E0,2.1320276E0,0E0,1.8141191E0,8.735372E-1,1.8782653E0,2.0749755E0,1.9089433E0,1.4036341E0,3.0661027E0,0E0,2.6793408E0,1.7168927E0,0E0,2.9339104E0,0E0,0E0,7.417352E-1,2.1975965E0,0E0,0E0,0E0,0E0,0E0,0E0,0E0,0E0,0E0,0E0,0E0,0E0,0E0,0E0,0E0,0E0,0E0,0E0,0E0,0E0,0E0,0E0],"parents":[2147483647,0,0,1,1,2,2,3,3,4,4,5,5,6,6,8,8,9,9,10,10,11,11,13,13,14,14,17,17,19,19,20,20,21,21,22,22,23,23,25,25,26,26,27,27,28,28,29,29,30,30,31,31,33,33,34,34,36,36,39,39,40,40],"right_children":[2,4,6,8,10,12,14,-1,16,18,20,22,-1,24,26,-1,-1,28,-1,30,32,34,36,38,-1,40,42,44,46,48,50,52,-1,54,56,-1,58,-1,-1,60,62,-1,-1,-1,-1,-1,-1,-1,-1,-1,-1,-1,-1,-1,-1,-1,-1,-1,-1,-1,-1,-1,-1],"split_conditions":[1E0,4E1,2.459E1,1E1,8E1,2.449E1,2.514E1,-2.2672047E-1,2.144E1,3.28E2,5.6E1,2.56E2,3.2942778E-1,9.85E1,1.07E2,9.44791E-2,-1.17000215E-1,9.2E1,-2.2637153E-1,7.6E1,3.307E1,1.14E2,7.25E1,7.3E1,1.9758363E-1,6.75E1,2.51E2,9.15E1,4.6E1,5.4E1,1.125E2,8.6E1,3.259549E-1,1.09E2,9.1E1,-1.4709538E-1,6.4E1,4.11193E-2,-3.1474265E-1,2.691E1,8.25E1,-2.5481948E-1,2.5948478E-2,2.740324E-2,-8.9462474E-2,-1.01840004E-1,2.1351255E-1,1.5057389E-2,-2.3838568E-1,4.2754296E-2,-2.682989E-1,1.031223E-1,-9.577357E-2,-1.2363975E-1,2.469248E-1,-8.846629E-2,9.200077E-2,-1.8373817E-1,2.3068567E-1,3.178023E-1,1.5760995E-2,-4.971328E-2,4.8571818E-2],"split_indices":[0,1,12,4,14,12,12,0,12,9,1,9,0,11,14,0,0,13,0,13,12,10,11,11,0,11,9,11,1,1,10,11,0,10,14,0,13,0,0,12,11,0,0,0,0,0,0,0,0,0,0,0,0,0,0,0,0,0,0,0,0,0,0],"split_type":[0,0,0,0,0,0,0,0,0,0,0,0,0,0,0,0,0,0,0,0,0,0,0,0,0,0,0,0,0,0,0,0,0,0,0,0,0,0,0,0,0,0,0,0,0,0,0,0,0,0,0,0,0,0,0,0,0,0,0,0,0,0,0],"sum_hessian":[2.893759E2,1.4129465E2,1.4808124E2,5.6274867E0,1.3566716E2,4.5749077E1,1.0233216E2,2.6249757E0,3.002511E0,8.37549E1,5.191227E1,4.4182514E1,1.5665655E0,8.898335E0,9.343383E1,1.5459517E0,1.4565593E0,8.172148E1,2.0334141E0,2.432507E1,2.75872E1,3.08628E1,1.3319712E1,7.4701204E0,1.4282151E0,8.975313E1,3.6807032E0,7.281966E1,8.901831E0,1.38937025E1,1.0431367E1,2.5905558E1,1.6816411E0,5.901946E0,2.4960855E1,1.808456E0,1.1511255E1,1.6766939E0,5.7934265E0,2.7416675E0,8.701146E1,2.529018E0,1.1516854E0,5.816719E1,1.4652463E1,1.7850261E0,7.116804E0,1.1443513E1,2.4501903E0,1.2080001E0,9.223367E0,1.30515E1,1.2854057E1,1.9669359E0,3.9350102E0,1.9688005E1,5.27285E0,1.0179847E0,1.0493271E1,1.5647379E0,1.1769296E0,3.0989695E1,5.6021763E1],"tree_param":{"num_deleted":"0","num_feature":"15","num_nodes":"63","size_leaf_vector":"1"}},{"base_weights":[-6.5401657E-3,-1.1722709E-2,3.6779428E-1,-6.8193495E-2,3.3260416E-2,1.9123468E-1,-4.252834E-2,4.6075205E-3,-3.341039E-1,4.9288958E-1,-2.2548535E-3,2.7776858E-1,-4.7734585E-2,-3.4084834E-2,-6.624897E-1,1.1869166E0,1.7263559E-1,-4.0619856E-1,4.7889646E-2,3.2904435E-2,1.1419777E0,-1.681451E-1,8.0887444E-2,-2.0047402E-1,2.5783888E-1,-7.7679074E-1,1.03964664E-1,4.2648426E-1,1.2631048E-1,-3.9210126E-1,7.8891E-1,1.5336162E-1,-4.9880037E-1,-3.6074376E-1,9.054273E-2,-9.092338E-2,1.5473998E-1,4.1616496E-1,7.984013E-2,-7.316629E-2,1.7966041E-1,8.291179E-2,-5.854431E-2,2.1660292E-1,-1.34529E-1,-2.9696298E-1,-1.2187794E-1,-1.9199733E-1,1.0115937E-1,3.9443436E-1,-3.0187791E-2,-2.4331886E-1,-5.4466415E-2,-1.853725E-1,1.2218181E-1,-6.892217E-2,4.213818E-2],"categories":[],"categories_nodes":[],"categories_segments":[],"categories_sizes":[],"default_left":[0,0,0,0,0,0,0,0,0,0,0,0,0,0,0,0,0,0,0,0,0,0,0,0,0,0,0,0,0,0,0,0,0,0,0,0,0,0,0,0,0,0,0,0,0,0,0,0,0,0,0,0,0,0,0,0,0],"id":22,"left_children":[1,3,5,7,9,-1,-1,11,13,15,17,19,21,23,25,27,29,31,33,35,37,39,41,43,-1,45,-1,-1,-1,47,49,-1,51,53,55,-1,-1,-1,-1,-1,-1,-1,-1,-1,-1,-1,-1,-1,-1,-1,-1,-1,-1,-1,-1,-1,-1],"loss_changes":[5.62273E-1,7.253452E-1,6.3426006E-1,2.4511185E0,2.5984433E0,0E0,0E0,1.4477084E0,2.6582947E0,2.332749E0,3.0313609E0,3.4073915E0,1.33076E0,2.4431677E0,1.761281E0,1.8846035E-2,3.435542E0,1.6589055E0,2.3537407E0,2.3814988E0,3.9645052E-1,2.7168062E0,2.3093042E0,3.4544785E0,0E0,5.3972244E-1,0E0,0E0,0E0,1.1839557E0,2.2968514E0,0E0,1.3898962E0,2.7771916E0,1.9729171E0,0E0,0E0,0E0,0E0,0E0,0E0,0E0,0E0,0E0,0E0,0E0,0E0,0E0,0E0,0E0,0E0,0E0,0E0,0E0,0E0,0E0,0E0],"parents":[2147483647,0,0,1,1,2,2,3,3,4,4,7,7,8,8,9,9,10,10,11,11,12,12,13,13,14,14,15,15,16,16,17,17,18,18,19,19,20,20,21,21,22,22,23,23,25,25,29,29,30,30,32,32,33,33,34,34],"right_children":[2,4,6,8,10,-1,-1,12,14,16,18,20,22,24,26,28,30,32,34,36,38,40,42,44,-1,46,-1,-1,-1,48,50,-1,52,54,56,-1,-1,-1,-1,-1,-1,-1,-1,-1,-1,-1,-1,-1,-1,-1,-1,-1,-1,-1,-1,-1,-1],"split_conditions":[1.22E2,2.526E1,2.597E1,2.433E1,2.559E1,1.9123468E-1,-4.252834E-2,6.5E1,2.41E2,2.22E2,1.98E2,8.5E1,7.6E1,9.95E1,3.15E2,8.05E1,8.65E1,6.45E1,2.603E1,2.303E1,6E0,9.8E1,8.3E1,7.15E1,2.5783888E-1,2.481E1,1.03964664E-1,4.2648426E-1,1.2631048E-1,9.2E1,9.45E1,1.5336162E-1,8.45E1,6.1E1,6.4E1,-9.092338E-2,1.5473998E-1,4.1616496E-1,7.984013E-2,-7.316629E-2,1.7966041E-1,8.291179E-2,-5.854431E-2,2.1660292E-1,-1.34529E-1,-2.9696298E-1,-1.2187794E-1,-1.9199733E-1,1.0115937E-1,3.9443436E-1,-3.0187791E-2,-2.4331886E-1,-5.4466415E-2,-1.853725E-1,1.2218181E-1,-6.892217E-2,4.213818E-2],"split_indices":[14,12,12,12,12,0,0,13,9,9,9,14,13,11,9,11,11,11,12,12,4,11,11,11,0,12,0,0,0,14,11,0,11,1,13,0,0,0,0,0,0,0,0,0,0,0,0,0,0,0,0,0,0,0,0,0,0],"split_type":[0,0,0,0,0,0,0,0,0,0,0,0,0,0,0,0,0,0,0,0,0,0,0,0,0,0,0,0,0,0,0,0,0,0,0,0,0,0,0,0,0,0,0,0,0,0,0,0,0,0,0,0,0,0,0,0,0],"sum_hessian":[2.8660837E2,2.8365E2,2.9583616E0,1.2553733E2,1.5811267E2,1.770454E0,1.1879075E0,9.93264E1,2.621093E1,1.0417243E1,1.4769542E2,1.5279503E1,8.40469E1,1.4273867E1,1.1937063E1,2.4347303E0,7.9825125E0,1.5525748E1,1.3216968E2,1.2714939E1,2.5645638E0,4.325041E1,4.079649E1,1.2687033E1,1.5868335E0,1.0929202E1,1.0078615E0,1.2082831E0,1.2264472E0,4.355243E0,3.6272693E0,1.0090128E0,1.4516736E1,1.1787089E1,1.2038258E2,7.7176394E0,4.9972997E0,1.5474192E0,1.0171444E0,3.9984016E1,3.2663906E0,2.3882168E1,1.691432E1,2.2827075E0,1.04043255E1,5.8775926E0,5.051609E0,3.3418133E0,1.0134298E0,1.9791769E0,1.6480924E0,6.531376E0,7.9853597E0,8.976743E0,2.8103461E0,1.5746625E1,1.04635956E2],"tree_param":{"num_deleted":"0","num_feature":"15","num_nodes":"57","size_leaf_vector":"1"}},{"base_weights":[-2.9905785E-3,8.906397E-2,-2.989841E-2,3.3359435E-1,-2.29335E-2,-2.5185576E-1,-1.1538629E-2,-1.4924732E-1,5.4537153E-1,-3.8666996E-1,1.6361475E-1,-1.7623339E-2,-6.8642074E-1,3.5564086E-1,-2.9083394E-2,-4.8630914E-1,3.2352862E-1,-1.0890748E-1,7.088887E-1,4.4284242E-1,-6.6655385E-1,8.4670013E-1,2.3874305E-2,2.3987585E-1,-5.063534E-1,-2.6413158E-1,-1.3934849E-3,-2.3196825E-1,1.2437595E-2,6.72388E-2,-2.2927766E-1,2.159481E-1,-6.60567E-2,1.0900677E0,5.0863713E-2,-7.5973995E-2,2.3356527E-1,-8.4140664E-1,8.453231E-2,-4.3394867E-2,1.1583745E0,-5.0541085E-1,1.8264654E-1,-1.7829056E-1,7.9366446E-1,-2.3267187E-1,-4.712483E-4,1.1698168E-2,-3.6771065E-1,2.9643062E-1,-3.8470645E-2,4.9516845E-1,1.8168679E-1,-1.2244376E-1,2.0963474E-1,-2.7403438E-1,-3.149102E-2,4.078245E-1,1.2120734E-1,6.379157E-2,-2.2009028E-1,1.4767925E-1,-9.092122E-2,-1.3332345E-1,9.358167E-2,-1.8951174E-2,4.3934608E-1,1.3700366E-1,-1.06857404E-1,-1.944617E-2,-2.0061597E-1,1.5722242E-1,-3.192584E-2,-2.8869282E-2,7.910122E-2],"categories":[],"categories_nodes":[],"categories_segments":[],"categories_sizes":[],"default_left":[0,0,0,0,0,0,0,0,0,0,0,0,0,0,0,0,0,0,0,0,0,0,0,0,0,0,0,0,0,0,0,0,0,0,0,0,0,0,0,0,0,0,0,0,0,0,0,0,0,0,0,0,0,0,0,0,0,0,0,0,0,0,0,0,0,0,0,0,0,0,0,0,0,0,0],"id":23,"left_children":[1,3,5,7,9,11,13,15,17,19,21,23,25,-1,27,29,31,-1,33,35,37,39,41,43,45,-1,-1,47,49,-1,-1,-1,-1,51,53,-1,-1,55,-1,-1,57,59,61,63,65,-1,-1,67,69,71,73,-1,-1,-1,-1,-1,-1,-1,-1,-1,-1,-1,-1,-1,-1,-1,-1,-1,-1,-1,-1,-1,-1,-1,-1],"loss_changes":[7.059082E-1,1.7732382E0,8.954179E-1,2.1588151E0,3.1270614E0,1.6972907E0,4.3323655E0,1.2694973E0,2.3869305E0,3.9179547E0,2.8957667E0,1.6238576E0,7.704158E-1,0E0,1.7101667E0,1.0547305E0,9.137988E-1,0E0,3.0769997E0,1.2575068E0,2.2379522E0,1.7615805E0,2.30996E0,2.1092668E0,6.02293E-1,0E0,0E0,1.1448045E0,2.4574504E0,0E0,0E0,0E0,0E0,1.1342754E0,1.9594928E0,0E0,0E0,4.5794487E-1,0E0,0E0,6.284428E-2,1.1974132E0,3.3124876E0,8.7677884E-1,2.2992458E0,0E0,0E0,2.340859E0,1.9784741E0,2.4248292E0,2.5446196E0,0E0,0E0,0E0,0E0,0E0,0E0,0E0,0E0,0E0,0E0,0E0,0E0,0E0,0E0,0E0,0E0,0E0,0E0,0E0,0E0,0E0,0E0,0E0,0E0],"parents":[2147483647,0,0,1,1,2,2,3,3,4,4,5,5,6,6,7,7,8,8,9,9,10,10,11,11,12,12,14,14,15,15,16,16,18,18,19,19,20,20,21,21,22,22,23,23,24,24,27,27,28,28,33,33,34,34,37,37,40,40,41,41,42,42,43,43,44,44,47,47,48,48,49,49,50,50],"right_children":[2,4,6,8,10,12,14,16,18,20,22,24,26,-1,28,30,32,-1,34,36,38,40,42,44,46,-1,-1,48,50,-1,-1,-1,-1,52,54,-1,-1,56,-1,-1,58,60,62,64,66,-1,-1,68,70,72,74,-1,-1,-1,-1,-1,-1,-1,-1,-1,-1,-1,-1,-1,-1,-1,-1,-1,-1,-1,-1,-1,-1,-1,-1],"split_conditions":[6.7E1,2.15E2,2.072E1,1.23E2,5.2E1,2.002E1,2.089E1,7.8E1,1.76E2,6.7E1,5.4E1,8.3E1,5.7E1,3.5564086E-1,2.08E2,6.45E1,4.7E1,-1.0890748E-1,1.44E2,2.57E2,3.05E2,1.255E2,2.38E2,7.9E1,1.6E1,-2.6413158E-1,-1.3934849E-3,1.88E2,2.23E2,6.72388E-2,-2.2927766E-1,2.159481E-1,-6.60567E-2,4.8E1,2.03E2,-7.5973995E-2,2.3356527E-1,6.6E1,8.453231E-2,-4.3394867E-2,1E0,2.23E2,2.71E2,5.8E1,7.8E1,-2.3267187E-1,-4.712483E-4,1E0,7.6E1,1.385E2,9.4E1,4.9516845E-1,1.8168679E-1,-1.2244376E-1,2.0963474E-1,-2.7403438E-1,-3.149102E-2,4.078245E-1,1.2120734E-1,6.379157E-2,-2.2009028E-1,1.4767925E-1,-9.092122E-2,-1.3332345E-1,9.358167E-2,-1.8951174E-2,4.3934608E-1,1.3700366E-1,-1.06857404E-1,-1.944617E-2,-2.0061597E-1,1.5722242E-1,-3.192584E-2,-2.8869282E-2,7.910122E-2],"split_indices":[13,9,12,10,1,12,12,14,9,14,1,13,1,0,9,11,1,0,10,9,9,10,9,13,4,0,0,9,9,0,0,0,0,1,9,0,0,13,0,0,3,9,9,1,14,0,0,3,13,10,14,0,0,0,0,0,0,0,0,0,0,0,0,0,0,0,0,0,0,0,0,0,0,0,0],"split_type":[0,0,0,0,0,0,0,0,0,0,0,0,0,0,0,0,0,0,0,0,0,0,0,0,0,0,0,0,0,0,0,0,0,0,0,0,0,0,0,0,0,0,0,0,0,0,0,0,0,0,0,0,0,0,0,0,0,0,0,0,0,0,0,0,0,0,0,0,0,0,0,0,0,0,0],"sum_hessian":[2.8291144E2,6.3468613E1,2.1944283E2,1.93161E1,4.415251E1,1.57934065E1,2.0364941E2,5.979162E0,1.3336937E1,1.4604171E1,2.9548342E1,1.0938215E1,4.8551917E0,1.9801986E0,2.0166922E2,3.4738696E0,2.5052924E0,1.8483866E0,1.148855E1,3.537522E0,1.10666485E1,4.159007E0,2.5389334E1,7.4972787E0,3.4409366E0,3.5527656E0,1.3024261E0,3.348143E1,1.6818777E2,1.0313573E0,2.4425125E0,1.2617468E0,1.2435457E0,6.858817E0,4.629733E0,1.2308983E0,2.306624E0,9.439028E0,1.6276207E0,1.1229885E0,3.0360184E0,5.3549066E0,2.0034428E1,4.65804E0,2.8392386E0,1.8942255E0,1.5467112E0,1.2305707E1,2.1175724E1,2.4833055E1,1.4335472E2,2.063857E0,4.79496E0,2.9265344E0,1.7031987E0,8.378999E0,1.0600295E0,1.7638402E0,1.2721783E0,1.3079735E0,4.046933E0,1.2226951E1,7.807477E0,3.0796924E0,1.5783477E0,1.6445287E0,1.1947098E0,5.4600983E0,6.8456087E0,1.11606655E1,1.00150585E1,1.5674646E1,9.158409E0,1.2091998E2,2.2434742E1],"tree_param":{"num_deleted":"0","num_feature":"15","num_nodes":"75","size_leaf_vector":"1"}},{"base_weights":[-2.4865658E-3,-4.956633E-2,4.813239E-2,-3.1659395E-1,-1.4552141E-2,7.194845E-2,-3.4469453E-1,-4.4303238E-1,1.5190673E-1,1.2849906E-1,-7.6240234E-2,1.1427796E-1,-1.354056E-1,-6.0191774E-1,8.5912846E-2,-1.7117546E-1,-8.2076484E-1,2.5787157E-1,-4.318391E-1,-5.738589E-1,-3.8420547E-2,2.5008282E-2,2.919026E-1,-2.5376976E-1,-5.746961E-5,4.8975475E-2,-2.6010257E-1,1.529092E-1,-9.131986E-2,-4.552598E-1,2.3324876E-1,-2.7246603E-1,-5.8525573E-2,3.7701733E-2,6.1349946E-1,1.3357176E-1,-8.09824E-1,5.2525505E-2,-7.5384605E-1,1.234084E-1,-1.4574264E-1,1.6751148E-1,-9.897054E-2,6.937896E-1,5.3892106E-2,2.3183233E-1,-1.2757677E-1,1.8818999E-2,-2.7421615E-1,-8.9199066E-2,9.533413E-2,2.45017E-1,-7.7888474E-2,-4.0503018E-2,-2.807726E-1,-2.6114953E-1,-4.477445E-2,-6.900945E-2,9.439032E-2,1.9017725E-1,-5.9716303E-2,-9.4470374E-2,7.326288E-2,-7.026553E-2,7.610273E-2,2.6161918E-1,-6.501277E-2,-6.595745E-2,1.6036469E-1,4.4661894E-2,-1.1321468E-1],"categories":[],"categories_nodes":[],"categories_segments":[],"categories_sizes":[],"default_left":[0,0,0,0,0,0,0,0,0,0,0,0,0,0,0,0,0,0,0,0,0,0,0,0,0,0,0,0,0,0,0,0,0,0,0,0,0,0,0,0,0,0,0,0,0,0,0,0,0,0,0,0,0,0,0,0,0,0,0,0,0,0,0,0,0,0,0,0,0,0,0],"id":24,"left_children":[1,3,5,7,9,11,13,15,-1,17,19,21,23,25,27,29,31,33,35,37,39,41,43,-1,45,-1,-1,-1,-1,47,-1,-1,-1,49,51,-1,53,-1,55,57,59,61,63,65,67,-1,69,-1,-1,-1,-1,-1,-1,-1,-1,-1,-1,-1,-1,-1,-1,-1,-1,-1,-1,-1,-1,-1,-1,-1,-1],"loss_changes":[6.7237216E-1,1.3618925E0,1.2970089E0,1.982263E0,1.1592733E0,1.1480662E0,9.3180263E-1,1.418122E0,0E0,2.983467E0,1.7025855E0,1.7005115E0,2.1476634E0,1.1758685E0,7.913977E-1,3.0730913E0,1.5598011E-1,2.5461547E0,2.9482646E0,9.948468E-1,1.5157584E0,1.3022951E0,3.399504E0,0E0,2.0459697E0,0E0,0E0,0E0,0E0,2.052428E0,0E0,0E0,0E0,2.0962033E0,2.426804E0,0E0,3.6793566E-1,0E0,2.4735045E-1,2.4330802E0,2.3004658E0,1.343369E0,1.9454888E0,2.344617E0,3.2294543E0,0E0,1.2867911E0,0E0,0E0,0E0,0E0,0E0,0E0,0E0,0E0,0E0,0E0,0E0,0E0,0E0,0E0,0E0,0E0,0E0,0E0,0E0,0E0,0E0,0E0,0E0,0E0],"parents":[2147483647,0,0,1,1,2,2,3,3,4,4,5,5,6,6,7,7,9,9,10,10,11,11,12,12,13,13,14,14,15,15,16,16,17,17,18,18,19,19,20,20,21,21,22,22,24,