{"learner":{"attributes":{"scikit_learn":"{\"_estimator_type\": \"classifier\"}"},"feature_names":["age","sex","cp","trestbps","chol","fbs","restecg","thalach","exang","oldpeak","slope","ca","thal"],"feature_types":["int","int","int","int","int","int","int","int","int","float","int","int","int"],"gradient_booster":{"model":{"gbtree_model_param":{"num_parallel_tree":"1","num_trees":"100"},"iteration_indptr":[0,1,2,3,4,5,6,7,8,9,10,11,12,13,14,15,16,17,18,19,20,21,22,23,24,25,26,27,28,29,30,31,32,33,34,35,36,37,38,39,40,41,42,43,44,45,46,47,48,49,50,51,52,53,54,55,56,57,58,59,60,61,62,63,64,65,66,67,68,69,70,71,72,73,74,75,76,77,78,79,80,81,82,83,84,85,86,87,88,89,90,91,92,93,94,95,96,97,98,99,100],"tree_info":[0,0,0,0,0,0,0,0,0,0,0,0,0,0,0,0,0,0,0,0,0,0,0,0,0,0,0,0,0,0,0,0,0,0,0,0,0,0,0,0,0,0,0,0,0,0,0,0,0,0,0,0,0,0,0,0,0,0,0,0,0,0,0,0,0,0,0,0,0,0,0,0,0,0,0,0,0,0,0,0,0,0,0,0,0,0,0,0,0,0,0,0,0,0,0,0,0,0,0,0],"trees":[{"base_weights":[-9.353442E-3,-1.1123482E0,1.0498165E0,-2.1297692E-1,-1.8051078E0,1.3941458E0,9.762887E-3,7.4041843E-1,-1.3850738E0,-3.0617782E-1,-1.8749027E-1,1.7522825E0,7.561744E-1,-1.4083682E-1,4.243146E-1,1.3067885E-1,-2.1450033E-2,-1.7814837E-1,-3.4221523E-2,4.1480005E-2,-1.0326411E-1,1.7941178E-1,-0E0,1.4247447E-1,-0E0,5.8960505E-2,-9.190667E-2],"categories":[],"categories_nodes":[],"categories_segments":[],"categories_sizes":[],"default_left":[0,0,0,0,0,0,0,0,0,0,0,0,0,0,0,0,0,0,0,0,0,0,0,0,0,0,0],"id":0,"left_children":[1,3,5,7,9,11,13,15,17,19,-1,21,23,-1,25,-1,-1,-1,-1,-1,-1,-1,-1,-1,-1,-1,-1],"loss_changes":[2.1337811E2,5.4485283E1,3.2565956E1,4.6573692E1,3.5887146E0,1.328891E1,1.4498892E1,1.3122033E1,6.074463E0,2.700338E0,0E0,2.3915863E0,1.3335942E1,0E0,4.8150806E0,0E0,0E0,0E0,0E0,0E0,0E0,0E0,0E0,0E0,0E0,0E0,0E0],"parents":[2147483647,0,0,1,1,2,2,3,3,4,4,5,5,6,6,7,7,8,8,9,9,11,11,12,12,14,14],"right_children":[2,4,6,8,10,12,14,16,18,20,-1,22,24,-1,26,-1,-1,-1,-1,-1,-1,-1,-1,-1,-1,-1,-1],"split_conditions":[1E0,1E0,3E0,3E0,1.1E2,5.6E1,1.42E2,1E0,2E0,2.35E2,-1.8749027E-1,1.44E2,1E0,-1.4083682E-1,1.8E2,1.3067885E-1,-2.1450033E-2,-1.7814837E-1,-3.4221523E-2,4.1480005E-2,-1.0326411E-1,1.7941178E-1,-0E0,1.4247447E-1,-0E0,5.8960505E-2,-9.190667E-2],"split_indices":[2,11,12,12,3,0,7,8,10,4,0,3,1,0,3,0,0,0,0,0,0,0,0,0,0,0,0],"split_type":[0,0,0,0,0,0,0,0,0,0,0,0,0,0,0,0,0,0,0,0,0,0,0,0,0,0,0],"sum_hessian":[1.806199E2,8.868612E1,9.193378E1,3.947157E1,4.921455E1,6.845069E1,2.3483086E1,2.1734344E1,1.7737225E1,2.7480206E0,4.646653E1,4.221959E1,2.6231106E1,4.496761E0,1.8986324E1,1.3740103E1,7.9942417E0,1.1991363E1,5.745861E0,1.2491002E0,1.4989203E0,4.097049E1,1.2491002E0,1.3240463E1,1.2990643E1,1.7737225E1,1.2491002E0],"tree_param":{"num_deleted":"0","num_feature":"13","num_nodes":"27","size_leaf_vector":"1"}},{"base_weights":[-1.4521548E-2,-1.0432988E0,9.6120363E-1,-2.0681949E-1,-1.6271908E0,1.4140825E0,2.5399554E-1,7.1797115E-1,-9.9429685E-1,-2.1528162E-2,-1.7056721E-1,1.4743068E0,-2.865906E-2,1.0942057E0,-1.9451661E-1,-1.1033523E-1,1.01421826E-1,-1.3982694E-1,1.0032344E-1,8.3711796E-2,-9.8524205E-2,-0E0,1.5647623E-1,-1.4439289E-2,1.4542603E-1,3.713264E-2,-1.2393949E-1],"categories":[],"categories_nodes":[],"categories_segments":[],"categories_sizes":[],"default_left":[0,0,0,0,0,0,0,0,0,0,0,0,0,0,0,0,0,0,0,0,0,0,0,0,0,0,0],"id":1,"left_children":[1,3,5,7,9,11,13,15,17,19,-1,21,-1,23,25,-1,-1,-1,-1,-1,-1,-1,-1,-1,-1,-1,-1],"loss_changes":[1.8434406E2,4.25158E1,2.8909966E1,2.877106E1,5.6875E0,6.81839E0,1.5111739E1,1.0743423E1,1.8882736E1,3.9984689E0,0E0,6.6872025E0,0E0,7.0562687E0,1.5946623E1,0E0,0E0,0E0,0E0,0E0,0E0,0E0,0E0,0E0,0E0,0E0,0E0],"parents":[2147483647,0,0,1,1,2,2,3,3,4,4,5,5,6,6,7,7,8,8,9,9,11,11,13,13,14,14],"right_children":[2,4,6,8,10,12,14,16,18,20,-1,22,-1,24,26,-1,-1,-1,-1,-1,-1,-1,-1,-1,-1,-1,-1],"split_conditions":[1E0,1E0,5.7E1,7E-1,1.1E2,2.5E0,1E0,4.2E1,1.57E2,2.34E2,-1.7056721E-1,1.33E2,-2.865906E-2,5.9E1,2.46E2,-1.1033523E-1,1.01421826E-1,-1.3982694E-1,1.0032344E-1,8.3711796E-2,-9.8524205E-2,-0E0,1.5647623E-1,-1.4439289E-2,1.4542603E-1,3.713264E-2,-1.2393949E-1],"split_indices":[2,11,0,9,3,9,1,0,7,4,0,7,0,0,4,0,0,0,0,0,0,0,0,0,0,0,0],"split_type":[0,0,0,0,0,0,0,0,0,0,0,0,0,0,0,0,0,0,0,0,0,0,0,0,0,0,0],"sum_hessian":[1.8160559E2,8.8615295E1,9.2990295E1,3.7337048E1,5.1278248E1,5.5648083E1,3.7342213E1,1.6920008E1,2.0417042E1,2.7458417E0,4.8532406E1,5.4157364E1,1.4907166E0,1.2883102E1,2.4459112E1,1.7498344E0,1.5170174E1,1.7440298E1,2.9767435E0,1.247175E0,1.4986668E0,3.4615626E0,5.06958E1,2.7237184E0,1.0159385E1,1.5974424E1,8.484687E0],"tree_param":{"num_deleted":"0","num_feature":"13","num_nodes":"27","size_leaf_vector":"1"}},{"base_weights":[3.4077104E-2,-9.01408E-1,8.8167113E-1,-1.18725054E-1,-1.4945936E0,1.2804157E0,2.5421074E-1,8.494344E-1,-1.042735E0,-1.623189E-2,-1.5376069E-1,1.3548933E0,-9.229952E-2,1.0881099E0,-1.8956524E-1,-6.591746E-2,1.1451649E-1,9.438074E-4,-1.4658813E-1,2.7300855E-2,1.4784107E-1,1.0102368E-2,1.485902E-1,3.858253E-2,-1.1097839E-1],"categories":[],"categories_nodes":[],"categories_segments":[],"categories_sizes":[],"default_left":[0,0,0,0,0,0,0,0,0,0,0,0,0,0,0,0,0,0,0,0,0,0,0,0,0],"id":2,"left_children":[1,3,5,7,9,11,13,15,17,-1,-1,19,-1,21,23,-1,-1,-1,-1,-1,-1,-1,-1,-1,-1],"loss_changes":[1.4303209E2,3.870775E1,2.2652489E1,3.5252556E1,1.6616516E0,1.0868843E1,1.4944506E1,9.471898E0,9.786417E0,0E0,0E0,6.2101593E0,0E0,4.5343113E0,1.4377398E1,0E0,0E0,0E0,0E0,0E0,0E0,0E0,0E0,0E0,0E0],"parents":[2147483647,0,0,1,1,2,2,3,3,4,4,5,5,6,6,7,7,8,8,11,11,13,13,14,14],"right_children":[2,4,6,8,10,12,14,16,18,-1,-1,20,-1,22,24,-1,-1,-1,-1,-1,-1,-1,-1,-1,-1],"split_conditions":[1E0,1E0,5.7E1,1E0,1.1E2,3.6E0,1E0,4.2E1,7E-1,-1.623189E-2,-1.5376069E-1,1.43E2,-9.229952E-2,6.3E1,2.46E2,-6.591746E-2,1.1451649E-1,9.438074E-4,-1.4658813E-1,2.7300855E-2,1.4784107E-1,1.0102368E-2,1.485902E-1,3.858253E-2,-1.1097839E-1],"split_indices":[2,11,0,8,3,9,1,0,9,0,0,7,0,0,4,0,0,0,0,0,0,0,0,0,0],"split_type":[0,0,0,0,0,0,0,0,0,0,0,0,0,0,0,0,0,0,0,0,0,0,0,0,0],"sum_hessian":[1.7839857E2,8.4491905E1,9.390667E1,3.730828E1,4.7183624E1,5.629457E1,3.7612103E1,1.7994055E1,1.9314228E1,1.988568E0,4.5195053E1,5.5045967E1,1.2486012E0,1.2950878E1,2.4661224E1,2.4706802E0,1.5523375E1,5.4811525E0,1.3833076E1,6.384303E0,4.8661667E1,4.4412384E0,8.50964E0,1.5196558E1,9.464666E0],"tree_param":{"num_deleted":"0","num_feature":"13","num_nodes":"25","size_leaf_vector":"1"}},{"base_weights":[-2.7095921E-2,-8.392698E-1,7.325613E-1,-1.06918484E-1,-1.3916076E0,1.1584666E0,1.3286398E-1,6.2916327E-1,-1.1145084E0,-1.13513105E-1,-1.4595762E-1,1.2319928E0,-8.713904E-2,9.8754114E-1,-3.1664434E-1,1.1135926E-1,-2.1641778E-2,-3.4112304E-3,-1.535648E-1,8.0166884E-2,-1.0033711E-1,1.3987331E-1,4.5116805E-2,-0E0,1.4129399E-1,1.13371415E-2,-1.0372927E-1],"categories":[],"categories_nodes":[],"categories_segments":[],"categories_sizes":[],"default_left":[0,0,0,0,0,0,0,0,0,0,0,0,0,0,0,0,0,0,0,0,0,0,0,0,0,0,0],"id":3,"left_children":[1,3,5,7,9,11,13,15,17,19,-1,21,-1,23,25,-1,-1,-1,-1,-1,-1,-1,-1,-1,-1,-1,-1],"loss_changes":[1.1274728E2,3.493269E1,2.3229862E1,3.0281353E1,3.39328E0,9.372055E0,1.627911E1,1.0197002E1,7.0550995E0,4.147817E0,0E0,5.363167E0,0E0,6.091878E0,8.958E0,0E0,0E0,0E0,0E0,0E0,0E0,0E0,0E0,0E0,0E0,0E0,0E0],"parents":[2147483647,0,0,1,1,2,2,3,3,4,4,5,5,6,6,7,7,8,8,9,9,11,11,13,13,14,14],"right_children":[2,4,6,8,10,12,14,16,18,20,-1,22,-1,24,26,-1,-1,-1,-1,-1,-1,-1,-1,-1,-1,-1,-1],"split_conditions":[1E0,1E0,5.7E1,3E0,1.1E2,3.6E0,1E0,1E0,6E-1,2.34E2,-1.4595762E-1,3E0,-8.713904E-2,6.3E1,2.46E2,1.1135926E-1,-2.1641778E-2,-3.4112304E-3,-1.535648E-1,8.0166884E-2,-1.0033711E-1,1.3987331E-1,4.5116805E-2,-0E0,1.4129399E-1,1.13371415E-2,-1.0372927E-1],"split_indices":[2,11,0,12,3,9,1,8,9,4,0,12,0,0,4,0,0,0,0,0,0,0,0,0,0,0,0],"split_type":[0,0,0,0,0,0,0,0,0,0,0,0,0,0,0,0,0,0,0,0,0,0,0,0,0,0,0],"sum_hessian":[1.8065942E2,8.757914E1,9.3080284E1,3.8556038E1,4.90231E1,5.3394196E1,3.9686085E1,2.2210089E1,1.6345951E1,2.9816635E0,4.604144E1,5.2144775E1,1.2494215E0,1.3649281E1,2.6036804E1,1.429494E1,7.915149E0,5.2207737E0,1.1125176E1,1.2417711E0,1.7398925E0,4.178924E1,1.0355533E1,4.441699E0,9.207581E0,1.6399796E1,9.637008E0],"tree_param":{"num_deleted":"0","num_feature":"13","num_nodes":"27","size_leaf_vector":"1"}},{"base_weights":[4.4900454E-3,6.0967433E-1,-7.958703E-1,1.0996135E0,-4.2725044E-1,-1.2544912E0,-3.4306835E-2,1.2250409E0,-0E0,-1.226324E0,2.2889462E-1,-1.4130795E0,-6.9988656E-1,1.1956099E0,-5.803382E-1,1.2857123E-1,-2.1676144E-2,-7.6757155E-2,1.1149583E-1,-1.4596234E-1,-2.2366067E-2,5.7694364E-2,-5.6445535E-2,-1.5278071E-1,-6.876226E-2,1.3295583E-2,-1.1427903E-1,1.380582E-1,-0E0,1.8902203E-2,-1.2283319E-1],"categories":[],"categories_nodes":[],"categories_segments":[],"categories_sizes":[],"default_left":[0,0,0,0,0,0,0,0,0,0,0,0,0,0,0,0,0,0,0,0,0,0,0,0,0,0,0,0,0,0,0],"id":4,"left_children":[1,3,5,7,9,11,13,15,17,19,21,23,25,27,29,-1,-1,-1,-1,-1,-1,-1,-1,-1,-1,-1,-1,-1,-1,-1,-1],"loss_changes":[8.380332E1,5.1091843E1,2.5237103E1,9.07917E0,1.7638016E1,1.9906082E0,2.008769E1,6.1229324E0,7.8903837E0,2.3404388E0,5.344991E0,6.717529E-1,5.410262E0,2.079401E0,1.1356466E1,0E0,0E0,0E0,0E0,0E0,0E0,0E0,0E0,0E0,0E0,0E0,0E0,0E0,0E0,0E0,0E0],"parents":[2147483647,0,0,1,1,2,2,3,3,4,4,5,5,6,6,7,7,8,8,9,9,10,10,11,11,12,12,13,13,14,14],"right_children":[2,4,6,8,10,12,14,16,18,20,22,24,26,28,30,-1,-1,-1,-1,-1,-1,-1,-1,-1,-1,-1,-1,-1,-1,-1,-1],"split_conditions":[1E0,3E0,2E0,3.09E2,1.45E2,6.4E1,1E0,1.6E2,3.4E2,2E0,1E0,3E0,2E0,3.19E2,5.4E1,1.2857123E-1,-2.1676144E-2,-7.6757155E-2,1.1149583E-1,-1.4596234E-1,-2.2366067E-2,5.7694364E-2,-5.6445535E-2,-1.5278071E-1,-6.876226E-2,1.3295583E-2,-1.1427903E-1,1.380582E-1,-0E0,1.8902203E-2,-1.2283319E-1],"split_indices":[11,12,10,4,7,0,1,3,4,10,8,11,11,4,0,0,0,0,0,0,0,0,0,0,0,0,0,0,0,0,0],"split_type":[0,0,0,0,0,0,0,0,0,0,0,0,0,0,0,0,0,0,0,0,0,0,0,0,0,0,0,0,0,0,0],"sum_hessian":[1.7120714E2,9.798201E1,7.322513E1,6.682801E1,3.1154E1,4.4888832E1,2.8336296E1,5.9699608E1,7.128407E0,1.3998835E1,1.7155165E1,3.3002407E1,1.1886429E1,8.064947E0,2.0271349E1,5.772555E1,1.9740539E0,4.2868686E0,2.8415382E0,1.0582161E1,3.4166732E0,1.2551663E1,4.6035013E0,2.6945835E1,6.05657E0,3.9776657E0,7.908763E0,6.8895793E0,1.1753678E0,9.238821E0,1.1032529E1],"tree_param":{"num_deleted":"0","num_feature":"13","num_nodes":"31","size_leaf_vector":"1"}},{"base_weights":[5.481006E-3,5.735644E-1,-7.3036444E-1,9.912457E-1,-3.324171E-1,3.0433774E-2,-1.1458336E0,1.1546038E0,-2.804736E-2,5.196846E-1,-9.17362E-1,-5.7137966E-1,6.515264E-1,-1.3723135E-1,-2.5980806E-1,1.3717878E-1,3.8615603E-2,5.6264397E-2,-1.1812681E-1,-1.019416E-1,8.96385E-2,-1.2879424E-1,2.022616E-2,-8.83091E-2,6.623092E-2,2.8424134E-2,1.15344666E-1,7.252919E-2,-1.1360804E-1],"categories":[],"categories_nodes":[],"categories_segments":[],"categories_sizes":[],"default_left":[0,0,0,0,0,0,0,0,0,0,0,0,0,0,0,0,0,0,0,0,0,0,0,0,0,0,0,0,0],"id":5,"left_children":[1,3,5,7,9,11,13,15,17,19,21,23,25,-1,27,-1,-1,-1,-1,-1,-1,-1,-1,-1,-1,-1,-1,-1,-1],"loss_changes":[7.150574E1,3.7371147E1,2.4054607E1,1.1757141E1,1.611936E1,1.0417171E1,8.551678E0,8.307808E0,7.658229E0,8.332969E0,8.720686E0,5.970646E0,1.5430808E0,0E0,1.0998005E1,0E0,0E0,0E0,0E0,0E0,0E0,0E0,0E0,0E0,0E0,0E0,0E0,0E0,0E0],"parents":[2147483647,0,0,1,1,2,2,3,3,4,4,5,5,6,6,7,7,8,8,9,9,10,10,11,11,12,12,14,14],"right_children":[2,4,6,8,10,12,14,16,18,20,22,24,26,-1,28,-1,-1,-1,-1,-1,-1,-1,-1,-1,-1,-1,-1,-1,-1],"split_conditions":[1E0,3E0,6E-1,1.8E0,7E-1,1E0,2E0,5.9E1,2.52E2,4.2E1,1.56E2,6.7E1,1.64E2,-1.3723135E-1,2E0,1.3717878E-1,3.8615603E-2,5.6264397E-2,-1.1812681E-1,-1.019416E-1,8.96385E-2,-1.2879424E-1,2.022616E-2,-8.83091E-2,6.623092E-2,2.8424134E-2,1.15344666E-1,7.252919E-2,-1.1360804E-1],"split_indices":[11,12,9,9,9,6,10,0,4,0,7,0,7,0,11,0,0,0,0,0,0,0,0,0,0,0,0,0,0],"split_type":[0,0,0,0,0,0,0,0,0,0,0,0,0,0,0,0,0,0,0,0,0,0,0,0,0,0,0,0,0],"sum_hessian":[1.6924294E2,9.6016685E1,7.322625E1,6.603198E1,2.9984705E1,2.5766487E1,4.7459763E1,5.7219433E1,8.812548E0,1.1902648E1,1.8082056E1,1.2718139E1,1.3048349E1,3.6911522E1,1.0548238E1,4.3491707E1,1.3727726E1,5.879534E0,2.9330142E0,1.7439268E0,1.0158721E1,1.3808029E1,4.274028E0,1.0703262E1,2.014876E0,9.014433E0,4.033917E0,4.7782536E0,5.7699842E0],"tree_param":{"num_deleted":"0","num_feature":"13","num_nodes":"29","size_leaf_vector":"1"}},{"base_weights":[-0E0,-7.2939575E-1,6.81793E-1,-0E0,-1.0823283E0,9.2249143E-1,-0E0,-3.181318E-1,7.137011E-1,-1.165074E0,5.5172034E-2,1.000178E0,-1.3553213E-1,-6.830367E-1,5.357464E-1,-4.9920052E-2,7.986609E-2,1.01731114E-1,-4.2111747E-2,1.8329112E-2,-1.2295722E-1,-3.1214843E-2,1.03970245E-1,6.891262E-2,-8.143654E-2,-1.02554835E-1,-0E0,1.0392503E-1,-1.9454611E-2],"categories":[],"categories_nodes":[],"categories_segments":[],"categories_sizes":[],"default_left":[0,0,0,0,0,0,0,0,0,0,0,0,0,0,0,0,0,0,0,0,0,0,0,0,0,0,0,0,0],"id":6,"left_children":[1,3,5,7,9,11,13,15,17,19,-1,21,23,25,27,-1,-1,-1,-1,-1,-1,-1,-1,-1,-1,-1,-1,-1,-1],"loss_changes":[8.2979935E1,2.0540993E1,1.37390785E1,6.3904276E0,8.27903E0,5.760212E0,9.057215E0,4.285715E0,3.6824546E0,5.2889175E0,0E0,3.7698517E0,3.2893698E0,2.6851444E0,5.8872747E0,0E0,0E0,0E0,0E0,0E0,0E0,0E0,0E0,0E0,0E0,0E0,0E0,0E0,0E0],"parents":[2147483647,0,0,1,1,2,2,3,3,4,4,5,5,6,6,7,7,8,8,9,9,11,11,12,12,13,13,14,14],"right_children":[2,4,6,8,10,12,14,16,18,20,-1,22,24,26,28,-1,-1,-1,-1,-1,-1,-1,-1,-1,-1,-1,-1,-1,-1],"split_conditions":[1E0,7E-1,3E0,2E-1,1.71E2,2.1E0,1.51E2,1.82E2,1.4E2,1.05E2,5.5172034E-2,1.57E2,1E0,1.8E0,1.66E2,-4.9920052E-2,7.986609E-2,1.01731114E-1,-4.2111747E-2,1.8329112E-2,-1.2295722E-1,-3.1214843E-2,1.03970245E-1,6.891262E-2,-8.143654E-2,-1.02554835E-1,-0E0,1.0392503E-1,-1.9454611E-2],"split_indices":[2,9,12,9,7,9,7,7,3,3,0,4,10,9,7,0,0,0,0,0,0,0,0,0,0,0,0,0,0],"split_type":[0,0,0,0,0,0,0,0,0,0,0,0,0,0,0,0,0,0,0,0,0,0,0,0,0,0,0,0,0],"sum_hessian":[1.6484262E2,7.975037E1,8.5092255E1,2.6541916E1,5.3208454E1,6.217151E1,2.2920746E1,1.896256E1,7.5793543E0,5.1208332E1,2.0001206E0,5.8409946E1,3.7615645E0,9.608351E0,1.3312395E1,1.7178137E1,1.7844234E0,6.4088683E0,1.1704859E0,1.8997259E0,4.930861E1,1.1362185E0,5.7273727E1,1.3589581E0,2.4026062E0,6.2587223E0,3.3496287E0,8.034538E0,5.277857E0],"tree_param":{"num_deleted":"0","num_feature":"13","num_nodes":"29","size_leaf_vector":"1"}},{"base_weights":[3.5821676E-2,5.509817E-1,-7.0024014E-1,9.295663E-1,-2.3190403E-1,9.590033E-4,-1.0617563E0,1.0727012E0,-3.1780146E-2,6.398521E-1,-8.413014E-1,9.896005E-1,-4.0474534E-1,-1.1457232E0,4.8959903E-2,1.290834E-1,3.366604E-2,5.56238E-2,-1.0914152E-1,1.8923912E-3,1.2777206E-1,2.0228393E-2,-1.2733722E-1,-0E0,1.12482145E-1,4.4098843E-2,-1.0445612E-1,-1.3459808E-1,-7.191783E-2],"categories":[],"categories_nodes":[],"categories_segments":[],"categories_sizes":[],"default_left":[0,0,0,0,0,0,0,0,0,0,0,0,0,0,0,0,0,0,0,0,0,0,0,0,0,0,0,0,0],"id":7,"left_children":[1,3,5,7,9,11,13,15,17,19,21,23,25,27,-1,-1,-1,-1,-1,-1,-1,-1,-1,-1,-1,-1,-1,-1,-1],"loss_changes":[6.1125275E1,2.8812052E1,1.7280556E1,9.480953E0,1.7338835E1,9.920336E0,6.6293526E0,7.8945465E0,6.435992E0,4.541344E0,9.482574E0,5.532303E-1,9.778887E0,1.6220322E0,0E0,0E0,0E0,0E0,0E0,0E0,0E0,0E0,0E0,0E0,0E0,0E0,0E0,0E0,0E0],"parents":[2147483647,0,0,1,1,2,2,3,3,4,4,5,5,6,6,7,7,8,8,9,9,10,10,11,11,12,12,13,13],"right_children":[2,4,6,8,10,12,14,16,18,20,22,24,26,28,-1,-1,-1,-1,-1,-1,-1,-1,-1,-1,-1,-1,-1,-1,-1],"split_conditions":[3E0,1E0,7E-1,1.8E0,1E0,1.22E2,1.74E2,5.9E1,2.52E2,6.4E1,5.4E1,4.4E1,2.28E2,1.45E2,4.8959903E-2,1.290834E-1,3.366604E-2,5.56238E-2,-1.0914152E-1,1.8923912E-3,1.2777206E-1,2.0228393E-2,-1.2733722E-1,-0E0,1.12482145E-1,4.4098843E-2,-1.0445612E-1,-1.3459808E-1,-7.191783E-2],"split_indices":[12,11,9,9,1,3,7,0,4,0,0,0,4,7,0,0,0,0,0,0,0,0,0,0,0,0,0,0,0],"split_type":[0,0,0,0,0,0,0,0,0,0,0,0,0,0,0,0,0,0,0,0,0,0,0,0,0,0,0,0,0],"sum_hessian":[1.5937907E2,9.430616E1,6.507291E1,6.3870995E1,3.0435165E1,2.2005388E1,4.306752E1,5.5945534E1,7.92546E0,1.2163935E1,1.827123E1,6.3426056E0,1.5662783E1,4.1409977E1,1.6575422E0,4.2050423E1,1.389511E1,5.0990663E0,2.826394E0,7.0827823E0,5.081153E0,5.1666856E0,1.3104546E1,1.2220167E0,5.120589E0,6.5431156E0,9.119667E0,2.591531E1,1.5494668E1],"tree_param":{"num_deleted":"0","num_feature":"13","num_nodes":"29","size_leaf_vector":"1"}},{"base_weights":[-0E0,-6.715456E-1,6.132603E-1,-1.12859465E-1,-1.1329346E0,8.8462746E-1,4.5610767E-2,5.61142E-1,-7.146802E-1,-1.2298602E-1,-6.4691126E-1,5.1970565E-1,1.1278431E0,3.0054262E-1,-1.2078762E-1,-6.2429298E-2,8.417823E-2,1.83029E-2,-1.1445492E-1,-1.0885183E-1,8.123806E-3,7.494783E-2,-4.746328E-2,1.1995528E-1,-1.39742615E-2,-3.0193258E-2,9.1197796E-2],"categories":[],"categories_nodes":[],"categories_segments":[],"categories_sizes":[],"default_left":[0,0,0,0,0,0,0,0,0,0,0,0,0,0,0,0,0,0,0,0,0,0,0,0,0,0,0],"id":8,"left_children":[1,3,5,7,9,11,13,15,17,-1,19,21,23,25,-1,-1,-1,-1,-1,-1,-1,-1,-1,-1,-1,-1,-1],"loss_changes":[6.4036674E1,1.8407593E1,1.1994762E1,1.4763103E1,1.552887E-1,3.4051933E0,8.823794E0,6.216944E0,8.190865E0,0E0,3.690463E0,6.061929E0,3.50428E0,9.537069E0,0E0,0E0,0E0,0E0,0E0,0E0,0E0,0E0,0E0,0E0,0E0,0E0,0E0],"parents":[2147483647,0,0,1,1,2,2,3,3,4,4,5,5,6,6,7,7,8,8,10,10,11,11,12,12,13,13],"right_children":[2,4,6,8,10,12,14,16,18,-1,20,22,24,26,-1,-1,-1,-1,-1,-1,-1,-1,-1,-1,-1,-1,-1],"split_conditions":[1E0,1E0,1E0,1E0,6.4E1,1.61E2,2E0,4.2E1,7E-1,-1.2298602E-1,1E0,1.58E2,2.5E0,1E0,-1.2078762E-1,-6.2429298E-2,8.417823E-2,1.83029E-2,-1.1445492E-1,-1.0885183E-1,8.123806E-3,7.494783E-2,-4.746328E-2,1.1995528E-1,-1.39742615E-2,-3.0193258E-2,9.1197796E-2],"split_indices":[2,11,11,8,0,7,9,0,9,0,6,7,9,6,0,0,0,0,0,0,0,0,0,0,0,0,0],"split_type":[0,0,0,0,0,0,0,0,0,0,0,0,0,0,0,0,0,0,0,0,0,0,0,0,0,0,0],"sum_hessian":[1.5347144E2,7.3322945E1,8.01485E1,3.421772E1,3.910522E1,5.325196E1,2.6896536E1,1.578089E1,1.8436829E1,3.0469587E1,8.635634E0,2.3374046E1,2.9877914E1,2.3314083E1,3.5824533E0,2.445373E0,1.3335518E1,5.7791395E0,1.2657689E1,5.4948735E0,3.1407611E0,1.9595097E1,3.7789507E0,2.8702295E1,1.1756195E0,1.1586156E1,1.1727927E1],"tree_param":{"num_deleted":"0","num_feature":"13","num_nodes":"27","size_leaf_vector":"1"}},{"base_weights":[-7.1002683E-3,-6.264704E-1,5.702116E-1,-1.2242975E-2,-9.6671116E-1,1.0852684E0,3.0519062E-1,3.5024297E-1,-5.8857495E-1,-3.949958E-1,-1.2607412E-1,1.1692683E0,2.3210725E-1,6.604406E-1,-1.6424592E-1,-9.04851E-2,5.836879E-2,2.6558518E-2,-1.0687472E-1,1.7749328E-2,-9.58711E-2,1.0819964E-2,1.2257818E-1,-1.663586E-2,6.527509E-2,9.6710466E-2,1.1012373E-2,-9.355568E-2,6.763468E-4],"categories":[],"categories_nodes":[],"categories_segments":[],"categories_sizes":[],"default_left":[0,0,0,0,0,0,0,0,0,0,0,0,0,0,0,0,0,0,0,0,0,0,0,0,0,0,0,0,0],"id":9,"left_children":[1,3,5,7,9,11,13,15,17,19,-1,21,23,25,27,-1,-1,-1,-1,-1,-1,-1,-1,-1,-1,-1,-1,-1,-1],"loss_changes":[5.3424686E1,1.4640524E1,9.467569E0,6.0420904E0,6.421871E0,8.257408E-1,9.160622E0,5.317191E0,5.3903213E0,6.2687464E0,0E0,5.229969E-1,1.0272207E0,4.5622997E0,3.4960043E0,0E0,0E0,0E0,0E0,0E0,0E0,0E0,0E0,0E0,0E0,0E0,0E0,0E0,0E0],"parents":[2147483647,0,0,1,1,2,2,3,3,4,4,5,5,6,6,7,7,8,8,9,9,11,11,12,12,13,13,14,14],"right_children":[2,4,6,8,10,12,14,16,18,20,-1,22,24,26,28,-1,-1,-1,-1,-1,-1,-1,-1,-1,-1,-1,-1,-1,-1],"split_conditions":[1E0,7E-1,1E0,1E0,3E0,1.74E2,7E-1,4.2E1,1.48E2,1E0,-1.2607412E-1,1.16E2,1E0,5.5E1,1.36E2,-9.04851E-2,5.836879E-2,2.6558518E-2,-1.0687472E-1,1.7749328E-2,-9.58711E-2,1.0819964E-2,1.2257818E-1,-1.663586E-2,6.527509E-2,9.6710466E-2,1.1012373E-2,-9.355568E-2,6.763468E-4],"split_indices":[2,9,1,11,12,7,9,0,7,8,0,7,6,0,7,0,0,0,0,0,0,0,0,0,0,0,0,0,0],"split_type":[0,0,0,0,0,0,0,0,0,0,0,0,0,0,0,0,0,0,0,0,0,0,0,0,0,0,0,0,0],"sum_hessian":[1.4733286E2,7.145411E1,7.5878746E1,2.6364508E1,4.50896E1,2.4086332E1,5.179241E1,1.5893175E1,1.0471333E1,1.6687033E1,2.8402569E1,2.105659E1,3.029744E0,2.9856491E1,2.1935919E1,1.7055486E0,1.4187627E1,3.5543094E0,6.917023E0,8.178947E0,8.508084E0,1.6595603E0,1.9397028E1,1.2559096E0,1.7738343E0,1.8102787E1,1.1753704E1,3.7001226E0,1.8235796E1],"tree_param":{"num_deleted":"0","num_feature":"13","num_nodes":"29","size_leaf_vector":"1"}},{"base_weights":[-9.115365E-3,-5.7726693E-1,4.770788E-1,-0E0,-9.1657454E-1,6.1478097E-2,8.035497E-1,-3.2312438E-1,5.637656E-1,-1.0002422E0,4.629192E-2,7.7905315E-1,-1.6408317E-1,9.016748E-1,-0E0,-4.9892712E-2,6.538718E-2,8.278234E-2,-4.7553997E-2,2.3136951E-2,-1.07360184E-1,9.910836E-2,-0E0,2.8419723E-3,-1.00225486E-1,1.3868729E-2,1.0756139E-1,7.422509E-2,-1.06286995E-1],"categories":[],"categories_nodes":[],"categories_segments":[],"categories_sizes":[],"default_left":[0,0,0,0,0,0,0,0,0,0,0,0,0,0,0,0,0,0,0,0,0,0,0,0,0,0,0,0,0],"id":10,"left_children":[1,3,5,7,9,11,13,15,17,19,-1,21,23,25,27,-1,-1,-1,-1,-1,-1,-1,-1,-1,-1,-1,-1,-1,-1],"loss_changes":[4.0717205E1,1.3625196E1,1.0219076E1,4.9847784E0,5.733059E0,6.3357244E0,3.2518806E0,3.149252E0,3.351559E0,4.4201813E0,0E0,1.9535146E0,5.0383515E0,4.3503284E0,5.410376E0,0E0,0E0,0E0,0E0,0E0,0E0,0E0,0E0,0E0,0E0,0E0,0E0,0E0,0E0],"parents":[2147483647,0,0,1,1,2,2,3,3,4,4,5,5,6,6,7,7,8,8,9,9,11,11,12,12,13,13,14,14],"right_children":[2,4,6,8,10,12,14,16,18,20,-1,22,24,26,28,-1,-1,-1,-1,-1,-1,-1,-1,-1,-1,-1,-1,-1,-1],"split_conditions":[1E0,7E-1,2E0,1E-1,1.71E2,1E0,1.54E2,1.82E2,1.4E2,1.05E2,4.629192E-2,1.74E2,2.74E2,1.53E2,1.64E2,-4.9892712E-2,6.538718E-2,8.278234E-2,-4.7553997E-2,2.3136951E-2,-1.07360184E-1,9.910836E-2,-0E0,2.8419723E-3,-1.00225486E-1,1.3868729E-2,1.0756139E-1,7.422509E-2,-1.06286995E-1],"split_indices":[2,9,10,9,7,1,3,7,3,3,0,7,4,7,7,0,0,0,0,0,0,0,0,0,0,0,0,0,0],"split_type":[0,0,0,0,0,0,0,0,0,0,0,0,0,0,0,0,0,0,0,0,0,0,0,0,0,0,0,0,0],"sum_hessian":[1.4522388E2,6.735545E1,7.786843E1,2.5023249E1,4.2332203E1,3.545443E1,4.2414E1,1.5887015E1,9.136232E0,4.0512455E1,1.8197494E0,8.422594E0,2.7031837E1,3.7478832E1,4.935169E0,1.4312663E1,1.5743524E0,7.831139E0,1.3050936E0,1.7731932E0,3.873926E1,6.8109813E0,1.6116124E0,2.2283535E1,4.7483025E0,7.825222E0,2.9653608E1,3.1886938E0,1.7464752E0],"tree_param":{"num_deleted":"0","num_feature":"13","num_nodes":"29","size_leaf_vector":"1"}},{"base_weights":[-1.147827E-2,-5.4852486E-1,4.7215703E-1,6.972617E-3,-9.0165305E-1,6.77861E-2,7.758275E-1,3.6621398E-1,-4.7249976E-1,-9.849278E-1,4.3807983E-2,3.3625904E-1,-4.1658777E-1,9.5042616E-1,-1.5126893E-1,-8.263313E-2,5.8994975E-2,-0E0,-1.0343975E-1,2.1646706E-2,-1.0593531E-1,7.57845E-2,-1.4691958E-2,1.4323468E-2,-9.461034E-2,1.0478139E-1,-1.3831453E-2,-1.0591916E-1,8.191481E-2],"categories":[],"categories_nodes":[],"categories_segments":[],"categories_sizes":[],"default_left":[0,0,0,0,0,0,0,0,0,0,0,0,0,0,0,0,0,0,0,0,0,0,0,0,0,0,0,0,0],"id":11,"left_children":[1,3,5,7,9,11,13,15,17,19,-1,21,23,25,27,-1,-1,-1,-1,-1,-1,-1,-1,-1,-1,-1,-1,-1,-1],"loss_changes":[3.6784447E1,1.3697771E1,8.607883E0,4.7157035E0,5.372238E0,4.4593678E0,7.251072E0,4.7484703E0,3.3786104E0,4.2314224E0,0E0,5.05839E0,4.0163116E0,4.359806E0,7.134115E0,0E0,0E0,0E0,0E0,0E0,0E0,0E0,0E0,0E0,0E0,0E0,0E0,0E0,0E0],"parents":[2147483647,0,0,1,1,2,2,3,3,4,4,5,5,6,6,7,7,8,8,9,9,11,11,12,12,13,13,14,14],"right_children":[2,4,6,8,10,12,14,16,18,20,-1,22,24,26,28,-1,-1,-1,-1,-1,-1,-1,-1,-1,-1,-1,-1,-1,-1],"split_conditions":[1E0,7E-1,2E0,1E0,1.71E2,1E0,2E0,4.2E1,1.6E2,1.05E2,4.3807983E-2,3E0,6E-1,1.6E2,1.38E2,-8.263313E-2,5.8994975E-2,-0E0,-1.0343975E-1,2.1646706E-2,-1.0593531E-1,7.57845E-2,-1.4691958E-2,1.4323468E-2,-9.461034E-2,1.0478139E-1,-1.3831453E-2,-1.0591916E-1,8.191481E-2],"split_indices":[2,9,10,11,7,11,11,0,7,3,0,12,9,3,3,0,0,0,0,0,0,0,0,0,0,0,0,0,0],"split_type":[0,0,0,0,0,0,0,0,0,0,0,0,0,0,0,0,0,0,0,0,0,0,0,0,0,0,0,0,0],"sum_hessian":[1.3947903E2,6.651641E1,7.296262E1,2.5681618E1,4.0834793E1,3.2523594E1,4.0439026E1,1.5412749E1,1.0268868E1,3.9045834E1,1.7889578E0,2.1786232E1,1.0737364E1,3.446285E1,5.9761796E0,1.6563007E0,1.3756448E1,5.759921E0,4.5089474E0,1.7745104E0,3.7271324E1,1.1883726E1,9.902505E0,5.1149254E0,5.6224384E0,3.20893E1,2.3735485E0,3.306437E0,2.6697426E0],"tree_param":{"num_deleted":"0","num_feature":"13","num_nodes":"29","size_leaf_vector":"1"}},{"base_weights":[-7.3123504E-3,4.2044932E-1,-5.6909025E-1,8.07876E-1,-3.4572816E-1,-8.499385E-1,1.3366495E-2,9.014032E-1,-1.1109976E-1,-8.9879286E-1,4.8924997E-3,-1.1092863E0,-4.278829E-1,1.10835314E-1,-4.250112E-1,1.0341817E-1,2.2440778E-2,-1.227868E-1,8.0822274E-2,-2.7436537E-3,-1.12121895E-1,-4.7605883E-2,7.1323715E-2,-1.15691185E-1,-3.677144E-3,6.935615E-3,-8.643461E-2,-9.218726E-2,6.86514E-2],"categories":[],"categories_nodes":[],"categories_segments":[],"categories_sizes":[],"default_left":[0,0,0,0,0,0,0,0,0,0,0,0,0,0,0,0,0,0,0,0,0,0,0,0,0,0,0,0,0],"id":12,"left_children":[1,3,5,7,9,11,13,15,17,19,21,23,25,-1,27,-1,-1,-1,-1,-1,-1,-1,-1,-1,-1,-1,-1,-1,-1],"loss_changes":[3.2940926E1,2.3411602E1,1.0182867E1,4.9623795E0,5.52752E0,3.2250195E0,1.0317902E1,3.4332466E0,6.538183E0,1.4716444E0,6.066395E0,5.825615E-1,4.3419104E0,0E0,8.779122E0,0E0,0E0,0E0,0E0,0E0,0E0,0E0,0E0,0E0,0E0,0E0,0E0,0E0,0E0],"parents":[2147483647,0,0,1,1,2,2,3,3,4,4,5,5,6,6,7,7,8,8,9,9,10,10,11,11,12,12,14,14],"right_children":[2,4,6,8,10,12,14,16,18,20,22,24,26,-1,28,-1,-1,-1,-1,-1,-1,-1,-1,-1,-1,-1,-1,-1,-1],"split_conditions":[1E0,3E0,2E0,3.26E2,5.2E1,1E0,4E-1,1E0,3.4E2,2.12E2,1.51E2,6.8E1,9E-1,1.10835314E-1,2.7E2,1.0341817E-1,2.2440778E-2,-1.227868E-1,8.0822274E-2,-2.7436537E-3,-1.12121895E-1,-4.7605883E-2,7.1323715E-2,-1.15691185E-1,-3.677144E-3,6.935615E-3,-8.643461E-2,-9.218726E-2,6.86514E-2],"split_indices":[11,12,2,4,0,6,9,8,4,4,7,0,9,0,4,0,0,0,0,0,0,0,0,0,0,0,0,0,0],"split_type":[0,0,0,0,0,0,0,0,0,0,0,0,0,0,0,0,0,0,0,0,0,0,0,0,0,0,0,0,0],"sum_hessian":[1.3477351E2,7.615068E1,5.862284E1,5.09735E1,2.5177183E1,3.9821136E1,1.8801704E1,4.6776142E1,4.1973557E0,9.715182E0,1.5462001E1,2.292255E1,1.6898584E1,5.264419E0,1.3537286E1,3.8047714E1,8.728428E0,1.9891932E0,2.2081625E0,2.6611993E0,7.0539837E0,8.984063E0,6.477937E0,2.1426224E1,1.4963262E0,7.7569885E0,9.141597E0,9.784144E0,3.7531416E0],"tree_param":{"num_deleted":"0","num_feature":"13","num_nodes":"29","size_leaf_vector":"1"}},{"base_weights":[-1.0059322E-2,3.7750018E-1,-5.5520356E-1,7.160835E-1,-2.7455282E-1,-8.456053E-1,8.2315534E-2,7.892804E-1,-3.2066518E-1,3.1238422E-1,-7.3828E-1,-4.3307555E-1,-1.0772532E-1,1.07023835E-1,-3.8352457E-1,1.0241576E-1,3.5226446E-2,-8.5582756E-2,2.3212025E-2,-7.3936194E-2,5.916683E-2,-1.2014677E-1,-6.293695E-4,-8.963121E-2,4.7645837E-2,-9.419068E-2,2.3227088E-2],"categories":[],"categories_nodes":[],"categories_segments":[],"categories_sizes":[],"default_left":[0,0,0,0,0,0,0,0,0,0,0,0,0,0,0,0,0,0,0,0,0,0,0,0,0,0,0],"id":13,"left_children":[1,3,5,7,9,11,13,15,17,19,21,23,-1,-1,25,-1,-1,-1,-1,-1,-1,-1,-1,-1,-1,-1,-1],"loss_changes":[2.8148455E1,1.7439941E1,1.0766006E1,4.398077E0,7.6756372E0,2.4961777E0,8.949666E0,3.9676838E0,1.592962E0,3.8750248E0,4.6833477E0,7.5632133E0,0E0,0E0,4.8697934E0,0E0,0E0,0E0,0E0,0E0,0E0,0E0,0E0,0E0,0E0,0E0,0E0],"parents":[2147483647,0,0,1,1,2,2,3,3,4,4,5,5,6,6,7,7,8,8,9,9,10,10,11,11,14,14],"right_children":[2,4,6,8,10,12,14,16,18,20,22,24,-1,-1,26,-1,-1,-1,-1,-1,-1,-1,-1,-1,-1,-1,-1],"split_conditions":[1E0,3E0,2E0,2.8E0,7E-1,5E-1,4E-1,5.8E1,1.48E2,4.2E1,2E0,1E-1,-1.0772532E-1,1.07023835E-1,2E0,1.0241576E-1,3.5226446E-2,-8.5582756E-2,2.3212025E-2,-7.3936194E-2,5.916683E-2,-1.2014677E-1,-6.293695E-4,-8.963121E-2,4.7645837E-2,-9.419068E-2,2.3227088E-2],"split_indices":[11,12,2,9,9,9,9,0,7,0,2,9,0,0,10,0,0,0,0,0,0,0,0,0,0,0,0],"split_type":[0,0,0,0,0,0,0,0,0,0,0,0,0,0,0,0,0,0,0,0,0,0,0,0,0,0,0],"sum_hessian":[1.3081825E2,7.610398E1,5.471428E1,5.053297E1,2.5571009E1,3.790551E1,1.680877E1,4.787393E1,2.6590395E0,1.0954322E1,1.4616686E1,1.5438996E1,2.2466513E1,5.314347E0,1.1494423E1,2.952036E1,1.8353569E1,1.532092E0,1.1269475E0,1.5771918E0,9.3771305E0,8.140851E0,6.4758353E0,1.060302E1,4.835976E0,6.176324E0,5.318099E0],"tree_param":{"num_deleted":"0","num_feature":"13","num_nodes":"27","size_leaf_vector":"1"}},{"base_weights":[1.9311813E-3,3.7938413E-1,-5.391192E-1,6.7826813E-1,-1.6226144E-1,-8.778805E-1,-2.8378086E-3,3.6337185E-1,1.0283879E0,6.467977E-1,-6.413814E-1,-1.2298575E-2,-9.7337925E-1,6.260532E-1,-3.3312598E-1,8.5447066E-2,-6.094687E-4,1.1483031E-1,-4.5207676E-2,-0E0,1.04210414E-1,1.5311305E-2,-1.18834294E-1,-4.9628798E-2,2.1606494E-2,-7.1784975E-3,-1.0779484E-1,-0E0,7.934022E-2,5.8133133E-2,-4.9855705E-2],"categories":[],"categories_nodes":[],"categories_segments":[],"categories_sizes":[],"default_left":[0,0,0,0,0,0,0,0,0,0,0,0,0,0,0,0,0,0,0,0,0,0,0,0,0,0,0,0,0,0,0],"id":14,"left_children":[1,3,5,7,9,11,13,15,17,19,21,23,25,27,29,-1,-1,-1,-1,-1,-1,-1,-1,-1,-1,-1,-1,-1,-1,-1,-1],"loss_changes":[2.5702309E1,1.2494797E1,8.883661E0,4.3392715E0,1.0819592E1,2.0484562E0,4.5174155E0,5.5329003E0,4.7608356E0,2.741538E0,8.414198E0,7.560099E-1,1.9202309E0,7.910361E-1,2.5535264E0,0E0,0E0,0E0,0E0,0E0,0E0,0E0,0E0,0E0,0E0,0E0,0E0,0E0,0E0,0E0,0E0],"parents":[2147483647,0,0,1,1,2,2,3,3,4,4,5,5,6,6,7,7,8,8,9,9,10,10,11,11,12,12,13,13,14,14],"right_children":[2,4,6,8,10,12,14,16,18,20,22,24,26,28,30,-1,-1,-1,-1,-1,-1,-1,-1,-1,-1,-1,-1,-1,-1,-1,-1],"split_conditions":[3E0,1E0,1E0,1.61E2,1E0,1.12E2,2.28E2,1E0,6.1E1,2E0,5.5E1,1.44E2,1.12E2,1.51E2,1.1E2,8.5447066E-2,-6.094687E-4,1.1483031E-1,-4.5207676E-2,-0E0,1.04210414E-1,1.5311305E-2,-1.18834294E-1,-4.9628798E-2,2.1606494E-2,-7.1784975E-3,-1.0779484E-1,-0E0,7.934022E-2,5.8133133E-2,-4.9855705E-2],"split_indices":[12,11,2,7,1,3,4,6,0,10,0,7,7,7,3,0,0,0,0,0,0,0,0,0,0,0,0,0,0,0,0],"split_type":[0,0,0,0,0,0,0,0,0,0,0,0,0,0,0,0,0,0,0,0,0,0,0,0,0,0,0,0,0,0,0],"sum_hessian":[1.2424489E2,7.390764E1,5.0337254E1,4.805913E1,2.5848503E1,2.9888063E1,2.044919E1,2.7127079E1,2.0932053E1,9.095674E0,1.675283E1,3.6022675E0,2.6285797E1,6.2119365E0,1.4237254E1,1.1663897E1,1.5463183E1,1.9883608E1,1.0484438E0,3.682084E0,5.4135895E0,6.751621E0,1.0001209E1,1.4805892E0,2.1216784E0,3.404057E0,2.2881739E1,1.4648732E0,4.7470636E0,1.3329006E0,1.2904353E1],"tree_param":{"num_deleted":"0","num_feature":"13","num_nodes":"31","size_leaf_vector":"1"}},{"base_weights":[1.710504E-3,-4.7791484E-1,4.2242265E-1,-1.2213642E-2,-8.205565E-1,7.305973E-1,6.069716E-2,3.6048436E-1,-5.497927E-1,-1.5688787E-1,-9.274683E-1,1.0523155E-1,9.031167E-1,7.119451E-1,-1.9930343E-1,-5.363078E-2,5.5565584E-2,3.455753E-2,-7.543553E-2,2.088513E-2,-6.825315E-2,-1.1432391E-1,-3.5668284E-2,-3.1616367E-2,6.6917315E-2,9.727038E-2,-1.470571E-2,-6.240473E-3,9.706799E-2,1.6866891E-3,-1.1814276E-1],"categories":[],"categories_nodes":[],"categories_segments":[],"categories_sizes":[],"default_left":[0,0,0,0,0,0,0,0,0,0,0,0,0,0,0,0,0,0,0,0,0,0,0,0,0,0,0,0,0,0,0],"id":15,"left_children":[1,3,5,7,9,11,13,15,17,19,21,23,25,27,29,-1,-1,-1,-1,-1,-1,-1,-1,-1,-1,-1,-1,-1,-1,-1,-1],"loss_changes":[2.486106E1,8.682201E0,6.946375E0,5.467999E0,1.6007748E0,3.1705647E0,5.8705993E0,2.9871857E0,2.5752401E0,1.5957942E0,2.1583729E0,2.6013913E0,2.5017986E0,2.5159693E0,5.5553336E0,0E0,0E0,0E0,0E0,0E0,0E0,0E0,0E0,0E0,0E0,0E0,0E0,0E0,0E0,0E0,0E0],"parents":[2147483647,0,0,1,1,2,2,3,3,4,4,5,5,6,6,7,7,8,8,9,9,10,10,11,11,12,12,13,13,14,14],"right_children":[2,4,6,8,10,12,14,16,18,20,22,24,26,28,30,-1,-1,-1,-1,-1,-1,-1,-1,-1,-1,-1,-1,-1,-1,-1,-1],"split_conditions":[1E0,1E0,5.7E1,1E0,1.12E2,1.53E2,1E0,4.2E1,1.1E2,2.64E2,1.48E2,5E1,1.64E2,5.9E1,2.78E2,-5.363078E-2,5.5565584E-2,3.455753E-2,-7.543553E-2,2.088513E-2,-6.825315E-2,-1.1432391E-1,-3.5668284E-2,-3.1616367E-2,6.6917315E-2,9.727038E-2,-1.470571E-2,-6.240473E-3,9.706799E-2,1.6866891E-3,-1.1814276E-1],"split_indices":[2,8,0,11,7,7,1,0,3,4,7,0,3,0,4,0,0,0,0,0,0,0,0,0,0,0,0,0,0,0,0],"split_type":[0,0,0,0,0,0,0,0,0,0,0,0,0,0,0,0,0,0,0,0,0,0,0,0,0,0,0,0,0,0,0],"sum_hessian":[1.213432E2,5.6082695E1,6.5260506E1,2.4829964E1,3.1252731E1,3.3941647E1,3.1318855E1,1.43090105E1,1.0520954E1,5.3272624E0,2.5925468E1,8.313657E0,2.562799E1,8.98874E0,2.2330114E1,1.7872151E0,1.2521795E1,1.3738872E0,9.147067E0,2.935926E0,2.3913364E0,1.7450027E1,8.475442E0,4.5022116E0,3.8114452E0,2.455106E1,1.0769321E0,1.9572742E0,7.031466E0,1.8690065E1,3.640049E0],"tree_param":{"num_deleted":"0","num_feature":"13","num_nodes":"31","size_leaf_vector":"1"}},{"base_weights":[-3.4396518E-2,3.172889E-1,-5.453245E-1,5.53206E-1,-2.8567111E-1,-8.4211445E-1,-0E0,9.6952116E-1,3.2503098E-1,7.654662E-2,-5.200014E-1,-0E0,-9.1471076E-1,1.0018299E-1,-4.426565E-1,1.11751474E-1,3.527006E-2,-1.4650278E-2,8.413144E-2,-9.096699E-2,4.0864497E-2,8.318571E-3,-0E0,-8.857985E-3,-9.593838E-2,-8.086122E-2,2.0439371E-2],"categories":[],"categories_nodes":[],"categories_segments":[],"categories_sizes":[],"default_left":[0,0,0,0,0,0,0,0,0,0,0,0,0,0,0,0,0,0,0,0,0,0,0,0,0,0,0],"id":16,"left_children":[1,3,5,7,9,11,13,15,17,-1,19,21,23,-1,25,-1,-1,-1,-1,-1,-1,-1,-1,-1,-1,-1,-1],"loss_changes":[2.0940891E1,9.983803E0,7.9435635E0,3.778634E0,5.0106344E0,2.2404766E0,8.367229E0,3.668928E-1,8.874301E0,0E0,6.6670814E0,1.3883466E-2,4.6736908E-1,0E0,3.4753852E0,0E0,0E0,0E0,0E0,0E0,0E0,0E0,0E0,0E0,0E0,0E0,0E0],"parents":[2147483647,0,0,1,1,2,2,3,3,4,4,5,5,6,6,7,7,8,8,10,10,11,11,12,12,14,14],"right_children":[2,4,6,8,10,12,14,16,18,-1,20,22,24,-1,26,-1,-1,-1,-1,-1,-1,-1,-1,-1,-1,-1,-1],"split_conditions":[1E0,1E0,2E0,1E0,1.14E2,1.1E2,4E-1,1.68E2,1.61E2,7.654662E-2,2E0,5.9E1,1.06E2,1.0018299E-1,6.2E1,1.11751474E-1,3.527006E-2,-1.4650278E-2,8.413144E-2,-9.096699E-2,4.0864497E-2,8.318571E-3,-0E0,-8.857985E-3,-9.593838E-2,-8.086122E-2,2.0439371E-2],"split_indices":[11,8,2,1,3,3,9,7,7,0,10,0,7,0,0,0,0,0,0,0,0,0,0,0,0,0,0],"split_type":[0,0,0,0,0,0,0,0,0,0,0,0,0,0,0,0,0,0,0,0,0,0,0,0,0,0,0],"sum_hessian":[1.1394416E2,6.713424E1,4.6809917E1,4.8909447E1,1.8224796E1,3.0250101E1,1.6559814E1,1.5389792E1,3.3519653E1,2.5200834E0,1.5704712E1,2.0857413E0,2.816436E1,4.8566604E0,1.1703154E1,1.1103414E1,4.28638E0,1.7387249E1,1.6132404E1,1.1456368E1,4.248344E0,1.006321E0,1.0794203E0,2.1720614E0,2.5992298E1,7.809398E0,3.8937557E0],"tree_param":{"num_deleted":"0","num_feature":"13","num_nodes":"27","size_leaf_vector":"1"}},{"base_weights":[-2.0188868E-2,-4.4813654E-1,3.3959225E-1,-3.1414654E-3,-7.82716E-1,4.615511E-1,-5.631008E-1,3.9071503E-1,-6.237774E-1,-1.7336045E-1,-1.058197E0,6.064194E-1,-2.9606467E-1,6.5365314E-2,-1.0234574E0,-9.1378085E-2,6.692466E-2,-0E0,-7.758308E-2,5.7612758E-2,-4.7266245E-2,-4.0704426E-3,-1.08991854E-1,2.1748752E-3,7.240854E-2,-5.7915367E-2,5.5977054E-2,-1.1842199E-1,-0E0],"categories":[],"categories_nodes":[],"categories_segments":[],"categories_sizes":[],"default_left":[0,0,0,0,0,0,0,0,0,0,0,0,0,0,0,0,0,0,0,0,0,0,0,0,0,0,0,0,0],"id":17,"left_children":[1,3,5,7,9,11,13,15,17,19,21,23,25,-1,27,-1,-1,-1,-1,-1,-1,-1,-1,-1,-1,-1,-1,-1,-1],"loss_changes":[1.7493444E1,7.3982544E0,6.9170566E0,6.254102E0,4.1082993E0,6.3400297E0,4.8951445E0,5.893174E0,1.2068372E0,2.6573672E0,1.5581131E-2,2.8320007E0,2.490397E0,0E0,6.808796E-1,0E0,0E0,0E0,0E0,0E0,0E0,0E0,0E0,0E0,0E0,0E0,0E0,0E0,0E0],"parents":[2147483647,0,0,1,1,2,2,3,3,4,4,5,5,6,6,7,7,8,8,9,9,10,10,11,11,12,12,14,14],"right_children":[2,4,6,8,10,12,14,16,18,20,22,24,26,-1,28,-1,-1,-1,-1,-1,-1,-1,-1,-1,-1,-1,-1,-1,-1],"split_conditions":[1E0,1E0,2E0,3E0,7E-1,1.52E2,1E0,1.11E2,1.12E2,1.12E2,1.1E2,1.43E2,6.9E1,6.5365314E-2,1E0,-9.1378085E-2,6.692466E-2,-0E0,-7.758308E-2,5.7612758E-2,-4.7266245E-2,-4.0704426E-3,-1.08991854E-1,2.1748752E-3,7.240854E-2,-5.7915367E-2,5.5977054E-2,-1.1842199E-1,-0E0],"split_indices":[2,8,9,12,9,3,10,7,3,7,3,7,0,0,5,0,0,0,0,0,0,0,0,0,0,0,0,0,0],"split_type":[0,0,0,0,0,0,0,0,0,0,0,0,0,0,0,0,0,0,0,0,0,0,0,0,0,0,0,0,0],"sum_hessian":[1.1127687E2,5.1346302E1,5.993057E1,2.3111504E1,2.82348E1,5.3715855E1,6.214717E0,1.3872701E1,9.238802E0,9.862832E0,1.837197E1,4.581485E1,7.901002E0,1.292514E0,4.922203E0,1.7237452E0,1.2148955E1,1.6150753E0,7.623727E0,2.0739512E0,7.7888803E0,1.1010252E0,1.7270943E1,8.586002E0,3.7228848E1,6.6190863E0,1.2819157E0,3.9089382E0,1.0132648E0],"tree_param":{"num_deleted":"0","num_feature":"13","num_nodes":"29","size_leaf_vector":"1"}},{"base_weights":[-0E0,2.8798947E-1,-4.2393142E-1,7.1763724E-1,-7.2547495E-2,5.4737326E-2,-7.366942E-1,-1.8223171E-1,8.5515624E-1,2.4284256E-1,-3.7571374E-1,6.6253334E-1,-3.3258465E-1,-1.1325061E-1,-0E0,-4.9502444E-2,2.4014872E-3,-0E0,9.3571804E-2,-2.2929065E-2,1.2212161E-1,2.06148E-3,-1.0217645E-1,-0E0,8.160906E-2,5.9441555E-2,-7.119826E-2,-7.53813E-2,3.036624E-2],"categories":[],"categories_nodes":[],"categories_segments":[],"categories_sizes":[],"default_left":[0,0,0,0,0,0,0,0,0,0,0,0,0,0,0,0,0,0,0,0,0,0,0,0,0,0,0,0,0],"id":18,"left_children":[1,3,5,7,9,11,13,15,17,19,21,23,25,-1,27,-1,-1,-1,-1,-1,-1,-1,-1,-1,-1,-1,-1,-1,-1],"loss_changes":[1.3826094E1,1.0960819E1,7.1771984E0,4.44067E0,3.736975E0,4.6787963E0,8.108451E0,5.4233944E-1,2.302414E0,9.158172E0,5.7163343E0,1.0669298E0,4.457193E0,0E0,2.7688172E0,0E0,0E0,0E0,0E0,0E0,0E0,0E0,0E0,0E0,0E0,0E0,0E0,0E0,0E0],"parents":[2147483647,0,0,1,1,2,2,3,3,4,4,5,5,6,6,7,7,8,8,9,9,10,10,11,11,12,12,14,14],"right_children":[2,4,6,8,10,12,14,16,18,20,22,24,26,-1,28,-1,-1,-1,-1,-1,-1,-1,-1,-1,-1,-1,-1,-1,-1],"split_conditions":[3E0,5.5E1,7E-1,1.27E2,1E0,2.28E2,2E0,5E1,2E0,6.4E1,2.46E2,4.4E1,1.22E2,-1.1325061E-1,2.31E2,-4.9502444E-2,2.4014872E-3,-0E0,9.3571804E-2,-2.2929065E-2,1.2212161E-1,2.06148E-3,-1.0217645E-1,-0E0,8.160906E-2,5.9441555E-2,-7.119826E-2,-7.53813E-2,3.036624E-2],"split_indices":[12,0,9,7,1,4,2,0,12,0,4,0,3,0,4,0,0,0,0,0,0,0,0,0,0,0,0,0,0],"split_type":[0,0,0,0,0,0,0,0,0,0,0,0,0,0,0,0,0,0,0,0,0,0,0,0,0,0,0,0,0],"sum_hessian":[1.117343E2,6.7340515E1,4.4393787E1,3.0906246E1,3.6434265E1,1.7238068E1,2.7155718E1,3.5719364E0,2.7334309E1,1.7146318E1,1.9287949E1,6.9353294E0,1.0302738E1,1.72361E1,9.919619E0,1.8263006E0,1.7456357E0,2.0392988E0,2.5295012E1,1.1736993E1,5.4093256E0,1.2074712E1,7.213236E0,1.1033173E0,5.832012E0,2.4447527E0,7.8579855E0,2.5076008E0,7.4120183E0],"tree_param":{"num_deleted":"0","num_feature":"13","num_nodes":"29","size_leaf_vector":"1"}},{"base_weights":[-3.2989495E-2,2.6540345E-1,-4.3420896E-1,5.4382336E-1,-1.9736668E-1,-7.617553E-1,-2.2617161E-2,7.641972E-1,-1.163018E-1,-5.666322E-1,2.64545E-1,-1.01795636E-1,-6.1146095E-2,-4.285608E-1,3.1426576E-1,3.8013637E-2,1.070807E-1,-4.2681184E-2,6.525675E-2,-9.835183E-2,-5.417707E-5,5.6762367E-2,-2.977756E-2,3.565899E-2,-9.124851E-2,-0E0,-9.3066774E-2,-8.014963E-2,6.729383E-2],"categories":[],"categories_nodes":[],"categories_segments":[],"categories_sizes":[],"default_left":[0,0,0,0,0,0,0,0,0,0,0,0,0,0,0,0,0,0,0,0,0,0,0,0,0,0,0,0,0],"id":19,"left_children":[1,3,5,7,9,11,13,15,17,19,21,-1,23,25,27,-1,-1,-1,-1,-1,-1,-1,-1,-1,-1,-1,-1,-1,-1],"loss_changes":[1.28286E1,8.062922E0,5.80359E0,6.0358486E0,4.181057E0,3.877674E0,3.2181716E0,2.3623562E0,2.5469143E0,2.7079387E0,2.04E0,0E0,3.54399E0,2.4064314E0,5.2763233E0,0E0,0E0,0E0,0E0,0E0,0E0,0E0,0E0,0E0,0E0,0E0,0E0,0E0,0E0],"parents":[2147483647,0,0,1,1,2,2,3,3,4,4,5,5,6,6,7,7,8,8,9,9,10,10,12,12,13,13,14,14],"right_children":[2,4,6,8,10,12,14,16,18,20,22,-1,24,26,28,-1,-1,-1,-1,-1,-1,-1,-1,-1,-1,-1,-1,-1,-1],"split_conditions":[1E0,3E0,1E0,2.73E2,2E0,2E0,1E0,1.57E2,3.4E2,2E0,1E0,-1.01795636E-1,3E0,1.48E2,1.4E2,3.8013637E-2,1.070807E-1,-4.2681184E-2,6.525675E-2,-9.835183E-2,-5.417707E-5,5.6762367E-2,-2.977756E-2,3.565899E-2,-9.124851E-2,-0E0,-9.3066774E-2,-8.014963E-2,6.729383E-2],"split_indices":[11,12,6,4,2,2,2,7,4,10,8,0,12,7,7,0,0,0,0,0,0,0,0,0,0,0,0,0,0],"split_type":[0,0,0,0,0,0,0,0,0,0,0,0,0,0,0,0,0,0,0,0,0,0,0,0,0,0,0,0,0],"sum_hessian":[1.0448651E2,5.940123E1,4.508528E1,3.7653046E1,2.1748184E1,2.3955696E1,2.1129585E1,2.8678797E1,8.974248E0,1.2561725E1,9.186459E0,1.6686937E1,7.2687573E0,1.0132269E1,1.0997316E1,1.444965E1,1.4229147E1,7.172716E0,1.8015321E0,6.300908E0,6.260817E0,6.5408325E0,2.6456258E0,4.871994E0,2.3967633E0,5.9933534E0,4.1389155E0,2.0357714E0,8.961545E0],"tree_param":{"num_deleted":"0","num_feature":"13","num_nodes":"29","size_leaf_vector":"1"}},{"base_weights":[4.9769212E-3,2.916621E-1,-3.8732684E-1,5.542095E-1,-1.7239875E-1,5.318882E-3,-7.112858E-1,6.886053E-1,-3.95887E-1,3.4854436E-1,-6.4058E-1,-3.2165834E-1,6.233101E-1,-8.4536564E-1,2.780176E-2,3.2240868E-2,9.8111115E-2,-1.2764846E-1,6.428491E-2,9.4685644E-2,-3.2421563E-2,-9.1700286E-2,2.166151E-2,-7.2393045E-2,7.3286474E-2,1.0172474E-1,-0E0,-9.3638584E-2,-0E0,7.616662E-2,-3.2054536E-2],"categories":[],"categories_nodes":[],"categories_segments":[],"categories_sizes":[],"default_left":[0,0,0,0,0,0,0,0,0,0,0,0,0,0,0,0,0,0,0,0,0,0,0,0,0,0,0,0,0,0,0],"id":20,"left_children":[1,3,5,7,9,11,13,15,17,19,21,23,25,27,29,-1,-1,-1,-1,-1,-1,-1,-1,-1,-1,-1,-1,-1,-1,-1,-1],"loss_changes":[1.1926637E1,7.869952E0,5.9820266E0,5.613057E0,5.8727646E0,4.450715E0,2.9033842E0,2.9376163E0,5.9075117E0,4.9746766E0,3.5680575E0,6.209522E0,2.2927709E0,1.9505987E0,1.5446923E0,0E0,0E0,0E0,0E0,0E0,0E0,0E0,0E0,0E0,0E0,0E0,0E0,0E0,0E0,0E0,0E0],"parents":[2147483647,0,0,1,1,2,2,3,3,4,4,5,5,6,6,7,7,8,8,9,9,10,10,11,11,12,12,13,13,14,14],"right_children":[2,4,6,8,10,12,14,16,18,20,22,24,26,28,30,-1,-1,-1,-1,-1,-1,-1,-1,-1,-1,-1,-1,-1,-1,-1,-1],"split_conditions":[1E0,3E0,6E-1,3.26E2,7E-1,1E-1,3E2,2E0,3.4E2,2.41E2,3E0,2E0,1.5E2,6.8E1,3.18E2,3.2240868E-2,9.8111115E-2,-1.2764846E-1,6.428491E-2,9.4685644E-2,-3.2421563E-2,-9.1700286E-2,2.166151E-2,-7.2393045E-2,7.3286474E-2,1.0172474E-1,-0E0,-9.3638584E-2,-0E0,7.616662E-2,-3.2054536E-2],"split_indices":[11,12,9,4,9,9,4,10,4,4,2,2,7,0,4,0,0,0,0,0,0,0,0,0,0,0,0,0,0,0,0],"split_type":[0,0,0,0,0,0,0,0,0,0,0,0,0,0,0,0,0,0,0,0,0,0,0,0,0,0,0,0,0,0,0],"sum_hessian":[1.04465866E2,6.124252E1,4.3223347E1,3.967765E1,2.1564867E1,1.9287107E1,2.393624E1,3.5462757E1,4.214893E0,9.822732E0,1.1742136E1,1.239787E1,6.8892374E0,2.0711607E1,3.2246335E0,1.7440315E1,1.8022442E1,2.4177208E0,1.7971722E0,5.376756E0,4.445976E0,9.267226E0,2.4749103E0,9.544535E0,2.853335E0,4.177718E0,2.7115192E0,1.8920485E1,1.7911217E0,1.1180556E0,2.1065779E0],"tree_param":{"num_deleted":"0","num_feature":"13","num_nodes":"31","size_leaf_vector":"1"}},{"base_weights":[-1.4291013E-2,-3.698315E-1,2.6504642E-1,-0E0,-6.792961E-1,5.744526E-1,-1.04695995E-4,3.7335283E-1,-5.472085E-1,-8.630874E-1,-1.6167139E-1,-4.207901E-2,8.0283004E-1,-3.8112313E-1,2.8228778E-1,-8.761678E-2,6.453511E-2,-0E0,-8.4168404E-2,-0E0,-9.93266E-2,1.9278077E-2,-6.597984E-2,-5.3878378E-2,6.4978935E-2,9.170969E-2,-0E0,-8.541935E-2,2.5213739E-2,-2.4218701E-3,7.178137E-2],"categories":[],"categories_nodes":[],"categories_segments":[],"categories_sizes":[],"default_left":[0,0,0,0,0,0,0,0,0,0,0,0,0,0,0,0,0,0,0,0,0,0,0,0,0,0,0,0,0,0,0],"id":21,"left_children":[1,3,5,7,9,11,13,15,17,19,21,23,25,27,29,-1,-1,-1,-1,-1,-1,-1,-1,-1,-1,-1,-1,-1,-1,-1,-1],"loss_changes":[1.0293841E1,5.3637342E0,4.962734E0,4.6453648E0,1.755065E0,4.23989E0,3.4731247E0,5.109607E0,1.5103729E0,2.3360605E0,1.874348E0,2.9416595E0,1.6640034E0,4.799816E0,2.703177E0,0E0,0E0,0E0,0E0,0E0,0E0,0E0,0E0,0E0,0E0,0E0,0E0,0E0,0E0,0E0,0E0],"parents":[2147483647,0,0,1,1,2,2,3,3,4,4,5,5,6,6,7,7,8,8,9,9,10,10,11,11,12,12,13,13,14,14],"right_children":[2,4,6,8,10,12,14,16,18,20,22,24,26,28,30,-1,-1,-1,-1,-1,-1,-1,-1,-1,-1,-1,-1,-1,-1,-1,-1],"split_conditions":[1E0,1E0,5.7E1,3E0,1.48E2,1.2E2,6E1,1.11E2,1.22E2,1.06E2,3E0,5E1,1.81E2,1.38E2,2E0,-8.761678E-2,6.453511E-2,-0E0,-8.4168404E-2,-0E0,-9.93266E-2,1.9278077E-2,-6.597984E-2,-5.3878378E-2,6.4978935E-2,9.170969E-2,-0E0,-8.541935E-2,2.5213739E-2,-2.4218701E-3,7.178137E-2],"split_indices":[2,8,0,12,7,3,0,7,3,7,12,0,7,3,10,0,0,0,0,0,0,0,0,0,0,0,0,0,0,0,0],"split_type":[0,0,0,0,0,0,0,0,0,0,0,0,0,0,0,0,0,0,0,0,0,0,0,0,0,0,0,0,0,0,0],"sum_hessian":[1.01133095E2,4.5142166E1,5.599093E1,2.0841448E1,2.4300718E1,2.617103E1,2.9819897E1,1.27099905E1,8.131456E0,1.6727861E1,7.5728583E0,6.7027E0,1.946833E1,1.329822E1,1.6521677E1,1.5464326E0,1.1163558E1,3.1398158E0,4.99164E0,1.9745144E0,1.4753346E1,4.196199E0,3.3766599E0,4.451111E0,2.2515893E0,1.666397E1,2.804359E0,7.864107E0,5.4341125E0,9.577649E0,6.944029E0],"tree_param":{"num_deleted":"0","num_feature":"13","num_nodes":"31","size_leaf_vector":"1"}},{"base_weights":[1.1234908E-2,-3.0818242E-1,2.792231E-1,1.8896238E-3,-6.071299E-1,5.6184673E-1,-0E0,-8.841523E-2,1.6303766E-1,-0E0,-7.3429996E-1,-0E0,7.583036E-1,-3.6622208E-1,2.9426575E-1,5.67602E-2,-3.6454428E-2,-4.324927E-2,3.0395342E-2,-9.903359E-2,-2.039749E-2,4.4820845E-2,-6.082647E-2,8.762965E-2,-0E0,1.34614585E-2,-8.325323E-2,7.412561E-2,-0E0],"categories":[],"categories_nodes":[],"categories_segments":[],"categories_sizes":[],"default_left":[0,0,0,0,0,0,0,0,0,0,0,0,0,0,0,0,0,0,0,0,0,0,0,0,0,0,0,0,0],"id":22,"left_children":[1,3,5,7,9,11,13,-1,15,17,19,21,23,25,27,-1,-1,-1,-1,-1,-1,-1,-1,-1,-1,-1,-1,-1,-1],"loss_changes":[8.459527E0,4.412902E0,4.397845E0,2.9156704E0,1.8763685E0,3.389618E0,3.1606648E0,0E0,4.5520644E0,7.66119E-1,1.8448477E0,2.3876598E0,1.9448347E0,3.5553513E0,2.1876101E0,0E0,0E0,0E0,0E0,0E0,0E0,0E0,0E0,0E0,0E0,0E0,0E0,0E0,0E0],"parents":[2147483647,0,0,1,1,2,2,3,3,4,4,5,5,6,6,8,8,9,9,10,10,11,11,12,12,13,13,14,14],"right_children":[2,4,6,8,10,12,14,-1,16,18,20,22,24,26,28,-1,-1,-1,-1,-1,-1,-1,-1,-1,-1,-1,-1,-1,-1],"split_conditions":[1E0,1E0,5.7E1,1.15E2,1.12E2,1.2E2,6E1,-8.841523E-2,3E0,1.25E2,1.48E2,2.28E2,1.5E2,1E0,1E0,5.67602E-2,-3.6454428E-2,-4.324927E-2,3.0395342E-2,-9.903359E-2,-2.039749E-2,4.4820845E-2,-6.082647E-2,8.762965E-2,-0E0,1.34614585E-2,-8.325323E-2,7.412561E-2,-0E0],"split_indices":[2,8,0,7,7,3,0,0,12,3,7,4,3,11,1,0,0,0,0,0,0,0,0,0,0,0,0,0,0],"split_type":[0,0,0,0,0,0,0,0,0,0,0,0,0,0,0,0,0,0,0,0,0,0,0,0,0,0,0,0,0],"sum_hessian":[9.699003E1,4.3329502E1,5.3660522E1,2.093579E1,2.2393715E1,2.6431925E1,2.72286E1,2.0538363E0,1.8881952E1,3.9213154E0,1.8472399E1,6.4778504E0,1.9954075E1,1.2249344E1,1.4979256E1,1.1180388E1,7.701564E0,1.314148E0,2.6071675E0,1.1237035E1,7.2353644E0,3.429611E0,3.0482395E0,1.722375E1,2.7303255E0,5.732004E0,6.51734E0,5.4996314E0,9.479624E0],"tree_param":{"num_deleted":"0","num_feature":"13","num_nodes":"29","size_leaf_vector":"1"}},{"base_weights":[7.0079393E-3,2.8943056E-1,-2.6811427E-1,4.112003E-1,-3.0460772E-1,-6.323731E-1,1.721816E-1,6.2561107E-1,7.6266676E-2,-9.135486E-1,5.5900097E-1,-1.5454715E-1,-1.0568708E-1,-4.1269106E-1,3.6477226E-1,7.9133354E-2,5.8810897E-3,-2.1951606E-2,4.4815343E-2,-0E0,-1.0439016E-1,6.756192E-2,-0E0,-9.0549074E-2,5.7476177E-3,-7.489604E-2,-0E0,7.568946E-2,-3.042917E-2],"categories":[],"categories_nodes":[],"categories_segments":[],"categories_sizes":[],"default_left":[0,0,0,0,0,0,0,0,0,0,0,0,0,0,0,0,0,0,0,0,0,0,0,0,0,0,0,0,0],"id":23,"left_children":[1,3,5,7,9,11,13,15,17,19,21,23,-1,25,27,-1,-1,-1,-1,-1,-1,-1,-1,-1,-1,-1,-1,-1,-1],"loss_changes":[7.553414E0,3.7075696E0,8.083679E0,2.589594E0,4.987215E0,4.7606573E0,2.6077518E0,1.8129225E0,2.2245545E0,2.6176834E-1,4.3825626E-2,2.7927885E0,0E0,8.0816144E-1,5.1120205E0,0E0,0E0,0E0,0E0,0E0,0E0,0E0,0E0,0E0,0E0,0E0,0E0,0E0,0E0],"parents":[2147483647,0,0,1,1,2,2,3,3,4,4,5,5,6,6,7,7,8,8,9,9,10,10,11,11,13,13,14,14],"right_children":[2,4,6,8,10,12,14,16,18,20,22,24,-1,26,28,-1,-1,-1,-1,-1,-1,-1,-1,-1,-1,-1,-1,-1,-1],"split_conditions":[8E-1,1.52E2,2E0,5.7E1,6E1,3E0,9E-1,1E0,2E-1,5.3E1,1E0,1.2E2,-1.0568708E-1,1.51E2,2E0,7.9133354E-2,5.8810897E-3,-2.1951606E-2,4.4815343E-2,-0E0,-1.0439016E-1,6.756192E-2,-0E0,-9.0549074E-2,5.7476177E-3,-7.489604E-2,-0E0,7.568946E-2,-3.042917E-2],"split_indices":[9,3,2,0,0,12,9,11,9,0,6,7,0,7,9,0,0,0,0,0,0,0,0,0,0,0,0,0,0],"split_type":[0,0,0,0,0,0,0,0,0,0,0,0,0,0,0,0,0,0,0,0,0,0,0,0,0,0,0,0,0],"sum_hessian":[9.507574E1,4.778654E1,4.7289196E1,4.0611267E1,7.175273E0,2.6261932E1,2.1027264E1,2.3321259E1,1.729001E1,4.513728E0,2.6615448E0,1.3550764E1,1.2711167E1,4.2825866E0,1.6744677E1,1.7056072E1,6.2651863E0,9.109741E0,8.180268E0,1.0508205E0,3.4629076E0,1.602615E0,1.0589297E0,2.7826614E0,1.0768103E1,2.044629E0,2.2379575E0,1.09457035E1,5.798974E0],"tree_param":{"num_deleted":"0","num_feature":"13","num_nodes":"29","size_leaf_vector":"1"}},{"base_weights":[-0E0,-2.4994983E-1,3.074558E-1,1.6091245E-1,-4.6319947E-1,8.160615E-1,8.555927E-2,4.1970456E-1,-4.125632E-1,-7.210686E-1,-5.2875243E-2,1.0964494E-1,-0E0,3.6288172E-1,-3.0411327E-1,7.0985E-2,-0E0,-9.3379706E-2,2.6148407E-2,-1.3831066E-2,-9.298347E-2,9.993295E-2,-3.896783E-2,-5.0321467E-2,6.430091E-2,8.934951E-2,-3.0240117E-2,-6.747555E-2,1.7608482E-2],"categories":[],"categories_nodes":[],"categories_segments":[],"categories_sizes":[],"default_left":[0,0,0,0,0,0,0,0,0,0,0,0,0,0,0,0,0,0,0,0,0,0,0,0,0,0,0,0,0],"id":24,"left_children":[1,3,5,7,9,11,13,15,17,19,21,-1,23,25,27,-1,-1,-1,-1,-1,-1,-1,-1,-1,-1,-1,-1,-1,-1],"loss_changes":[7.305917E0,4.844885E0,4.2694945E0,2.8414407E0,3.359292E0,2.4718552E0,3.5278769E0,1.7115192E0,2.5079668E0,1.9086962E0,5.6237125E0,0E0,1.7645376E0,7.457348E0,2.651698E0,0E0,0E0,0E0,0E0,0E0,0E0,0E0,0E0,0E0,0E0,0E0,0E0,0E0,0E0],"parents":[2147483647,0,0,1,1,2,2,3,3,4,4,5,5,6,6,7,7,8,8,9,9,10,10,12,12,13,13,14,14],"right_children":[2,4,6,8,10,12,14,16,18,20,22,-1,24,26,28,-1,-1,-1,-1,-1,-1,-1,-1,-1,-1,-1,-1,-1,-1],"split_conditions":[2E0,7E-1,1E0,1.4E2,2E0,3.19E2,2.4E2,1E0,6E1,1E0,1E0,1.0964494E-1,1E0,1E0,1.62E2,7.0985E-2,-0E0,-9.3379706E-2,2.6148407E-2,-1.3831066E-2,-9.298347E-2,9.993295E-2,-3.896783E-2,-5.0321467E-2,6.430091E-2,8.934951E-2,-3.0240117E-2,-6.747555E-2,1.7608482E-2],"split_indices":[10,9,1,3,2,4,4,11,0,1,10,0,6,11,7,0,0,0,0,0,0,0,0,0,0,0,0,0,0],"split_type":[0,0,0,0,0,0,0,0,0,0,0,0,0,0,0,0,0,0,0,0,0,0,0,0,0,0,0,0,0],"sum_hessian":[9.31648E1,5.1720905E1,4.14439E1,1.6954975E1,3.476593E1,1.1091127E1,3.0352774E1,1.2468387E1,4.4865885E0,2.0135727E1,1.4630203E1,7.7539573E0,3.3371694E0,1.8522528E1,1.1830246E1,7.1049967E0,5.3633904E0,2.731092E0,1.7554961E0,6.381024E0,1.37547035E1,2.7105465E0,1.1919657E1,1.7595105E0,1.5776589E0,1.0531439E1,7.991088E0,7.035755E0,4.794491E0],"tree_param":{"num_deleted":"0","num_feature":"13","num_nodes":"29","size_leaf_vector":"1"}},{"base_weights":[-6.2302225E-3,2.1789019E-1,-3.44918E-1,4.6908087E-1,-1.9332369E-1,-7.3516136E-1,-0E0,6.681283E-1,-3.0120958E-2,-6.988107E-1,1.2761985E-1,1.3329921E-3,-8.517146E-1,1.6260189E-1,-7.983028E-2,1.0117246E-1,3.164921E-2,-3.0929629E-2,6.2146463E-2,-0E0,-9.044964E-2,-2.6835132E-2,6.373488E-2,-9.514049E-2,-3.0989873E-3,-1.5590486E-2,5.2380897E-2],"categories":[],"categories_nodes":[],"categories_segments":[],"categories_sizes":[],"default_left":[0,0,0,0,0,0,0,0,0,0,0,0,0,0,0,0,0,0,0,0,0,0,0,0,0,0,0],"id":25,"left_children":[1,3,5,7,9,11,13,15,17,19,21,-1,23,25,-1,-1,-1,-1,-1,-1,-1,-1,-1,-1,-1,-1,-1],"loss_changes":[7.010074E0,5.827077E0,5.079152E0,3.7864566E0,3.7016249E0,1.9671459E0,2.7703114E0,2.1042175E0,1.8789881E0,1.1416774E0,2.9357202E0,0E0,7.748194E-1,2.3496623E0,0E0,0E0,0E0,0E0,0E0,0E0,0E0,0E0,0E0,0E0,0E0,0E0,0E0],"parents":[2147483647,0,0,1,1,2,2,3,3,4,4,5,5,6,6,7,7,8,8,9,9,10,10,12,12,13,13],"right_children":[2,4,6,8,10,12,14,16,18,20,22,-1,24,26,-1,-1,-1,-1,-1,-1,-1,-1,-1,-1,-1,-1,-1],"split_conditions":[1E0,3E0,1E0,2.73E2,5.2E1,1.06E2,2E0,1E0,3.4E2,2.12E2,1.51E2,1.3329921E-3,3.02E2,1E0,-7.983028E-2,1.0117246E-1,3.164921E-2,-3.0929629E-2,6.2146463E-2,-0E0,-9.044964E-2,-2.6835132E-2,6.373488E-2,-9.514049E-2,-3.0989873E-3,-1.5590486E-2,5.2380897E-2],"split_indices":[11,12,2,4,0,7,9,6,4,4,7,0,4,6,0,0,0,0,0,0,0,0,0,0,0,0,0],"split_type":[0,0,0,0,0,0,0,0,0,0,0,0,0,0,0,0,0,0,0,0,0,0,0,0,0,0,0],"sum_hessian":[8.95242E1,5.320027E1,3.6323925E1,3.3693645E1,1.9506628E1,1.6613667E1,1.9710258E1,2.4562864E1,9.130779E0,7.7231646E0,1.17834635E1,1.7797928E0,1.4833874E1,1.7114756E1,2.5955029E0,1.0754827E1,1.3808038E1,7.2970123E0,1.8337673E0,2.120762E0,5.6024027E0,6.346196E0,5.4372673E0,1.2542002E1,2.2918715E0,8.6614E0,8.453356E0],"tree_param":{"num_deleted":"0","num_feature":"13","num_nodes":"27","size_leaf_vector":"1"}},{"base_weights":[4.854005E-3,-3.0706504E-1,2.627375E-1,4.09328E-3,-5.9803754E-1,5.458381E-1,-0E0,3.2256946E-1,-4.559112E-1,-7.6296395E-1,-1.6187923E-1,-0E0,7.511076E-1,7.490969E-2,-1.3196136E-1,-7.19227E-2,5.513389E-2,1.6627809E-2,-7.324209E-2,-1.2416339E-4,-9.712097E-2,4.0359773E-2,-4.810461E-2,4.1874714E-2,-5.0603E-2,8.5891895E-2,-0E0,-5.6422938E-2,1.861636E-2],"categories":[],"categories_nodes":[],"categories_segments":[],"categories_sizes":[],"default_left":[0,0,0,0,0,0,0,0,0,0,0,0,0,0,0,0,0,0,0,0,0,0,0,0,0,0,0,0,0],"id":26,"left_children":[1,3,5,7,9,11,13,15,17,19,21,23,25,-1,27,-1,-1,-1,-1,-1,-1,-1,-1,-1,-1,-1,-1,-1,-1],"loss_changes":[7.1090045E0,3.8533075E0,3.8701134E0,2.883129E0,9.334259E-1,2.9255724E0,2.4438815E0,3.299498E0,1.7121425E0,1.7690201E0,1.6580439E0,1.7900901E0,1.397275E0,0E0,3.5025392E0,0E0,0E0,0E0,0E0,0E0,0E0,0E0,0E0,0E0,0E0,0E0,0E0,0E0,0E0],"parents":[2147483647,0,0,1,1,2,2,3,3,4,4,5,5,6,6,7,7,8,8,9,9,10,10,11,11,12,12,14,14],"right_children":[2,4,6,8,10,12,14,16,18,20,22,24,26,-1,28,-1,-1,-1,-1,-1,-1,-1,-1,-1,-1,-1,-1,-1,-1],"split_conditions":[1E0,1E0,5.7E1,3E0,1.48E2,1.2E2,1.2E2,1.11E2,1.12E2,1.12E2,1.53E2,2.28E2,1.5E2,7.490969E-2,1.4E2,-7.19227E-2,5.513389E-2,1.6627809E-2,-7.324209E-2,-1.2416339E-4,-9.712097E-2,4.0359773E-2,-4.810461E-2,4.1874714E-2,-5.0603E-2,8.5891895E-2,-0E0,-5.6422938E-2,1.861636E-2],"split_indices":[2,8,0,12,7,3,3,7,3,7,7,4,3,0,3,0,0,0,0,0,0,0,0,0,0,0,0,0,0],"split_type":[0,0,0,0,0,0,0,0,0,0,0,0,0,0,0,0,0,0,0,0,0,0,0,0,0,0,0,0,0],"sum_hessian":[8.66504E1,3.825277E1,4.8397625E1,1.8131248E1,2.0121521E1,2.3434784E1,2.4962843E1,1.153258E1,6.5986686E0,1.3225031E1,6.896491E0,6.344869E0,1.7089914E1,2.6311176E0,2.2331726E1,1.2969375E0,1.0235643E1,1.596561E0,5.0021076E0,3.570782E0,9.654249E0,1.8275158E0,5.068975E0,3.2958658E0,3.0490034E0,1.472763E1,2.362285E0,9.805762E0,1.2525963E1],"tree_param":{"num_deleted":"0","num_feature":"13","num_nodes":"29","size_leaf_vector":"1"}},{"base_weights":[-2.2577882E-2,1.4490908E-1,-4.193001E-1,6.17956E-1,-4.0409256E-2,-6.184167E-1,5.8709655E-2,-2.1534195E-2,7.131052E-1,-9.775689E-2,4.6569213E-2,1.1466839E-3,-7.0850205E-1,-1.6538936E-1,6.643223E-2,9.280594E-2,-0E0,-6.2905955E-3,5.7374503E-2,-2.00245E-2,-8.4846966E-2,2.1474835E-2,-6.555708E-2],"categories":[],"categories_nodes":[],"categories_segments":[],"categories_sizes":[],"default_left":[0,0,0,0,0,0,0,0,0,0,0,0,0,0,0,0,0,0,0,0,0,0,0],"id":27,"left_children":[1,3,5,7,9,11,13,-1,15,-1,17,-1,19,21,-1,-1,-1,-1,-1,-1,-1,-1,-1],"loss_changes":[6.000458E0,5.6841106E0,2.8923163E0,1.8347454E0,4.1135583E0,1.4876614E0,1.4632634E0,0E0,2.4518795E0,0E0,2.6524665E0,0E0,5.9682465E-1,1.5043904E0,0E0,0E0,0E0,0E0,0E0,0E0,0E0,0E0,0E0],"parents":[2147483647,0,0,1,1,2,2,3,3,4,4,5,5,6,6,8,8,10,10,12,12,13,13],"right_children":[2,4,6,8,10,12,14,-1,16,-1,18,-1,20,22,-1,-1,-1,-1,-1,-1,-1,-1,-1],"split_conditions":[1E0,1E0,2E0,1.15E2,1.29E2,1.06E2,1E0,-2.1534195E-2,1.69E2,-9.775689E-2,1E0,1.1466839E-3,5.2E1,1E0,6.643223E-2,9.280594E-2,-0E0,-6.2905955E-3,5.7374503E-2,-2.00245E-2,-8.4846966E-2,2.1474835E-2,-6.555708E-2],"split_indices":[8,1,10,7,7,7,2,0,7,0,5,0,0,11,0,0,0,0,0,0,0,0,0],"split_type":[0,0,0,0,0,0,0,0,0,0,0,0,0,0,0,0,0,0,0,0,0,0,0],"sum_hessian":[8.6326836E1,6.0260605E1,2.606623E1,1.7064629E1,4.3195976E1,1.893222E1,7.134011E0,1.0808301E0,1.5983798E1,3.2871833E0,3.9908794E1,1.7835966E0,1.7148624E1,5.135122E0,1.9988891E0,1.1874191E1,4.109607E0,3.2990166E1,6.9186296E0,4.9989824E0,1.2149641E1,2.6341765E0,2.5009453E0],"tree_param":{"num_deleted":"0","num_feature":"13","num_nodes":"23","size_leaf_vector":"1"}},{"base_weights":[-4.524235E-3,3.7460372E-1,-1.5046233E-1,5.3437907E-1,-5.568297E-2,-1.3501165E-4,-7.1659327E-1,6.848994E-1,-0E0,2.5794807E-1,-2.845824E-1,-0E0,-8.212001E-1,9.451255E-2,-7.1223686E-3,-6.5139286E-2,6.061864E-2,6.148393E-2,-4.751084E-3,-6.1254896E-2,-8.408345E-4,-1.05901575E-2,-1.0104022E-1],"categories":[],"categories_nodes":[],"categories_segments":[],"categories_sizes":[],"default_left":[0,0,0,0,0,0,0,0,0,0,0,0,0,0,0,0,0,0,0,0,0,0,0],"id":28,"left_children":[1,3,5,7,-1,9,11,13,15,17,19,-1,21,-1,-1,-1,-1,-1,-1,-1,-1,-1,-1],"loss_changes":[4.608526E0,3.674184E0,4.9635696E0,1.856533E0,0E0,3.8389032E0,9.9469376E-1,3.7265444E0,2.3927333E0,3.1909733E0,2.0131772E0,0E0,8.146939E-1,0E0,0E0,0E0,0E0,0E0,0E0,0E0,0E0,0E0,0E0],"parents":[2147483647,0,0,1,1,2,2,3,3,5,5,6,6,7,7,8,8,9,9,10,10,12,12],"right_children":[2,4,6,8,-1,10,12,14,16,18,20,-1,22,-1,-1,-1,-1,-1,-1,-1,-1,-1,-1],"split_conditions":[1E0,3E0,2.78E2,3.19E2,-5.568297E-2,7E-1,1.17E2,1E0,3.35E2,2.28E2,1.3E0,-0E0,5.3E1,9.451255E-2,-7.1223686E-3,-6.5139286E-2,6.061864E-2,6.148393E-2,-4.751084E-3,-6.1254896E-2,-8.408345E-4,-1.05901575E-2,-1.0104022E-1],"split_indices":[1,12,4,4,0,9,3,8,4,4,9,0,0,0,0,0,0,0,0,0,0,0,0],"split_type":[0,0,0,0,0,0,0,0,0,0,0,0,0,0,0,0,0,0,0,0,0,0,0],"sum_hessian":[8.329965E1,2.1764744E1,6.1534912E1,1.9400013E1,2.3647308E0,5.0111897E1,1.1423014E1,1.5376445E1,4.023567E0,2.5400782E1,2.4711117E1,1.4883806E0,9.934633E0,1.1745454E1,3.6309912E0,2.1539023E0,1.8696649E0,1.2001982E1,1.33988E1,9.911922E0,1.4799194E1,2.9571648E0,6.977469E0],"tree_param":{"num_deleted":"0","num_feature":"13","num_nodes":"23","size_leaf_vector":"1"}},{"base_weights":[-3.2349087E-2,-2.6652682E-1,2.4533091E-1,8.887968E-2,-4.4849762E-1,3.389365E-1,-4.4311136E-1,2.9057395E-1,-2.8612489E-1,-6.9644976E-1,-6.891613E-2,4.9837705E-1,-2.2792096E-1,-1.17305756E-1,4.616021E-2,6.4957745E-2,-1.4027518E-2,-8.134094E-2,2.67959E-2,2.3788305E-2,-8.002975E-2,9.435009E-2,-3.959557E-2,8.1602655E-2,-0E0,-5.4480113E-2,4.2882226E-2],"categories":[],"categories_nodes":[],"categories_segments":[],"categories_sizes":[],"default_left":[0,0,0,0,0,0,0,0,0,0,0,0,0,0,0,0,0,0,0,0,0,0,0,0,0,0,0],"id":29,"left_children":[1,3,5,7,9,11,13,15,17,19,21,23,25,-1,-1,-1,-1,-1,-1,-1,-1,-1,-1,-1,-1,-1,-1],"loss_changes":[5.557717E0,3.2715163E0,2.5540876E0,1.2867308E0,2.6098003E0,3.3900547E0,3.7737064E0,2.1541746E0,2.0075574E0,2.2796078E0,4.957379E0,4.666082E0,1.8789717E0,0E0,0E0,0E0,0E0,0E0,0E0,0E0,0E0,0E0,0E0,0E0,0E0,0E0,0E0],"parents":[2147483647,0,0,1,1,2,2,3,3,4,4,5,5,6,6,7,7,8,8,9,9,10,10,11,11,12,12],"right_children":[2,4,6,8,10,12,14,16,18,20,22,24,26,-1,-1,-1,-1,-1,-1,-1,-1,-1,-1,-1,-1,-1,-1],"split_conditions":[2E0,7E-1,3.26E2,1.4E2,2E0,2E0,3.4E2,1E0,6E1,1.05E2,1E0,3E0,1.38E2,-1.17305756E-1,4.616021E-2,6.4957745E-2,-1.4027518E-2,-8.134094E-2,2.67959E-2,2.3788305E-2,-8.002975E-2,9.435009E-2,-3.959557E-2,8.1602655E-2,-0E0,-5.4480113E-2,4.2882226E-2],"split_indices":[10,9,4,3,2,11,4,11,0,3,10,12,3,0,0,0,0,0,0,0,0,0,0,0,0,0,0],"split_type":[0,0,0,0,0,0,0,0,0,0,0,0,0,0,0,0,0,0,0,0,0,0,0,0,0,0,0],"sum_hessian":[8.33E1,4.6188416E1,3.7111584E1,1.4883461E1,3.1304955E1,3.3755848E1,3.355735E0,1.0691536E1,4.191925E0,1.7633976E1,1.3670978E1,2.7128305E1,6.627543E0,1.9989696E0,1.3567656E0,6.1881304E0,4.5034056E0,2.3704712E0,1.8214537E0,1.1531839E0,1.6480793E1,2.5043657E0,1.1166612E1,1.6499018E1,1.0629289E1,5.0990314E0,1.5285118E0],"tree_param":{"num_deleted":"0","num_feature":"13","num_nodes":"27","size_leaf_vector":"1"}},{"base_weights":[-1.1593019E-2,7.5497225E-2,-7.147589E-1,2.4812758E-1,-1.8936197E-1,-9.36188E-2,2.7570615E-2,-6.19771E-1,3.3462808E-1,1.361422E-1,-5.5936295E-1,-7.4157886E-2,-0E0,5.1098686E-2,-0E0,-3.2135942E-3,8.336198E-2,1.3068028E-2,-8.194318E-2],"categories":[],"categories_nodes":[],"categories_segments":[],"categories_sizes":[],"default_left":[0,0,0,0,0,0,0,0,0,0,0,0,0,0,0,0,0,0,0],"id":30,"left_children":[1,3,5,7,9,-1,-1,11,13,15,17,-1,-1,-1,-1,-1,-1,-1,-1],"loss_changes":[5.460738E0,3.4684231E0,2.755879E0,3.5549462E0,3.7440774E0,0E0,0E0,1.09079E-1,2.4763002E0,2.2294512E0,3.0259204E0,0E0,0E0,0E0,0E0,0E0,0E0,0E0,0E0],"parents":[2147483647,0,0,1,1,2,2,3,3,4,4,7,7,8,8,9,9,10,10],"right_children":[2,4,6,8,10,-1,-1,12,14,16,18,-1,-1,-1,-1,-1,-1,-1,-1],"split_conditions":[2.5E0,3E0,1.72E2,1.21E2,2.41E2,-9.36188E-2,2.7570615E-2,1.11E2,1E0,3E0,1.22E2,-7.4157886E-2,-0E0,5.1098686E-2,-0E0,-3.2135942E-3,8.336198E-2,1.3068028E-2,-8.194318E-2],"split_indices":[9,12,3,7,4,0,0,7,11,11,3,0,0,0,0,0,0,0,0],"split_type":[0,0,0,0,0,0,0,0,0,0,0,0,0,0,0,0,0,0,0],"sum_hessian":[8.207051E1,7.318748E1,8.883034E0,4.548933E1,2.7698143E1,7.7173505E0,1.1656835E0,3.0402167E0,4.2449116E1,1.4352444E1,1.3345699E1,2.0203178E0,1.0198988E0,2.7116978E1,1.5332137E1,1.1753719E1,2.5987246E0,3.2629716E0,1.0082727E1],"tree_param":{"num_deleted":"0","num_feature":"13","num_nodes":"19","size_leaf_vector":"1"}},{"base_weights":[2.7835628E-2,2.2932059E-1,-2.4073404E-1,4.252453E-1,-6.710501E-2,-5.7157654E-1,9.628166E-2,5.884457E-1,-7.7694366E-3,-6.562663E-1,2.9733717E-1,-8.241548E-1,-1.880901E-2,-1.487758E-1,5.394367E-1,2.7178092E-2,9.317982E-2,-2.4262886E-2,4.7823116E-2,-0E0,-7.776233E-2,-6.458062E-3,7.509065E-2,-9.137761E-2,-1.5017408E-2,2.1334207E-2,-6.617806E-2,-4.502958E-2,4.8985448E-2,8.276041E-2,-2.3571575E-2],"categories":[],"categories_nodes":[],"categories_segments":[],"categories_sizes":[],"default_left":[0,0,0,0,0,0,0,0,0,0,0,0,0,0,0,0,0,0,0,0,0,0,0,0,0,0,0,0,0,0,0],"id":31,"left_children":[1,3,5,7,9,11,13,15,17,19,21,23,25,27,29,-1,-1,-1,-1,-1,-1,-1,-1,-1,-1,-1,-1,-1,-1,-1,-1],"loss_changes":[4.475559E0,3.013261E0,4.137634E0,2.4317002E0,4.4696875E0,2.1172094E0,2.1423802E0,1.6252527E0,9.598794E-1,3.891127E-1,2.3528423E0,5.035019E-2,1.467259E0,2.3432674E0,2.0688543E0,0E0,0E0,0E0,0E0,0E0,0E0,0E0,0E0,0E0,0E0,0E0,0E0,0E0,0E0,0E0,0E0],"parents":[2147483647,0,0,1,1,2,2,3,3,4,4,5,5,6,6,7,7,8,8,9,9,10,10,11,11,12,12,13,13,14,14],"right_children":[2,4,6,8,10,12,14,16,18,20,22,24,26,28,30,-1,-1,-1,-1,-1,-1,-1,-1,-1,-1,-1,-1,-1,-1,-1,-1],"split_conditions":[1E0,3E0,1E0,2.73E2,5.2E1,2E0,6.2E1,1.57E2,3.4E2,2.12E2,1.51E2,3.02E2,3E0,3E0,1.42E2,2.7178092E-2,9.317982E-2,-2.4262886E-2,4.7823116E-2,-0E0,-7.776233E-2,-6.458062E-3,7.509065E-2,-9.137761E-2,-1.5017408E-2,2.1334207E-2,-6.617806E-2,-4.502958E-2,4.8985448E-2,8.276041E-2,-2.3571575E-2],"split_indices":[11,12,6,4,0,2,0,7,4,4,7,4,12,11,3,0,0,0,0,0,0,0,0,0,0,0,0,0,0,0,0],"split_type":[0,0,0,0,0,0,0,0,0,0,0,0,0,0,0,0,0,0,0,0,0,0,0,0,0,0,0,0,0,0,0],"sum_hessian":[8.079331E1,4.7309143E1,3.3484165E1,2.923695E1,1.8072193E1,1.7294283E1,1.6189884E1,2.1811924E1,7.4250255E0,7.125022E0,1.0947172E1,1.0912495E1,6.3817883E0,1.0126244E1,6.0636396E0,1.3036494E1,8.775429E0,6.037148E0,1.3878777E0,1.6946347E0,5.4303875E0,5.952626E0,4.994546E0,8.6629095E0,2.249585E0,4.608426E0,1.7733623E0,7.6107626E0,2.5154812E0,4.8412466E0,1.2223933E0],"tree_param":{"num_deleted":"0","num_feature":"13","num_nodes":"31","size_leaf_vector":"1"}},{"base_weights":[-5.4215956E-2,1.5218586E-2,-6.270937E-1,2.743618E-1,-1.5954375E-1,-7.57654E-1,-0E0,-1.5906873E-1,5.6839746E-1,-4.3894798E-1,1.08742416E-1,-0E0,-9.117238E-2,-5.754116E-2,-0E0,-1.0192484E-2,9.003125E-2,-0E0,-9.9771306E-2,-1.1738869E-2,5.45262E-2],"categories":[],"categories_nodes":[],"categories_segments":[],"categories_sizes":[],"default_left":[0,0,0,0,0,0,0,0,0,0,0,0,0,0,0,0,0,0,0,0,0],"id":32,"left_children":[1,3,5,7,9,11,-1,13,15,17,19,-1,-1,-1,-1,-1,-1,-1,-1,-1,-1],"loss_changes":[3.4015417E0,3.2439368E0,1.0302799E0,4.0508046E0,3.2805495E0,1.1882682E0,0E0,9.9967515E-1,4.5990615E0,5.203776E0,2.3277872E0,0E0,0E0,0E0,0E0,0E0,0E0,0E0,0E0,0E0,0E0],"parents":[2147483647,0,0,1,1,2,2,3,3,4,4,5,5,7,7,8,8,9,9,10,10],"right_children":[2,4,6,8,10,12,-1,14,16,18,20,-1,-1,-1,-1,-1,-1,-1,-1,-1,-1],"split_conditions":[2.5E0,5.6E1,4.2E0,1E0,6.2E1,1.14E2,-0E0,4.3E1,1.2E2,2.49E2,2E0,-0E0,-9.117238E-2,-5.754116E-2,-0E0,-1.0192484E-2,9.003125E-2,-0E0,-9.9771306E-2,-1.1738869E-2,5.45262E-2],"split_indices":[9,0,9,2,0,3,0,0,3,4,10,0,0,0,0,0,0,0,0,0,0],"split_type":[0,0,0,0,0,0,0,0,0,0,0,0,0,0,0,0,0,0,0,0,0],"sum_hessian":[7.658307E1,6.8394135E1,8.188931E0,2.8469604E1,3.992453E1,7.089678E0,1.0992537E0,1.1005386E1,1.7464218E1,2.0158356E1,1.9766176E1,1.0735791E0,6.0160985E0,2.9367309E0,8.068656E0,5.514289E0,1.194993E1,1.1835293E1,8.323062E0,1.2747973E1,7.018202E0],"tree_param":{"num_deleted":"0","num_feature":"13","num_nodes":"21","size_leaf_vector":"1"}},{"base_weights":[-2.9310675E-3,1.8073945E-1,-2.7586576E-1,3.562214E-1,-2.7111453E-1,5.0894815E-2,-6.053589E-1,7.155739E-1,5.583074E-2,4.542578E-1,-5.887027E-1,-2.5466916E-1,5.380132E-1,-7.1023345E-1,-0E0,8.6244375E-2,-6.936448E-3,5.103538E-2,-2.7773885E-2,-0E0,5.800227E-2,-9.172427E-2,-0E0,-6.048262E-2,5.8191366E-2,-0E0,8.283251E-2,-8.390258E-2,-0E0],"categories":[],"categories_nodes":[],"categories_segments":[],"categories_sizes":[],"default_left":[0,0,0,0,0,0,0,0,0,0,0,0,0,0,0,0,0,0,0,0,0,0,0,0,0,0,0,0,0],"id":33,"left_children":[1,3,5,7,9,11,13,15,17,19,21,23,25,27,-1,-1,-1,-1,-1,-1,-1,-1,-1,-1,-1,-1,-1,-1,-1],"loss_changes":[3.9193184E0,3.7137165E0,3.7703915E0,3.212132E0,3.1868913E0,2.7058737E0,1.3011608E0,2.128162E0,3.3204331E0,1.3625222E-1,1.38831E0,3.3129032E0,1.2039392E0,1.7395706E0,0E0,0E0,0E0,0E0,0E0,0E0,0E0,0E0,0E0,0E0,0E0,0E0,0E0,0E0,0E0],"parents":[2147483647,0,0,1,1,2,2,3,3,4,4,5,5,6,6,7,7,8,8,9,9,10,10,11,11,12,12,13,13],"right_children":[2,4,6,8,10,12,14,16,18,20,22,24,26,28,-1,-1,-1,-1,-1,-1,-1,-1,-1,-1,-1,-1,-1,-1,-1],"split_conditions":[1E0,2.73E2,6E-1,1E0,1.22E2,1E-1,3E2,6.7E1,2.23E2,3.03E2,6E-1,2E0,1E0,6.8E1,-0E0,8.6244375E-2,-6.936448E-3,5.103538E-2,-2.7773885E-2,-0E0,5.800227E-2,-9.172427E-2,-0E0,-6.048262E-2,5.8191366E-2,-0E0,8.283251E-2,-8.390258E-2,-0E0],"split_indices":[11,4,9,6,3,9,4,0,4,4,9,2,6,0,0,0,0,0,0,0,0,0,0,0,0,0,0,0,0],"split_type":[0,0,0,0,0,0,0,0,0,0,0,0,0,0,0,0,0,0,0,0,0,0,0,0,0,0,0,0,0],"sum_hessian":[7.52396E1,4.4081173E1,3.115843E1,3.27E1,1.1381171E1,1.5306713E1,1.5851717E1,1.3501605E1,1.9198395E1,2.8551953E0,8.525976E0,9.068741E0,6.2379727E0,1.3821895E1,2.0298226E0,1.1826921E1,1.6746837E0,8.536073E0,1.0662322E1,1.0855774E0,1.7696178E0,4.5741653E0,3.9518108E0,7.009547E0,2.0591934E0,2.4297493E0,3.8082235E0,1.2091859E1,1.7300359E0],"tree_param":{"num_deleted":"0","num_feature":"13","num_nodes":"29","size_leaf_vector":"1"}},{"base_weights":[-0E0,-1.9968161E-1,2.3107627E-1,1.3016461E-1,-3.8234746E-1,6.2909156E-1,5.195071E-2,3.4230968E-1,-3.0403975E-1,-6.188981E-1,-9.530027E-3,1.0204979E-1,-9.066599E-2,2.846702E-1,-2.6532617E-1,-1.4437467E-2,6.302676E-2,1.0999999E-2,-6.477336E-2,-1.8066068E-3,-8.077452E-2,7.1569614E-2,-2.3269858E-2,-6.374197E-2,4.375945E-2,-8.442335E-3,5.516368E-2,-6.7083046E-2,2.1482676E-2],"categories":[],"categories_nodes":[],"categories_segments":[],"categories_sizes":[],"default_left":[0,0,0,0,0,0,0,0,0,0,0,0,0,0,0,0,0,0,0,0,0,0,0,0,0,0,0,0,0],"id":34,"left_children":[1,3,5,7,9,11,13,15,17,19,21,-1,23,25,27,-1,-1,-1,-1,-1,-1,-1,-1,-1,-1,-1,-1,-1,-1],"loss_changes":[3.487177E0,2.678533E0,2.0715258E0,1.465755E0,2.145885E0,3.2862363E0,1.9757259E0,1.8804373E0,9.861392E-1,1.4187446E0,1.979024E0,0E0,1.4996159E0,1.8726933E0,2.4052846E0,0E0,0E0,0E0,0E0,0E0,0E0,0E0,0E0,0E0,0E0,0E0,0E0,0E0,0E0],"parents":[2147483647,0,0,1,1,2,2,3,3,4,4,5,5,6,6,7,7,8,8,9,9,10,10,12,12,13,13,14,14],"right_children":[2,4,6,8,10,12,14,16,18,20,22,-1,24,26,28,-1,-1,-1,-1,-1,-1,-1,-1,-1,-1,-1,-1,-1,-1],"split_conditions":[2E0,7E-1,1E0,1.56E2,2E0,3.19E2,2.4E2,1E-1,2.35E2,1E0,1E0,1.0204979E-1,1E0,2.05E2,1.62E2,-1.4437467E-2,6.302676E-2,1.0999999E-2,-6.477336E-2,-1.8066068E-3,-8.077452E-2,7.1569614E-2,-2.3269858E-2,-6.374197E-2,4.375945E-2,-8.442335E-3,5.516368E-2,-6.7083046E-2,2.1482676E-2],"split_indices":[10,9,1,7,2,4,4,9,4,1,10,0,6,4,7,0,0,0,0,0,0,0,0,0,0,0,0,0,0],"split_type":[0,0,0,0,0,0,0,0,0,0,0,0,0,0,0,0,0,0,0,0,0,0,0,0,0,0,0,0,0],"sum_hessian":[7.382748E1,4.0537018E1,3.3290462E1,1.3574763E1,2.6962254E1,8.686279E0,2.4604181E1,1.0035E1,3.539764E0,1.5271423E1,1.169083E1,5.8058715E0,2.880408E0,1.5161818E1,9.442364E0,3.270208E0,6.7647915E0,1.25412E0,2.2856438E0,4.547261E0,1.0724163E1,1.7044569E0,9.986374E0,1.7789967E0,1.1014113E0,5.8646064E0,9.297211E0,5.46837E0,3.9739938E0],"tree_param":{"num_deleted":"0","num_feature":"13","num_nodes":"29","size_leaf_vector":"1"}},{"base_weights":[-9.720826E-3,1.5620992E-1,-2.6377225E-1,4.572218E-1,-1.9324495E-2,-5.144884E-1,-0E0,6.7229646E-1,-0E0,-8.310105E-2,1.2943104E-1,-6.385054E-1,1.7198851E-2,2.9908663E-1,-3.2905334E-1,7.6686315E-2,-0E0,-3.394375E-2,3.9418343E-2,-9.4083026E-2,2.9224684E-2,-9.707131E-2,-6.1778813E-3,-1.2921984E-2,1.0684558E-1,-8.023565E-2,7.0173936E-3],"categories":[],"categories_nodes":[],"categories_segments":[],"categories_sizes":[],"default_left":[0,0,0,0,0,0,0,0,0,0,0,0,0,0,0,0,0,0,0,0,0,0,0,0,0,0,0],"id":35,"left_children":[1,3,5,7,9,11,13,15,17,-1,19,21,-1,23,25,-1,-1,-1,-1,-1,-1,-1,-1,-1,-1,-1,-1],"loss_changes":[3.3081737E0,2.634329E0,2.226049E0,1.4514904E0,3.9211729E0,1.7679057E0,1.6596518E0,5.7886505E-1,1.1476495E0,0E0,4.234223E0,2.2985263E0,0E0,3.6658862E0,1.8699346E0,0E0,0E0,0E0,0E0,0E0,0E0,0E0,0E0,0E0,0E0,0E0,0E0],"parents":[2147483647,0,0,1,1,2,2,3,3,4,4,5,5,6,6,7,7,8,8,10,10,11,11,13,13,14,14],"right_children":[2,4,6,8,10,12,14,16,18,-1,20,22,-1,24,26,-1,-1,-1,-1,-1,-1,-1,-1,-1,-1,-1,-1],"split_conditions":[1E0,2.29E2,1E0,3E0,1.33E2,3E0,1.55E2,1E0,2E0,-8.310105E-2,2.32E2,2.69E2,1.7198851E-2,1.46E2,1E0,7.6686315E-2,-0E0,-3.394375E-2,3.9418343E-2,-9.4083026E-2,2.9224684E-2,-9.707131E-2,-6.1778813E-3,-1.2921984E-2,1.0684558E-1,-8.023565E-2,7.0173936E-3],"split_indices":[11,4,6,12,7,2,7,5,10,0,4,4,0,7,2,0,0,0,0,0,0,0,0,0,0,0,0],"split_type":[0,0,0,0,0,0,0,0,0,0,0,0,0,0,0,0,0,0,0,0,0,0,0,0,0,0,0],"sum_hessian":[7.52233E1,4.4545765E1,3.0677532E1,1.6866415E1,2.7679352E1,1.573618E1,1.4941351E1,1.0474993E1,6.3914213E0,4.097284E0,2.3582067E1,1.4004418E1,1.7317623E0,8.280615E0,6.6607366E0,8.803718E0,1.6712754E0,2.8895316E0,3.5018895E0,2.0773392E0,2.1504728E1,7.902369E0,6.102049E0,5.4363627E0,2.8442519E0,3.1586502E0,3.5020864E0],"tree_param":{"num_deleted":"0","num_feature":"13","num_nodes":"27","size_leaf_vector":"1"}},{"base_weights":[-1.3608534E-2,-2.5216204E-1,1.5321174E-1,-4.25405E-1,3.094597E-1,7.020491E-1,3.9885923E-2,-8.261373E-2,-6.7403084E-1,7.944166E-1,-2.6554745E-1,-0E0,8.127449E-2,-7.698192E-1,1.9389372E-1,1.1740443E-2,-6.4627424E-2,-7.6764576E-2,-0E0,-0E0,1.1898809E-1,4.961716E-3,-5.9697695E-2,-1.1383279E-1,2.1411397E-3,8.185386E-2,-0E0],"categories":[],"categories_nodes":[],"categories_segments":[],"categories_sizes":[],"default_left":[0,0,0,0,0,0,0,0,0,0,0,0,0,0,0,0,0,0,0,0,0,0,0,0,0,0,0],"id":36,"left_children":[1,3,5,7,9,11,13,15,17,19,21,-1,-1,23,25,-1,-1,-1,-1,-1,-1,-1,-1,-1,-1,-1,-1],"loss_changes":[2.9868915E0,3.2629788E0,2.2291481E0,1.7173085E0,2.523616E0,1.88205E-1,4.4550495E0,1.760492E0,1.0266166E0,1.0219283E0,6.83342E-1,0E0,0E0,2.2067165E0,3.795537E0,0E0,0E0,0E0,0E0,0E0,0E0,0E0,0E0,0E0,0E0,0E0,0E0],"parents":[2147483647,0,0,1,1,2,2,3,3,4,4,5,5,6,6,7,7,8,8,9,9,10,10,13,13,14,14],"right_children":[2,4,6,8,10,12,14,16,18,20,22,-1,-1,24,26,-1,-1,-1,-1,-1,-1,-1,-1,-1,-1,-1,-1],"split_conditions":[1E0,6.4E1,4.5E1,1E0,6.7E1,3.9E1,5.1E1,6E1,1.63E2,2.55E2,2.3E2,-0E0,8.127449E-2,2.44E2,5.6E1,1.1740443E-2,-6.4627424E-2,-7.6764576E-2,-0E0,-0E0,1.1898809E-1,4.961716E-3,-5.9697695E-2,-1.1383279E-1,2.1411397E-3,8.185386E-2,-0E0],"split_indices":[2,0,0,8,0,0,0,0,7,4,4,0,0,4,0,0,0,0,0,0,0,0,0,0,0,0,0],"split_type":[0,0,0,0,0,0,0,0,0,0,0,0,0,0,0,0,0,0,0,0,0,0,0,0,0,0,0],"sum_hessian":[7.184184E1,3.0587412E1,4.1254433E1,2.4242247E1,6.3451643E0,5.416292E0,3.583814E1,1.1596704E1,1.2645544E1,3.7068288E0,2.6383355E0,1.3438519E0,4.07244E0,4.5693493E0,3.126879E1,8.488989E0,3.1077147E0,1.1262469E1,1.3830749E0,1.8869734E0,1.8198555E0,1.0149095E0,1.623426E0,3.249275E0,1.3200744E0,6.4755726E0,2.4793217E1],"tree_param":{"num_deleted":"0","num_feature":"13","num_nodes":"27","size_leaf_vector":"1"}},{"base_weights":[-2.1691484E-2,2.8710693E-1,-1.5181027E-1,-0E0,9.472905E-2,4.3866865E-2,-4.3805048E-1,5.007233E-1,-7.00408E-1,-1.8112406E-1,4.757096E-1,-5.729762E-1,-0E0,6.786054E-2,-4.572149E-3,-8.921264E-2,-0E0,-0E0,-8.456307E-2,8.1331015E-2,4.0460504E-3,-6.742685E-2,2.1208273E-2,-6.2809646E-2,5.0752997E-2],"categories":[],"categories_nodes":[],"categories_segments":[],"categories_sizes":[],"default_left":[0,0,0,0,0,0,0,0,0,0,0,0,0,0,0,0,0,0,0,0,0,0,0,0,0],"id":37,"left_children":[1,3,5,7,-1,9,11,13,15,17,19,21,23,-1,-1,-1,-1,-1,-1,-1,-1,-1,-1,-1,-1],"loss_changes":[2.8620818E0,3.4474862E0,3.1472707E0,5.7910776E0,0E0,3.2408352E0,1.4990196E0,1.3357892E0,1.0645545E0,2.2392712E0,1.250514E0,1.7771902E0,2.1087222E0,0E0,0E0,0E0,0E0,0E0,0E0,0E0,0E0,0E0,0E0,0E0,0E0],"parents":[2147483647,0,0,1,1,2,2,3,3,5,5,6,6,7,7,8,8,9,9,10,10,11,11,12,12],"right_children":[2,4,6,8,-1,10,12,14,16,18,20,22,24,-1,-1,-1,-1,-1,-1,-1,-1,-1,-1,-1,-1],"split_conditions":[1E0,6.4E1,1E0,5.9E1,9.472905E-2,1.61E2,3E0,3.09E2,1E0,1.58E2,3E0,6.8E1,1.41E2,6.786054E-2,-4.572149E-3,-8.921264E-2,-0E0,-0E0,-8.456307E-2,8.1331015E-2,4.0460504E-3,-6.742685E-2,2.1208273E-2,-6.2809646E-2,5.0752997E-2],"split_indices":[1,0,11,0,0,7,11,4,2,7,12,0,7,0,0,0,0,0,0,0,0,0,0,0,0],"split_type":[0,0,0,0,0,0,0,0,0,0,0,0,0,0,0,0,0,0,0,0,0,0,0,0,0],"sum_hessian":[7.082951E1,1.950086E1,5.1328655E1,1.4775862E1,4.724998E0,2.9952642E1,2.1376013E1,9.1676235E0,5.6082387E0,1.9313185E1,1.0639458E1,1.6644484E1,4.73153E0,7.424052E0,1.7435718E0,4.4107604E0,1.1974785E0,1.6249838E1,3.0633466E0,4.855735E0,5.783723E0,1.5431457E1,1.2130263E0,1.7371749E0,2.9943554E0],"tree_param":{"num_deleted":"0","num_feature":"13","num_nodes":"25","size_leaf_vector":"1"}},{"base_weights":[8.829864E-3,-1.9051306E-1,1.6632478E-1,-3.543751E-1,3.017176E-1,2.4452853E-1,-2.7164295E-1,3.3859942E-2,-4.593475E-1,7.5098264E-1,-2.5798163E-1,8.128839E-2,1.2746601E-1,6.894487E-2,-8.593611E-2,-1.3160882E-2,-6.672524E-2,-0E0,1.0333307E-1,-3.7085008E-2,-0E0,-5.5558015E-2,2.6539434E-2],"categories":[],"categories_nodes":[],"categories_segments":[],"categories_sizes":[],"default_left":[0,0,0,0,0,0,0,0,0,0,0,0,0,0,0,0,0,0,0,0,0,0,0],"id":38,"left_children":[1,3,5,7,9,11,13,-1,15,17,19,-1,21,-1,-1,-1,-1,-1,-1,-1,-1,-1,-1],"loss_changes":[2.2331448E0,2.5677774E0,1.4681765E0,1.9520631E0,2.279991E0,1.8584197E0,3.9341764E0,0E0,9.966779E-1,7.5387764E-1,1.10853225E-1,0E0,3.0386345E0,0E0,0E0,0E0,0E0,0E0,0E0,0E0,0E0,0E0,0E0],"parents":[2147483647,0,0,1,1,2,2,3,3,4,4,5,5,6,6,8,8,9,9,10,10,12,12],"right_children":[2,4,6,8,10,12,14,-1,16,18,20,-1,22,-1,-1,-1,-1,-1,-1,-1,-1,-1,-1],"split_conditions":[1E0,6.4E1,2E0,1.1E2,6.7E1,4.5E1,1E0,3.3859942E-2,1E0,1E0,6.9E1,8.128839E-2,5.1E1,6.894487E-2,-8.593611E-2,-1.3160882E-2,-6.672524E-2,-0E0,1.0333307E-1,-3.7085008E-2,-0E0,-5.5558015E-2,2.6539434E-2],"split_indices":[2,0,9,3,0,0,10,0,8,6,0,0,0,0,0,0,0,0,0,0,0,0,0],"split_type":[0,0,0,0,0,0,0,0,0,0,0,0,0,0,0,0,0,0,0,0,0,0,0],"sum_hessian":[6.9505394E1,2.9183365E1,4.032203E1,2.2866894E1,6.3164706E0,3.5556377E1,4.765654E0,2.0888171E0,2.0778076E1,3.8098874E0,2.5065832E0,4.328014E0,3.1228363E1,1.4198842E0,3.34577E0,9.63211E0,1.1145967E1,1.5633768E0,2.2465105E0,1.5029647E0,1.0036186E0,4.1287813E0,2.709958E1],"tree_param":{"num_deleted":"0","num_feature":"13","num_nodes":"23","size_leaf_vector":"1"}},{"base_weights":[1.1091039E-2,-1.6149823E-1,2.3215692E-1,-0E0,-4.0526158E-1,9.0103395E-2,6.83322E-1,-1.20637685E-1,6.147601E-2,3.073134E-1,-6.374079E-1,2.6228976E-1,-1.3978937E-1,7.7647075E-2,-0E0,2.1778433E-2,-3.5655376E-2,5.20234E-2,-0E0,-0E0,-7.323788E-2,4.3769803E-2,-4.5060985E-2,-7.121808E-2,3.4124568E-2],"categories":[],"categories_nodes":[],"categories_segments":[],"categories_sizes":[],"default_left":[0,0,0,0,0,0,0,0,0,0,0,0,0,0,0,0,0,0,0,0,0,0,0,0,0],"id":39,"left_children":[1,3,5,7,9,11,13,15,-1,17,19,21,23,-1,-1,-1,-1,-1,-1,-1,-1,-1,-1,-1,-1],"loss_changes":[2.633837E0,1.4497113E0,1.5455015E0,1.7937822E0,2.7934642E0,1.1134359E0,1.4842463E-1,1.7714934E0,0E0,3.4349674E-1,9.2176056E-1,2.2239952E0,3.2906885E0,0E0,0E0,0E0,0E0,0E0,0E0,0E0,0E0,0E0,0E0,0E0,0E0],"parents":[2147483647,0,0,1,1,2,2,3,3,4,4,5,5,6,6,7,7,9,9,10,10,11,11,12,12],"right_children":[2,4,6,8,10,12,14,16,-1,18,20,22,24,-1,-1,-1,-1,-1,-1,-1,-1,-1,-1,-1,-1],"split_conditions":[2E0,1E0,9E-1,2.94E2,1.12E2,5.8E1,1E0,7E-1,6.147601E-2,2.23E2,1.06E2,1.52E2,6.2E1,7.7647075E-2,-0E0,2.1778433E-2,-3.5655376E-2,5.20234E-2,-0E0,-0E0,-7.323788E-2,4.3769803E-2,-4.5060985E-2,-7.121808E-2,3.4124568E-2],"split_indices":[10,8,9,4,3,0,8,9,0,4,7,3,0,0,0,0,0,0,0,0,0,0,0,0,0],"split_type":[0,0,0,0,0,0,0,0,0,0,0,0,0,0,0,0,0,0,0,0,0,0,0,0,0],"sum_hessian":[6.61238E1,3.6014477E1,3.0109325E1,2.2309433E1,1.3705042E1,2.4654562E1,5.4547634E0,1.9346613E1,2.962821E0,2.7589178E0,1.0946124E1,1.5259456E1,9.395107E0,4.2451563E0,1.2096069E0,7.1078486E0,1.2238764E1,1.580867E0,1.1780506E0,1.1788473E0,9.767277E0,1.3118944E1,2.1405113E0,4.545386E0,4.849721E0],"tree_param":{"num_deleted":"0","num_feature":"13","num_nodes":"25","size_leaf_vector":"1"}},{"base_weights":[-0E0,3.295148E-1,-1.1076215E-1,5.002092E-1,-4.6122536E-2,5.018967E-2,-3.5763705E-1,6.949724E-1,-0E0,-1.3948502E-1,4.2763644E-1,-6.522318E-1,-7.861171E-3,8.622639E-2,-0E0,4.4532023E-2,-3.5313226E-2,1.7109713E-2,-5.2313726E-2,-1.2676324E-2,6.056103E-2,-8.253836E-2,5.956946E-3,-2.6425589E-2,4.07595E-2],"categories":[],"categories_nodes":[],"categories_segments":[],"categories_sizes":[],"default_left":[0,0,0,0,0,0,0,0,0,0,0,0,0,0,0,0,0,0,0,0,0,0,0,0,0],"id":40,"left_children":[1,3,5,7,-1,9,11,13,15,17,19,21,23,-1,-1,-1,-1,-1,-1,-1,-1,-1,-1,-1,-1],"loss_changes":[2.6001556E0,2.7102475E0,2.1835814E0,1.6845446E0,0E0,2.373062E0,1.862905E0,1.0506673E0,9.611047E-1,2.653335E0,1.4273925E0,1.7620797E0,1.2653629E0,0E0,0E0,0E0,0E0,0E0,0E0,0E0,0E0,0E0,0E0,0E0,0E0],"parents":[2147483647,0,0,1,1,2,2,3,3,5,5,6,6,7,7,8,8,9,9,10,10,11,11,12,12],"right_children":[2,4,6,8,-1,10,12,14,16,18,20,22,24,-1,-1,-1,-1,-1,-1,-1,-1,-1,-1,-1,-1],"split_conditions":[1E0,3E0,1E0,1E0,-4.6122536E-2,1.61E2,1E0,1.69E2,1E0,1.49E2,4.1E1,3E0,6.2E1,8.622639E-2,-0E0,4.4532023E-2,-3.5313226E-2,1.7109713E-2,-5.2313726E-2,-1.2676324E-2,6.056103E-2,-8.253836E-2,5.956946E-3,-2.6425589E-2,4.07595E-2],"split_indices":[1,12,11,8,0,7,6,7,6,7,0,2,0,0,0,0,0,0,0,0,0,0,0,0,0],"split_type":[0,0,0,0,0,0,0,0,0,0,0,0,0,0,0,0,0,0,0,0,0,0,0,0,0],"sum_hessian":[6.6859146E1,1.7225956E1,4.9633194E1,1.4989879E1,2.2360785E0,2.9301353E1,2.033184E1,1.0771257E1,4.218621E0,1.903942E1,1.0261934E1,9.791152E0,1.0540688E1,8.059901E0,2.7113562E0,1.521854E0,2.6967669E0,1.010764E1,8.931779E0,1.8809617E0,8.380973E0,8.312049E0,1.4791037E0,7.4873667E0,3.053321E0],"tree_param":{"num_deleted":"0","num_feature":"13","num_nodes":"25","size_leaf_vector":"1"}},{"base_weights":[-0E0,1.6189384E-1,-2.492866E-1,5.432607E-1,-5.4494392E-2,-4.4772807E-1,5.2023176E-2,-0E0,6.6139275E-1,-6.992532E-1,6.65495E-2,-0E0,-7.587971E-1,3.1067625E-1,-4.275238E-2,7.742697E-2,-7.3184907E-3,-0E0,-8.499387E-2,-8.092635E-2,2.1951653E-2,1.7198674E-2,-3.4640457E-2,-0E0,-8.4801525E-2,6.1531257E-2,-5.7032066E-3],"categories":[],"categories_nodes":[],"categories_segments":[],"categories_sizes":[],"default_left":[0,0,0,0,0,0,0,0,0,0,0,0,0,0,0,0,0,0,0,0,0,0,0,0,0,0,0],"id":41,"left_children":[1,3,5,7,9,11,13,-1,15,17,19,21,23,25,-1,-1,-1,-1,-1,-1,-1,-1,-1,-1,-1,-1,-1],"loss_changes":[2.709975E0,3.5310931E0,1.8332554E0,1.2496085E0,2.333773E0,2.207212E0,1.3893578E0,0E0,1.4952574E0,3.343928E-1,2.766096E0,6.1337274E-1,4.7851038E-1,1.226426E0,0E0,0E0,0E0,0E0,0E0,0E0,0E0,0E0,0E0,0E0,0E0,0E0,0E0],"parents":[2147483647,0,0,1,1,2,2,3,3,4,4,5,5,6,6,8,8,9,9,10,10,11,11,12,12,13,13],"right_children":[2,4,6,8,10,12,14,-1,16,18,20,22,24,26,-1,-1,-1,-1,-1,-1,-1,-1,-1,-1,-1,-1,-1],"split_conditions":[1E0,2.29E2,6.2E1,1.75E2,1.33E2,5.5E1,1.58E2,-0E0,6.7E1,1E0,2.32E2,3E0,2.04E2,1.32E2,-4.275238E-2,7.742697E-2,-7.3184907E-3,-0E0,-8.499387E-2,-8.092635E-2,2.1951653E-2,1.7198674E-2,-3.4640457E-2,-0E0,-8.4801525E-2,6.1531257E-2,-5.7032066E-3],"split_indices":[11,4,0,4,7,0,7,0,0,1,4,12,4,3,0,0,0,0,0,0,0,0,0,0,0,0,0],"split_type":[0,0,0,0,0,0,0,0,0,0,0,0,0,0,0,0,0,0,0,0,0,0,0,0,0,0,0],"sum_hessian":[6.443073E1,3.8468918E1,2.5961815E1,1.4215435E1,2.4253483E1,1.63604E1,9.601415E0,2.0932503E0,1.2122185E1,3.7314136E0,2.052207E1,7.4827476E0,8.877652E0,7.1433215E0,2.4580934E0,1.1050733E1,1.0714524E0,1.0660521E0,2.6653614E0,1.9274318E0,1.8594637E1,4.8011436E0,2.681604E0,1.3036853E0,7.5739665E0,4.282111E0,2.8612103E0],"tree_param":{"num_deleted":"0","num_feature":"13","num_nodes":"27","size_leaf_vector":"1"}},{"base_weights":[-5.6412173E-3,2.431339E-1,-1.0771167E-1,-0E0,8.370931E-2,-0E0,-5.391541E-1,4.2650703E-1,-6.4160347E-1,-3.515742E-1,1.3276997E-1,-8.916241E-2,-6.0312506E-2,8.730699E-2,2.0587507E-3,-8.856621E-2,-6.7664357E-3,-0E0,-9.070221E-2,2.6161501E-2,-3.026696E-2,1.9102868E-2,-4.823075E-2],"categories":[],"categories_nodes":[],"categories_segments":[],"categories_sizes":[],"default_left":[0,0,0,0,0,0,0,0,0,0,0,0,0,0,0,0,0,0,0,0,0,0,0],"id":42,"left_children":[1,3,5,7,-1,9,11,13,15,17,19,-1,21,-1,-1,-1,-1,-1,-1,-1,-1,-1,-1],"loss_changes":[1.6557354E0,2.5145817E0,2.2012534E0,4.123571E0,0E0,1.9992864E0,1.0818651E0,1.2162905E0,2.924981E-1,2.65661E0,1.7462246E0,0E0,8.447402E-1,0E0,0E0,0E0,0E0,0E0,0E0,0E0,0E0,0E0,0E0],"parents":[2147483647,0,0,1,1,2,2,3,3,5,5,6,6,7,7,8,8,9,9,10,10,12,12],"right_children":[2,4,6,8,-1,10,12,14,16,18,20,-1,22,-1,-1,-1,-1,-1,-1,-1,-1,-1,-1],"split_conditions":[1E0,6.4E1,2.78E2,5.9E1,8.370931E-2,5.1E1,2.94E2,1.29E2,1.32E2,4.6E1,6.6E1,-8.916241E-2,5.5E1,8.730699E-2,2.0587507E-3,-8.856621E-2,-6.7664357E-3,-0E0,-9.070221E-2,2.6161501E-2,-3.026696E-2,1.9102868E-2,-4.823075E-2],"split_indices":[1,0,4,0,0,0,4,3,3,0,0,0,0,0,0,0,0,0,0,0,0,0,0],"split_type":[0,0,0,0,0,0,0,0,0,0,0,0,0,0,0,0,0,0,0,0,0,0,0],"sum_hessian":[6.584068E1,1.7327637E1,4.8513046E1,1.3192949E1,4.134688E0,3.996431E1,8.548735E0,8.274047E0,4.9189024E0,1.0885131E1,2.907918E1,3.826131E0,4.7226033E0,2.8052742E0,5.468773E0,2.4589646E0,2.4599376E0,6.870278E0,4.014853E0,2.3633553E1,5.4456267E0,2.560209E0,2.1623945E0],"tree_param":{"num_deleted":"0","num_feature":"13","num_nodes":"23","size_leaf_vector":"1"}},{"base_weights":[-8.1156595E-3,-2.3943971E-1,1.5175773E-1,2.820341E-1,-3.1703746E-1,3.7417102E-1,-0E0,6.019485E-2,-0E0,-4.5543408E-1,1.013968E-1,-6.500671E-2,5.421668E-1,5.5457294E-2,-1.085641E-1,-2.7201017E-2,-8.3061464E-2,5.2970596E-2,-3.516056E-2,-3.7373606E-2,1.2480683E-2,-0E0,6.921615E-2,8.043831E-3,-5.6971986E-2],"categories":[],"categories_nodes":[],"categories_segments":[],"categories_sizes":[],"default_left":[0,0,0,0,0,0,0,0,0,0,0,0,0,0,0,0,0,0,0,0,0,0,0,0,0],"id":43,"left_children":[1,3,5,7,9,11,13,-1,-1,15,17,19,21,-1,23,-1,-1,-1,-1,-1,-1,-1,-1,-1,-1],"loss_changes":[2.5076244E0,1.2597964E0,1.458599E0,5.498548E-1,1.7349741E0,1.5054619E0,1.2082014E0,0E0,0E0,6.4707994E-1,1.5186787E0,4.4584587E-1,1.2347229E0,0E0,2.0600863E0,0E0,0E0,0E0,0E0,0E0,0E0,0E0,0E0,0E0,0E0],"parents":[2147483647,0,0,1,1,2,2,3,3,4,4,5,5,6,6,9,9,10,10,11,11,12,12,14,14],"right_children":[2,4,6,8,10,12,14,-1,-1,16,18,20,22,-1,24,-1,-1,-1,-1,-1,-1,-1,-1,-1,-1],"split_conditions":[1E0,1.1E2,5.7E1,2.34E2,6.4E1,1.48E2,1.2E2,6.019485E-2,-0E0,6E1,6.7E1,5E1,1.12E2,5.5457294E-2,2.71E2,-2.7201017E-2,-8.3061464E-2,5.2970596E-2,-3.516056E-2,-3.7373606E-2,1.2480683E-2,-0E0,6.921615E-2,8.043831E-3,-5.6971986E-2],"split_indices":[2,3,0,4,0,7,3,0,0,0,0,0,3,0,4,0,0,0,0,0,0,0,0,0,0],"split_type":[0,0,0,0,0,0,0,0,0,0,0,0,0,0,0,0,0,0,0,0,0,0,0,0,0],"sum_hessian":[6.46376E1,2.7490639E1,3.714697E1,2.384983E0,2.5105656E1,1.5693379E1,2.145359E1,1.2605919E0,1.1243912E0,1.9697302E1,5.4083524E0,3.6882548E0,1.2005124E1,2.1503844E0,1.9303205E1,1.528315E1,4.414153E0,3.2602465E0,2.1481059E0,2.0382564E0,1.6499985E0,2.4485717E0,9.556553E0,1.3508254E1,5.7949514E0],"tree_param":{"num_deleted":"0","num_feature":"13","num_nodes":"25","size_leaf_vector":"1"}},{"base_weights":[9.249582E-3,3.2675436E-1,-9.19188E-2,4.6948397E-1,-2.9499903E-2,1.853399E-2,-5.3324026E-1,8.224806E-2,1.5540045E-1,1.9002672E-1,-2.0231913E-1,-7.564756E-1,-4.940719E-2,-2.3167554E-2,8.691829E-2,-1.2850888E-2,5.022151E-2,-4.024523E-2,2.402522E-2,-9.175844E-2,-0E0,1.1360631E-2,-4.0403713E-2],"categories":[],"categories_nodes":[],"categories_segments":[],"categories_sizes":[],"default_left":[0,0,0,0,0,0,0,0,0,0,0,0,0,0,0,0,0,0,0,0,0,0,0],"id":44,"left_children":[1,3,5,7,-1,9,11,-1,13,15,17,19,21,-1,-1,-1,-1,-1,-1,-1,-1,-1,-1],"loss_changes":[2.1891837E0,1.7142339E0,2.5967546E0,1.0109911E0,0E0,1.4822769E0,6.944418E-1,0E0,3.2143335E0,2.5723958E0,1.5899587E0,6.9834447E-1,4.8559964E-1,0E0,0E0,0E0,0E0,0E0,0E0,0E0,0E0,0E0,0E0],"parents":[2147483647,0,0,1,1,2,2,3,3,5,5,6,6,8,8,9,9,10,10,11,11,12,12],"right_children":[2,4,6,8,-1,10,12,-1,14,16,18,20,22,-1,-1,-1,-1,-1,-1,-1,-1,-1,-1],"split_conditions":[1E0,3E0,2.74E2,5.8E1,-2.9499903E-2,1E0,1E0,8.224806E-2,6.4E1,5.3E1,3E0,3.02E2,3.11E2,-2.3167554E-2,8.691829E-2,-1.2850888E-2,5.022151E-2,-4.024523E-2,2.402522E-2,-9.175844E-2,-0E0,1.1360631E-2,-4.0403713E-2],"split_indices":[1,12,4,0,0,11,6,0,0,0,11,4,4,0,0,0,0,0,0,0,0,0,0],"split_type":[0,0,0,0,0,0,0,0,0,0,0,0,0,0,0,0,0,0,0,0,0,0,0],"sum_hessian":[6.2562866E1,1.5773157E1,4.6789707E1,1.3681512E1,2.091645E0,3.7283527E1,9.506181E0,4.9300528E0,8.751459E0,2.234001E1,1.4943518E1,5.412153E0,4.0940285E0,5.6580796E0,3.0933795E0,1.0556077E1,1.1783932E1,1.1130608E1,3.81291E0,4.187571E0,1.2245814E0,2.3044598E0,1.7895684E0],"tree_param":{"num_deleted":"0","num_feature":"13","num_nodes":"23","size_leaf_vector":"1"}},{"base_weights":[-5.9977034E-3,2.4864276E-1,-1.0789212E-1,4.000998E-1,-4.2234853E-2,-0E0,-4.9548143E-1,6.087982E-1,-1.1637074E-1,2.2613439E-1,-2.4211523E-1,-0E0,-7.6713926E-1,8.2581155E-2,-0E0,-6.1574914E-2,3.1389996E-2,4.666492E-2,-0E0,-5.820154E-2,-0E0,-2.3417009E-2,3.7455186E-2,-0E0,-8.730932E-2],"categories":[],"categories_nodes":[],"categories_segments":[],"categories_sizes":[],"default_left":[0,0,0,0,0,0,0,0,0,0,0,0,0,0,0,0,0,0,0,0,0,0,0,0,0],"id":45,"left_children":[1,3,5,7,-1,9,11,13,15,17,19,21,23,-1,-1,-1,-1,-1,-1,-1,-1,-1,-1,-1,-1],"loss_changes":[1.6128298E0,1.9002056E0,1.8877798E0,1.9455926E0,0E0,2.1793818E0,1.6635611E0,1.2435827E0,1.3107386E0,1.0697092E0,1.4656724E0,4.9549317E-1,3.6033583E-1,0E0,0E0,0E0,0E0,0E0,0E0,0E0,0E0,0E0,0E0,0E0,0E0],"parents":[2147483647,0,0,1,1,2,2,3,3,5,5,6,6,7,7,8,8,9,9,10,10,11,11,12,12],"right_children":[2,4,6,8,-1,10,12,14,16,18,20,22,24,-1,-1,-1,-1,-1,-1,-1,-1,-1,-1,-1,-1],"split_conditions":[1E0,3E0,2.74E2,1.69E2,-4.2234853E-2,7E-1,1.22E2,1E0,1E0,2.28E2,1.1E0,1E0,4.6E1,8.2581155E-2,-0E0,-6.1574914E-2,3.1389996E-2,4.666492E-2,-0E0,-5.820154E-2,-0E0,-2.3417009E-2,3.7455186E-2,-0E0,-8.730932E-2],"split_indices":[1,12,4,7,0,9,3,8,6,4,9,6,0,0,0,0,0,0,0,0,0,0,0,0,0],"split_type":[0,0,0,0,0,0,0,0,0,0,0,0,0,0,0,0,0,0,0,0,0,0,0,0,0],"sum_hessian":[6.283837E1,1.6144651E1,4.669372E1,1.4108864E1,2.035787E0,3.7742805E1,8.950916E0,1.061061E1,3.4982533E0,1.9089832E1,1.8652973E1,2.9729872E0,5.977929E0,7.133684E0,3.4769263E0,1.9574239E0,1.5408293E0,8.629976E0,1.0459856E1,6.727788E0,1.1925185E1,1.3657643E0,1.6072228E0,1.1181451E0,4.859784E0],"tree_param":{"num_deleted":"0","num_feature":"13","num_nodes":"25","size_leaf_vector":"1"}},{"base_weights":[-0E0,6.1293546E-2,-4.2988092E-1,-6.46046E-2,2.8255782E-1,-6.432098E-1,1.787722E-2,5.8037457E-3,-4.1699758E-1,8.575609E-2,7.0791155E-1,-0E0,-8.1387654E-2,-1.8985365E-2,1.8587988E-2,-7.8952745E-2,7.3237116E-3,-1.3970926E-2,4.3204E-2,8.008435E-2,-0E0],"categories":[],"categories_nodes":[],"categories_segments":[],"categories_sizes":[],"default_left":[0,0,0,0,0,0,0,0,0,0,0,0,0,0,0,0,0,0,0,0,0],"id":46,"left_children":[1,3,5,7,9,11,-1,13,15,17,19,-1,-1,-1,-1,-1,-1,-1,-1,-1,-1],"loss_changes":[1.5936239E0,1.7219539E0,1.3158104E0,1.0977601E0,1.4164823E0,3.7588215E-1,0E0,1.0794543E0,1.7250489E0,1.5530844E0,3.9304733E-2,0E0,0E0,0E0,0E0,0E0,0E0,0E0,0E0,0E0,0E0],"parents":[2147483647,0,0,1,1,2,2,3,3,4,4,5,5,7,7,8,8,9,9,10,10],"right_children":[2,4,6,8,10,12,-1,14,16,18,20,-1,-1,-1,-1,-1,-1,-1,-1,-1,-1],"split_conditions":[2.5E0,2E0,1.64E2,1.44E2,1.64E2,4.6E1,1.787722E-2,1E0,6.3E1,9E-1,1.3E0,-0E0,-8.1387654E-2,-1.8985365E-2,1.8587988E-2,-7.8952745E-2,7.3237116E-3,-1.3970926E-2,4.3204E-2,8.008435E-2,-0E0],"split_indices":[9,2,3,3,7,0,0,6,0,9,9,0,0,0,0,0,0,0,0,0,0],"split_type":[0,0,0,0,0,0,0,0,0,0,0,0,0,0,0,0,0,0,0,0,0],"sum_hessian":[6.270703E1,5.624724E1,6.459792E0,3.4860237E1,2.1387005E1,5.3495283E0,1.1102638E0,2.8692179E1,6.168056E0,1.6246988E1,5.140016E0,1.816279E0,3.5332491E0,1.2394421E1,1.629776E1,3.7374072E0,2.4306488E0,9.326895E0,6.9200935E0,3.858974E0,1.2810423E0],"tree_param":{"num_deleted":"0","num_feature":"13","num_nodes":"21","size_leaf_vector":"1"}},{"base_weights":[-3.8519292E-3,4.765033E-2,-5.2208996E-1,1.821304E-1,-1.3613674E-1,-6.6085055E-2,-0E0,4.677576E-1,-8.238261E-2,-3.7613335E-1,7.5840935E-2,6.1238017E-2,-2.7002474E-2,-1.9357238E-2,4.3745168E-2,-0E0,-5.6495506E-2,-2.6219765E-2,2.9060263E-2],"categories":[],"categories_nodes":[],"categories_segments":[],"categories_sizes":[],"default_left":[0,0,0,0,0,0,0,0,0,0,0,0,0,0,0,0,0,0,0],"id":47,"left_children":[1,3,5,7,9,-1,-1,11,13,15,17,-1,-1,-1,-1,-1,-1,-1,-1],"loss_changes":[1.8811165E0,1.4124583E0,5.47614E-1,2.7911587E0,1.3147649E0,0E0,0E0,2.1877718E0,9.76158E-1,1.1071031E0,9.313625E-1,0E0,0E0,0E0,0E0,0E0,0E0,0E0,0E0],"parents":[2147483647,0,0,1,1,2,2,3,3,4,4,7,7,8,8,9,9,10,10],"right_children":[2,4,6,8,10,-1,-1,12,14,16,18,-1,-1,-1,-1,-1,-1,-1,-1],"split_conditions":[2.5E0,1E0,4E0,2.41E2,1E0,-6.6085055E-2,-0E0,6.7E1,1E0,1E0,2.19E2,6.1238017E-2,-2.7002474E-2,-1.9357238E-2,4.3745168E-2,-0E0,-5.6495506E-2,-2.6219765E-2,2.9060263E-2],"split_indices":[9,11,9,4,6,0,0,0,5,1,4,0,0,0,0,0,0,0,0],"split_type":[0,0,0,0,0,0,0,0,0,0,0,0,0,0,0,0,0,0,0],"sum_hessian":[5.9659153E1,5.4214577E1,5.444574E0,3.2883053E1,2.1331526E1,4.2762523E0,1.1683216E0,1.6349924E1,1.6533129E1,1.0747627E1,1.0583898E1,1.4378985E1,1.970938E0,1.4929303E1,1.6038259E0,3.0717568E0,7.675871E0,3.121525E0,7.462373E0],"tree_param":{"num_deleted":"0","num_feature":"13","num_nodes":"19","size_leaf_vector":"1"}},{"base_weights":[-0E0,1.5111823E-1,-1.9957006E-1,5.868368E-1,-5.895557E-3,-6.2327206E-1,-0E0,-0E0,6.713456E-2,-9.9074155E-2,5.0573528E-2,-6.890933E-1,-0E0,4.456329E-1,-1.7090255E-1,-1.7898723E-2,4.7778726E-2,-4.473262E-3,-8.043842E-2,6.3322626E-2,-0E0,-0E0,-7.8800574E-2],"categories":[],"categories_nodes":[],"categories_segments":[],"categories_sizes":[],"default_left":[0,0,0,0,0,0,0,0,0,0,0,0,0,0,0,0,0,0,0,0,0,0,0],"id":48,"left_children":[1,3,5,7,9,11,13,-1,-1,15,-1,17,-1,19,21,-1,-1,-1,-1,-1,-1,-1,-1],"loss_changes":[1.8406515E0,2.7049954E0,1.9638419E0,6.041708E-1,1.0888112E0,1.8306899E-1,1.4412341E0,0E0,0E0,1.0287642E0,0E0,3.7390947E-2,0E0,5.3642017E-1,1.8532887E0,0E0,0E0,0E0,0E0,0E0,0E0,0E0,0E0],"parents":[2147483647,0,0,1,1,2,2,3,3,4,4,5,5,6,6,9,9,11,11,13,13,14,14],"right_children":[2,4,6,8,10,12,14,-1,-1,16,-1,18,-1,20,22,-1,-1,-1,-1,-1,-1,-1,-1],"split_conditions":[3E0,5.2E1,5.2E1,1.76E2,6.8E1,1.82E2,1.22E2,-0E0,6.713456E-2,3.4E2,5.0573528E-2,2.12E2,-0E0,1.1E0,6.5E1,-1.7898723E-2,4.7778726E-2,-4.473262E-3,-8.043842E-2,6.3322626E-2,-0E0,-0E0,-7.8800574E-2],"split_indices":[12,0,0,4,0,7,3,0,0,4,0,4,0,9,0,0,0,0,0,0,0,0,0],"split_type":[0,0,0,0,0,0,0,0,0,0,0,0,0,0,0,0,0,0,0,0,0,0,0],"sum_hessian":[5.924985E1,3.4242363E1,2.5007488E1,9.189138E0,2.5053223E1,6.721802E0,1.8285685E1,1.0632554E0,8.125883E0,2.2702288E1,2.3509347E0,5.702634E0,1.0191686E0,4.0108113E0,1.4274875E1,2.1307083E1,1.3952057E0,1.7343283E0,3.9683053E0,2.8194623E0,1.191349E0,1.1571805E1,2.7030694E0],"tree_param":{"num_deleted":"0","num_feature":"13","num_nodes":"23","size_leaf_vector":"1"}},{"base_weights":[-0E0,1.3296239E-1,-1.9499896E-1,2.8876176E-1,-6.776278E-2,-3.9551896E-1,6.324735E-2,4.0318978E-1,-1.9358005E-1,-4.3476304E-1,7.018322E-2,-6.4508826E-2,-7.9975404E-2,6.8325795E-2,-1.5062694E-1,4.9998354E-2,-2.4358435E-2,-7.9560995E-2,4.3470014E-2,4.392366E-3,-6.968253E-2,-1.6607521E-2,3.6503717E-2,1.4888555E-2,-6.263843E-2,-4.435643E-2,3.2784812E-2],"categories":[],"categories_nodes":[],"categories_segments":[],"categories_sizes":[],"default_left":[0,0,0,0,0,0,0,0,0,0,0,0,0,0,0,0,0,0,0,0,0,0,0,0,0,0,0],"id":49,"left_children":[1,3,5,7,9,11,13,15,17,19,21,23,-1,-1,25,-1,-1,-1,-1,-1,-1,-1,-1,-1,-1,-1,-1],"loss_changes":[1.5658412E0,1.2825614E0,1.436311E0,1.4159223E0,9.9811816E-1,1.491693E0,1.7326937E0,1.4531882E0,2.0852513E0,1.0303147E0,9.364921E-1,1.5171812E0,0E0,0E0,1.3056319E0,0E0,0E0,0E0,0E0,0E0,0E0,0E0,0E0,0E0,0E0,0E0,0E0],"parents":[2147483647,0,0,1,1,2,2,3,3,4,4,5,5,6,6,7,7,8,8,9,9,10,10,11,11,14,14],"right_children":[2,4,6,8,10,12,14,16,18,20,22,24,-1,-1,26,-1,-1,-1,-1,-1,-1,-1,-1,-1,-1,-1,-1],"split_conditions":[1E0,3E0,2E0,3.26E2,1.45E2,1.35E2,4E-1,2.8E0,3.4E2,3E-1,2.32E2,1.6E2,-7.9975404E-2,6.8325795E-2,2.7E2,4.9998354E-2,-2.4358435E-2,-7.9560995E-2,4.3470014E-2,4.392366E-3,-6.968253E-2,-1.6607521E-2,3.6503717E-2,1.4888555E-2,-6.263843E-2,-4.435643E-2,3.2784812E-2],"split_indices":[11,12,2,4,7,3,9,9,4,9,4,7,0,0,4,0,0,0,0,0,0,0,0,0,0,0,0],"split_type":[0,0,0,0,0,0,0,0,0,0,0,0,0,0,0,0,0,0,0,0,0,0,0,0,0,0,0],"sum_hessian":[5.8898346E1,3.585288E1,2.3045467E1,2.1340855E1,1.4512024E1,1.3763291E1,9.282176E0,1.8219316E1,3.1215372E0,4.366917E0,1.0145107E1,8.884585E0,4.878706E0,2.4174023E0,6.864774E0,1.6717468E1,1.5018475E0,1.8644651E0,1.2570722E0,1.1644194E0,3.2024975E0,4.9332376E0,5.2118692E0,6.3268557E0,2.5577295E0,4.951351E0,1.9134228E0],"tree_param":{"num_deleted":"0","num_feature":"13","num_nodes":"27","size_leaf_vector":"1"}},{"base_weights":[-1.4486341E-2,9.606177E-2,-1.9936629E-1,2.1120228E-1,-3.272082E-1,-5.0933343E-1,1.1523384E-2,3.3904207E-1,2.301569E-2,-5.274415E-1,1.3209748E-2,-0E0,-6.066842E-1,-5.9224125E-2,2.1249877E-1,4.546101E-2,-2.2242136E-2,-1.6595278E-2,3.837545E-2,-8.109416E-2,-0E0,-0E0,-7.474037E-2,-5.7522417E-3,5.1335383E-2],"categories":[],"categories_nodes":[],"categories_segments":[],"categories_sizes":[],"default_left":[0,0,0,0,0,0,0,0,0,0,0,0,0,0,0,0,0,0,0,0,0,0,0,0,0],"id":50,"left_children":[1,3,5,7,9,11,13,15,17,19,-1,-1,21,-1,23,-1,-1,-1,-1,-1,-1,-1,-1,-1,-1],"loss_changes":[1.2887192E0,1.7789481E0,1.8442914E0,5.3418183E-1,9.3144447E-1,6.9210863E-1,1.6940632E0,1.2710483E0,1.1823082E0,9.159901E-1,0E0,0E0,6.9621396E-1,0E0,1.2507774E0,0E0,0E0,0E0,0E0,0E0,0E0,0E0,0E0,0E0,0E0],"parents":[2147483647,0,0,1,1,2,2,3,3,4,4,5,5,6,6,7,7,8,8,9,9,12,12,14,14],"right_children":[2,4,6,8,10,12,14,16,18,20,-1,-1,22,-1,24,-1,-1,-1,-1,-1,-1,-1,-1,-1,-1],"split_conditions":[3E0,2E0,1E0,5.8E1,1.63E2,1.12E2,1.42E2,1.44E2,1.42E2,6.3E1,1.3209748E-2,-0E0,1.12E2,-5.9224125E-2,1E0,4.546101E-2,-2.2242136E-2,-1.6595278E-2,3.837545E-2,-8.109416E-2,-0E0,-0E0,-7.474037E-2,-5.7522417E-3,5.1335383E-2],"split_indices":[12,11,2,0,7,7,7,3,3,0,0,0,3,0,6,0,0,0,0,0,0,0,0,0,0],"split_type":[0,0,0,0,0,0,0,0,0,0,0,0,0,0,0,0,0,0,0,0,0,0,0,0,0],"sum_hessian":[5.859036E1,3.5274242E1,2.3316118E1,2.9053288E1,6.220953E0,9.827432E0,1.34886875E1,1.5241081E1,1.3812206E1,4.987094E0,1.2338588E0,1.315633E0,8.511799E0,2.2611382E0,1.1227549E1,1.35358E1,1.7052809E0,8.508864E0,5.303342E0,2.9255838E0,2.0615103E0,1.9982142E0,6.5135846E0,5.46738E0,5.760169E0],"tree_param":{"num_deleted":"0","num_feature":"13","num_nodes":"25","size_leaf_vector":"1"}},{"base_weights":[-1.666161E-2,-1.6388416E-1,1.4241356E-1,-0E0,-4.15419E-1,4.5858103E-1,-0E0,2.2476108E-1,-3.0163088E-1,1.4218184E-1,-5.921348E-1,9.00403E-2,-6.443826E-2,1.9728847E-1,-2.5434974E-1,6.696405E-2,-0E0,-2.7067534E-4,-6.929149E-2,2.8555904E-2,-0E0,9.627308E-3,-7.491001E-2,-5.3451657E-2,3.7833974E-2,5.4681506E-2,-1.5680028E-2,-5.231007E-2,1.0285276E-2],"categories":[],"categories_nodes":[],"categories_segments":[],"categories_sizes":[],"default_left":[0,0,0,0,0,0,0,0,0,0,0,0,0,0,0,0,0,0,0,0,0,0,0,0,0,0,0,0,0],"id":51,"left_children":[1,3,5,7,9,11,13,15,17,19,21,-1,23,25,27,-1,-1,-1,-1,-1,-1,-1,-1,-1,-1,-1,-1,-1,-1],"loss_changes":[1.3892359E0,1.4093721E0,1.0597094E0,1.4067084E0,1.6069281E0,2.2358348E0,1.0409769E0,9.989114E-1,6.5306413E-1,1.1899236E-1,1.5736809E0,0E0,1.0925559E0,1.8369745E0,1.0823727E0,0E0,0E0,0E0,0E0,0E0,0E0,0E0,0E0,0E0,0E0,0E0,0E0,0E0,0E0],"parents":[2147483647,0,0,1,1,2,2,3,3,4,4,5,5,6,6,7,7,8,8,9,9,10,10,12,12,13,13,14,14],"right_children":[2,4,6,8,10,12,14,16,18,20,22,-1,24,26,28,-1,-1,-1,-1,-1,-1,-1,-1,-1,-1,-1,-1,-1,-1],"split_conditions":[2E0,1E0,1E0,1E0,1.12E2,3.19E2,2.4E2,1E0,1.53E2,2.23E2,1.06E2,9.00403E-2,1E0,1E0,1.62E2,6.696405E-2,-0E0,-2.7067534E-4,-6.929149E-2,2.8555904E-2,-0E0,9.627308E-3,-7.491001E-2,-5.3451657E-2,3.7833974E-2,5.4681506E-2,-1.5680028E-2,-5.231007E-2,1.0285276E-2],"split_indices":[10,8,1,11,3,4,4,1,7,4,7,0,6,11,7,0,0,0,0,0,0,0,0,0,0,0,0,0,0],"split_type":[0,0,0,0,0,0,0,0,0,0,0,0,0,0,0,0,0,0,0,0,0,0,0,0,0,0,0,0,0],"sum_hessian":[5.6864773E1,3.1149317E1,2.5715458E1,1.8979008E1,1.2170309E1,6.615637E0,1.9099821E1,1.1405869E1,7.573139E0,2.2949493E0,9.87536E0,3.7132764E0,2.9023604E0,1.15742035E1,7.5256176E0,2.6252422E0,8.780626E0,5.5885153E0,1.9846237E0,1.2760975E0,1.0188518E0,1.3139532E0,8.561406E0,1.8550155E0,1.0473448E0,6.2613316E0,5.312872E0,4.8282685E0,2.697349E0],"tree_param":{"num_deleted":"0","num_feature":"13","num_nodes":"29","size_leaf_vector":"1"}},{"base_weights":[-1.3904903E-2,-1.4006972E-1,1.2157131E-1,4.6742797E-2,-2.0052877E-1,4.3557316E-1,-0E0,-3.689046E-1,-0E0,8.776481E-2,-8.378822E-2,2.531856E-1,-2.3215805E-1,-0E0,-6.010746E-2,7.46071E-2,-1.7898139E-2,-0E0,-3.362159E-2,4.827154E-2,-3.5727933E-2,-4.3313693E-2,1.9156812E-2],"categories":[],"categories_nodes":[],"categories_segments":[],"categories_sizes":[],"default_left":[0,0,0,0,0,0,0,0,0,0,0,0,0,0,0,0,0,0,0,0,0,0,0],"id":52,"left_children":[1,3,5,-1,7,9,11,13,15,-1,17,19,21,-1,-1,-1,-1,-1,-1,-1,-1,-1,-1],"loss_changes":[1.0006286E0,1.1316582E0,1.001823E0,0E0,1.107505E0,2.1498747E0,1.2222421E0,1.5002773E0,2.1672254E0,0E0,2.160606E-1,1.6258337E0,1.1297231E0,0E0,0E0,0E0,0E0,0E0,0E0,0E0,0E0,0E0,0E0],"parents":[2147483647,0,0,1,1,2,2,4,4,5,5,6,6,7,7,8,8,10,10,11,11,12,12],"right_children":[2,4,6,-1,8,10,12,14,16,-1,18,20,22,-1,-1,-1,-1,-1,-1,-1,-1,-1,-1],"split_conditions":[2E0,1.06E2,1E0,4.6742797E-2,2E0,3.19E2,2.29E2,7E-1,1E0,8.776481E-2,1.67E2,2E0,1.65E2,-0E0,-6.010746E-2,7.46071E-2,-1.7898139E-2,-0E0,-3.362159E-2,4.827154E-2,-3.5727933E-2,-4.3313693E-2,1.9156812E-2],"split_indices":[10,3,1,0,2,4,4,9,10,0,7,11,7,0,0,0,0,0,0,0,0,0,0],"split_type":[0,0,0,0,0,0,0,0,0,0,0,0,0,0,0,0,0,0,0,0,0,0,0],"sum_hessian":[5.600515E1,3.0892601E1,2.5112549E1,1.4383694E0,2.9454231E1,6.3146024E0,1.8797945E1,1.6136555E1,1.3317677E1,3.5585032E0,2.7560992E0,8.924726E0,9.87322E0,6.529024E0,9.607531E0,2.1959093E0,1.1121768E1,1.6114802E0,1.1446191E0,7.233357E0,1.6913687E0,7.482141E0,2.3910792E0],"tree_param":{"num_deleted":"0","num_feature":"13","num_nodes":"23","size_leaf_vector":"1"}},{"base_weights":[-1.0242006E-2,2.3731367E-1,-1.06920265E-1,-0E0,7.442232E-2,-3.9782897E-3,-4.9175897E-1,3.9668632E-1,-4.5996705E-1,-3.060613E-1,1.0622268E-1,-0E0,-6.8414025E-2,7.652247E-2,-0E0,-7.54189E-2,-0E0,-0E0,-7.842229E-2,2.283856E-2,-2.965696E-2,-5.4256576E-3,6.2923133E-3],"categories":[],"categories_nodes":[],"categories_segments":[],"categories_sizes":[],"default_left":[0,0,0,0,0,0,0,0,0,0,0,0,0,0,0,0,0,0,0,0,0,0,0],"id":53,"left_children":[1,3,5,7,-1,9,11,13,15,17,19,21,-1,-1,-1,-1,-1,-1,-1,-1,-1,-1,-1],"loss_changes":[1.305456E0,1.5184762E0,1.4364333E0,2.2444E0,0E0,1.318056E0,7.6830626E-1,7.622111E-1,5.788015E-1,1.8477429E0,1.2945565E0,1.4547075E-2,0E0,0E0,0E0,0E0,0E0,0E0,0E0,0E0,0E0,0E0,0E0],"parents":[2147483647,0,0,1,1,2,2,3,3,5,5,6,6,7,7,8,8,9,9,10,10,11,11],"right_children":[2,4,6,8,-1,10,12,14,16,18,20,22,-1,-1,-1,-1,-1,-1,-1,-1,-1,-1,-1],"split_conditions":[1E0,6.4E1,2.78E2,5.9E1,7.442232E-2,5.1E1,5.3E1,1.29E2,1.55E2,4.6E1,6.6E1,1.63E2,-6.8414025E-2,7.652247E-2,-0E0,-7.54189E-2,-0E0,-0E0,-7.842229E-2,2.283856E-2,-2.965696E-2,-5.4256576E-3,6.2923133E-3],"split_indices":[1,0,4,0,0,0,0,3,7,0,0,7,0,0,0,0,0,0,0,0,0,0,0],"split_type":[0,0,0,0,0,0,0,0,0,0,0,0,0,0,0,0,0,0,0,0,0,0,0],"sum_hessian":[5.520963E1,1.3644603E1,4.1565025E1,1.0413943E1,3.230659E0,3.4615246E1,6.949781E0,6.0469747E0,4.366969E0,9.990136E0,2.4625109E1,2.2008455E0,4.748935E0,2.195394E0,3.8515809E0,2.0138652E0,2.3531036E0,6.3117595E0,3.678377E0,2.0179266E1,4.4458437E0,1.0534987E0,1.1473469E0],"tree_param":{"num_deleted":"0","num_feature":"13","num_nodes":"23","size_leaf_vector":"1"}},{"base_weights":[-7.8459E-3,-1.623494E-1,1.5911703E-1,-3.2754213E-1,7.0292368E-3,5.250494E-1,4.232295E-3,-4.2263293E-1,-0E0,7.730884E-2,-1.5585543E-1,8.44107E-2,-0E0,-7.138375E-2,5.3466838E-2,-0E0,-5.285247E-2,-3.7790056E-2,4.889544E-2,-0E0,-4.9249817E-2,1.5291461E-3,-1.1066539E-2,-1.9463284E-2,3.78895E-2],"categories":[],"categories_nodes":[],"categories_segments":[],"categories_sizes":[],"default_left":[0,0,0,0,0,0,0,0,0,0,0,0,0,0,0,0,0,0,0,0,0,0,0,0,0],