{"learner":{"attributes":{"scikit_learn":"{\"_estimator_type\": \"classifier\"}"},"feature_names":["age","sex","cp","trestbps","chol","fbs","restecg","thalach","exang","oldpeak","slope","ca","thal"],"feature_types":["int","int","int","int","int","int","int","int","int","float","int","int","int"],"gradient_booster":{"model":{"gbtree_model_param":{"num_parallel_tree":"1","num_trees":"100"},"iteration_indptr":[0,1,2,3,4,5,6,7,8,9,10,11,12,13,14,15,16,17,18,19,20,21,22,23,24,25,26,27,28,29,30,31,32,33,34,35,36,37,38,39,40,41,42,43,44,45,46,47,48,49,50,51,52,53,54,55,56,57,58,59,60,61,62,63,64,65,66,67,68,69,70,71,72,73,74,75,76,77,78,79,80,81,82,83,84,85,86,87,88,89,90,91,92,93,94,95,96,97,98,99,100],"tree_info":[0,0,0,0,0,0,0,0,0,0,0,0,0,0,0,0,0,0,0,0,0,0,0,0,0,0,0,0,0,0,0,0,0,0,0,0,0,0,0,0,0,0,0,0,0,0,0,0,0,0,0,0,0,0,0,0,0,0,0,0,0,0,0,0,0,0,0,0,0,0,0,0,0,0,0,0,0,0,0,0,0,0,0,0,0,0,0,0,0,0,0,0,0,0,0,0,0,0,0,0],"trees":[{"base_weights":[4.6007437E-4,-1.0081042E0,9.331965E-1,3.509801E-2,-5.645205E-1,1.1039639E0,-4.9120057E-1,7.946055E-1,-1.079962E0,1.4218502E0,5.081036E-1,1.3050409E-1,-3.937012E-1,1.2193757E0,-1.777825E-2,9.452789E-3,-5.024269E-1,6.4947866E-2,1.5507617E0,1.2193757E0,-2.2632316E-1,4.279829E-1,1.3050409E-1,2.091303E-1,-1.9840717E-1,7.348551E-1,4.9209213E-1,1.3050409E-1,4.279829E-1,5.322755E-1,-3.6179E-1,3.0516794E-1,3.733647E-2,2.8788486E-1,-9.6579276E-2],"categories":[],"categories_nodes":[],"categories_segments":[],"categories_sizes":[],"default_left":[0,0,0,0,0,0,0,0,0,0,0,0,0,0,0,0,0,0,0,0,0,0,0,0,0,0,0,0,0,0,0,0,0,0,0],"id":0,"left_children":[1,3,5,7,-1,9,11,13,15,17,19,-1,-1,21,23,-1,-1,-1,25,27,29,-1,-1,-1,-1,31,-1,-1,-1,33,-1,-1,-1,-1,-1],"loss_changes":[5.974983E1,2.7878525E1,8.5686E0,1.3468774E1,0E0,4.9170265E0,3.7838655E0,3.2769437E0,4.3214355E0,2.5946808E0,6.4995184E0,0E0,0E0,3.8863945E-1,2.4046726E0,0E0,0E0,0E0,2.7496338E-2,3.8863945E-1,5.624759E0,0E0,0E0,0E0,0E0,4.732865E-1,0E0,0E0,0E0,1.9415954E0,0E0,0E0,0E0,0E0,0E0],"parents":[2147483647,0,0,1,1,2,2,3,3,5,5,6,6,7,7,8,8,9,9,10,10,13,13,14,14,18,18,19,19,20,20,25,25,29,29],"right_children":[2,4,6,8,-1,10,12,14,16,18,20,-1,-1,22,24,-1,-1,-1,26,28,30,-1,-1,-1,-1,32,-1,-1,-1,34,-1,-1,-1,-1,-1],"split_conditions":[1E0,1E0,2E0,3E0,-5.645205E-1,5.7E1,1E0,1E0,6E-1,1.43E2,1E0,1.3050409E-1,-3.937012E-1,6E1,7E-1,9.452789E-3,-5.024269E-1,6.4947866E-2,1.12E2,6.1E1,2.44E2,4.279829E-1,1.3050409E-1,2.091303E-1,-1.9840717E-1,1E0,4.9209213E-1,1.3050409E-1,4.279829E-1,1E0,-3.6179E-1,3.0516794E-1,3.733647E-2,2.8788486E-1,-9.6579276E-2],"split_indices":[2,11,9,12,0,0,11,8,9,7,1,0,0,0,9,0,0,0,3,0,4,0,0,0,0,1,0,0,0,11,0,0,0,0,0],"split_type":[0,0,0,0,0,0,0,0,0,0,0,0,0,0,0,0,0,0,0,0,0,0,0,0,0,0,0,0,0,0,0,0,0,0,0],"sum_hessian":[6.1514645E1,2.9517109E1,3.1997538E1,1.3890404E1,1.5626704E1,2.877298E1,3.224558E0,8.433459E0,5.4569445E0,1.785909E1,1.0913889E1,1.7363005E0,1.4882575E0,5.2089014E0,3.224558E0,2.2323864E0,3.224558E0,1.9843434E0,1.5874747E1,5.2089014E0,5.7049875E0,3.472601E0,1.7363005E0,1.4882575E0,1.7363005E0,2.4804292E0,1.3394318E1,1.7363005E0,3.472601E0,3.472601E0,2.2323864E0,1.2402146E0,1.2402146E0,2.2323864E0,1.2402146E0],"tree_param":{"num_deleted":"0","num_feature":"13","num_nodes":"35","size_leaf_vector":"1"}},{"base_weights":[1.5824685E-2,5.969985E-1,-9.4345605E-1,1.0727398E0,-3.568343E-1,-1.2877206E0,-9.3519844E-2,1.1536427E0,-8.53814E-2,6.252582E-1,-9.602183E-1,-4.740397E-1,-4.6476266E-1,-6.0099214E-1,3.4153098E-1,1.2264117E0,3.427782E-1,-5.665327E-2,3.022365E-1,-4.2108762E-1,-1.1665143E-1,7.4341714E-2,-7.453592E-1,2.6908498E-2,-2.81658E-1,3.4123784E-1,-1.7364126E-1,3.9242196E-1,5.0832295E-1,-1.06306545E-1,2.6725927E-1,2.5648725E-1,-2.3632187E-1,-3.3715043E-2,-3.1617945E-1,2.6625943E-1,3.386584E-3],"categories":[],"categories_nodes":[],"categories_segments":[],"categories_sizes":[],"default_left":[0,0,0,0,0,0,0,0,0,0,0,0,0,0,0,0,0,0,0,0,0,0,0,0,0,0,0,0,0,0,0,0,0,0,0,0,0],"id":1,"left_children":[1,3,5,7,9,11,13,15,-1,17,19,21,-1,23,25,27,29,-1,-1,-1,31,-1,33,-1,-1,-1,-1,-1,35,-1,-1,-1,-1,-1,-1,-1,-1],"loss_changes":[3.39374E1,1.7576744E1,6.6013412E0,3.1319447E0,8.517155E0,2.7276745E0,1.9054066E0,1.0130157E0,0E0,1.9606767E0,3.0791736E0,1.2419543E0,0E0,9.982606E-1,4.1626635E0,6.1953354E-1,1.6103773E0,0E0,0E0,0E0,3.3322945E0,0E0,6.9662523E-1,0E0,0E0,0E0,0E0,0E0,7.198124E-1,0E0,0E0,0E0,0E0,0E0,0E0,0E0,0E0],"parents":[2147483647,0,0,1,1,2,2,3,3,4,4,5,5,6,6,7,7,9,9,10,10,11,11,13,13,14,14,15,15,16,16,20,20,22,22,28,28],"right_children":[2,4,6,8,10,12,14,16,-1,18,20,22,-1,24,26,28,30,-1,-1,-1,32,-1,34,-1,-1,-1,-1,-1,36,-1,-1,-1,-1,-1,-1,-1,-1],"split_conditions":[3E0,1E0,1E0,2.8E0,1E0,6E-1,1.51E2,3.05E2,-8.53814E-2,2E0,2E0,1.44E2,-4.6476266E-1,5E-1,1.64E2,1E0,3.4E2,-5.665327E-2,3.022365E-1,-4.2108762E-1,6E-1,7.4341714E-2,1E0,2.6908498E-2,-2.81658E-1,3.4123784E-1,-1.7364126E-1,3.9242196E-1,1E0,-1.06306545E-1,2.6725927E-1,2.5648725E-1,-2.3632187E-1,-3.3715043E-2,-3.1617945E-1,2.6625943E-1,3.386584E-3],"split_indices":[12,11,2,9,1,9,7,4,0,10,2,7,0,9,7,8,4,0,0,0,9,0,11,0,0,0,0,0,6,0,0,0,0,0,0,0,0],"split_type":[0,0,0,0,0,0,0,0,0,0,0,0,0,0,0,0,0,0,0,0,0,0,0,0,0,0,0,0,0,0,0,0,0,0,0,0,0],"sum_hessian":[5.8863014E1,3.6890694E1,2.197232E1,2.4530834E1,1.2359859E1,1.5271542E1,6.700779E0,2.3292583E1,1.2382501E0,4.689989E0,7.6698704E0,4.3982425E0,1.0873299E1,2.916892E0,3.7838871E0,2.090412E1,2.388464E0,1.6599956E0,3.0299935E0,4.59216E0,3.0777104E0,1.2252173E0,3.1730254E0,1.1994464E0,1.7174455E0,1.902575E0,1.8813121E0,1.8031918E1,2.8722034E0,1.2068672E0,1.1815966E0,1.1454002E0,1.9323101E0,1.4869804E0,1.6860449E0,1.1835608E0,1.6886424E0],"tree_param":{"num_deleted":"0","num_feature":"13","num_nodes":"37","size_leaf_vector":"1"}},{"base_weights":[9.651709E-3,-6.2546E-1,6.0424525E-1,6.279535E-3,-1.1675534E0,1.132955E0,2.473987E-1,6.193993E-1,-5.357904E-1,-3.9896703E-1,-5.081838E-1,1.1954935E0,7.837878E-2,-4.5371094E-1,6.1129683E-1,7.9369706E-1,-3.6678354E-3,2.9541132E-1,-9.621059E-1,-2.941566E-1,9.847902E-2,3.8081822E-1,1.1280049E-1,4.459592E-2,-6.2417394E-1,9.0987015E-1,-2.5124916E-1,3.012653E-1,5.4341882E-2,-5.6936666E-3,1.4209424E-1,-9.214899E-3,-3.6580968E-1,-8.043051E-1,-1.7645098E-2,-8.855899E-3,1.0442176E0,1.1604033E-1,-1.8814363E-1,-7.216196E-2,-2.8611532E-1,3.6311734E-1,5.9764277E-2],"categories":[],"categories_nodes":[],"categories_segments":[],"categories_sizes":[],"default_left":[0,0,0,0,0,0,0,0,0,0,0,0,0,0,0,0,0,0,0,0,0,0,0,0,0,0,0,0,0,0,0,0,0,0,0,0,0,0,0,0,0,0,0],"id":2,"left_children":[1,3,5,7,9,11,13,15,17,-1,19,21,-1,23,25,27,-1,29,31,-1,-1,-1,-1,-1,33,35,37,-1,-1,-1,-1,-1,-1,39,-1,-1,41,-1,-1,-1,-1,-1,-1],"loss_changes":[2.1134304E1,9.277099E0,5.171527E0,4.8170033E0,8.84058E-1,3.072052E-1,5.005351E0,7.5791883E-1,3.012293E0,0E0,2.0987644E0,1.4796066E-1,0E0,8.0189395E-1,3.4801135E0,5.0693464E-1,0E0,1.9811296E-1,1.2381449E0,0E0,0E0,0E0,0E0,0E0,5.2044725E-1,1.2418094E0,1.2091849E0,0E0,0E0,0E0,0E0,0E0,0E0,1.2008357E-1,0E0,0E0,9.4150734E-1,0E0,0E0,0E0,0E0,0E0,0E0],"parents":[2147483647,0,0,1,1,2,2,3,3,4,4,5,5,6,6,7,7,8,8,10,10,11,11,13,13,14,14,15,15,17,17,18,18,24,24,25,25,26,26,33,33,36,36],"right_children":[2,4,6,8,10,12,14,16,18,-1,20,22,-1,24,26,28,-1,30,32,-1,-1,-1,-1,-1,34,36,38,-1,-1,-1,-1,-1,-1,40,-1,-1,42,-1,-1,-1,-1,-1,-1],"split_conditions":[1E0,1E0,1E0,1E0,6.4E1,1.74E2,1.51E2,3E0,7E-1,-3.9896703E-1,1E0,3.19E2,7.837878E-2,2.12E2,5.7E1,6E1,-3.6678354E-3,1.53E2,1.22E2,-2.941566E-1,9.847902E-2,3.8081822E-1,1.1280049E-1,4.459592E-2,1E0,1.12E2,2.22E2,3.012653E-1,5.4341882E-2,-5.6936666E-3,1.4209424E-1,-9.214899E-3,-3.6580968E-1,1.26E2,-1.7645098E-2,-8.855899E-3,3E0,1.1604033E-1,-1.8814363E-1,-7.216196E-2,-2.8611532E-1,3.6311734E-1,5.9764277E-2],"split_indices":[2,11,1,8,0,7,7,12,9,0,6,4,0,4,0,0,0,7,3,0,0,0,0,0,5,3,4,0,0,0,0,0,0,3,0,0,12,0,0,0,0,0,0],"split_type":[0,0,0,0,0,0,0,0,0,0,0,0,0,0,0,0,0,0,0,0,0,0,0,0,0,0,0,0,0,0,0,0,0,0,0,0,0,0,0,0,0,0,0],"sum_hessian":[5.3964355E1,2.6068026E1,2.7896328E1,1.2495064E1,1.3572962E1,1.0364785E1,1.7531544E1,5.796337E0,6.6987267E0,1.0075473E1,3.4974892E0,9.324358E0,1.0404272E0,5.9059505E0,1.1625593E1,4.341657E0,1.45468E0,2.3750572E0,4.3236694E0,2.125169E0,1.3723203E0,8.049467E0,1.2748909E0,1.3309007E0,4.57505E0,8.5954E0,3.0301933E0,2.7553334E0,1.5863237E0,1.1825968E0,1.1924605E0,1.1780448E0,3.1456246E0,3.1490617E0,1.4259881E0,1.1730969E0,7.4223027E0,1.1126163E0,1.9175769E0,1.2065182E0,1.9425436E0,5.8411975E0,1.5811052E0],"tree_param":{"num_deleted":"0","num_feature":"13","num_nodes":"43","size_leaf_vector":"1"}},{"base_weights":[1.0622095E-2,4.6779487E-1,-6.432628E-1,7.8531253E-1,-2.3790804E-1,-9.471357E-1,8.0483064E-2,8.962841E-1,3.8422994E-2,-8.4699434E-1,2.3062329E-1,-3.700047E-1,-4.9054068E-1,2.8184104E-1,-4.6429247E-1,1.0607091E0,1.812364E-1,1.5997417E-1,-1.3904351E-1,-2.3741256E-2,-3.6679476E-1,-2.6970378E-1,2.9923382E-1,-7.139479E-1,1.3854729E-1,-9.485485E-1,1.6344213E-1,7.174122E-2,1.1111172E0,-5.297545E-2,1.6331354E-1,9.466641E-2,-2.057812E-1,-3.139031E-1,8.01336E-2,-3.3070984E-1,-8.705363E-2,3.4659493E-1,1.0782663E-1],"categories":[],"categories_nodes":[],"categories_segments":[],"categories_sizes":[],"default_left":[0,0,0,0,0,0,0,0,0,0,0,0,0,0,0,0,0,0,0,0,0,0,0,0,0,0,0,0,0,0,0,0,0,0,0,0,0,0,0],"id":3,"left_children":[1,3,5,7,9,11,13,15,17,19,21,-1,23,-1,25,27,29,-1,-1,-1,-1,31,-1,33,-1,35,-1,-1,37,-1,-1,-1,-1,-1,-1,-1,-1,-1,-1],"loss_changes":[1.5157745E1,6.8704505E0,4.666275E0,1.6899052E0,3.055783E0,1.3261681E0,3.7555332E0,1.9320946E0,1.174999E0,1.2220447E0,2.7441683E0,0E0,1.8944666E0,0E0,2.9648602E0,3.3414078E-1,6.917888E-1,0E0,0E0,0E0,0E0,1.359259E0,0E0,2.3501391E0,0E0,5.988002E-2,0E0,0E0,2.9054642E-2,0E0,0E0,0E0,0E0,0E0,0E0,0E0,0E0,0E0,0E0],"parents":[2147483647,0,0,1,1,2,2,3,3,4,4,5,5,6,6,7,7,8,8,9,9,10,10,12,12,14,14,15,15,16,16,21,21,23,23,25,25,28,28],"right_children":[2,4,6,8,10,12,14,16,18,20,22,-1,24,-1,26,28,30,-1,-1,-1,-1,32,-1,34,-1,36,-1,-1,38,-1,-1,-1,-1,-1,-1,-1,-1,-1,-1],"split_conditions":[1E0,3E0,2E0,1.8E0,5.2E1,1E0,4E-1,6.1E1,1E0,2.12E2,1.56E2,-3.700047E-1,1E0,2.8184104E-1,2.57E2,1.1E2,1E0,1.5997417E-1,-1.3904351E-1,-2.3741256E-2,-3.6679476E-1,7E-1,2.9923382E-1,6.4E1,1.3854729E-1,1.34E2,1.6344213E-1,7.174122E-2,1.44E2,-5.297545E-2,1.6331354E-1,9.466641E-2,-2.057812E-1,-3.139031E-1,8.01336E-2,-3.3070984E-1,-8.705363E-2,3.4659493E-1,1.0782663E-1],"split_indices":[11,12,2,9,0,6,9,0,6,4,7,0,2,0,4,3,2,0,0,0,0,9,0,0,0,3,0,0,3,0,0,0,0,0,0,0,0,0,0],"split_type":[0,0,0,0,0,0,0,0,0,0,0,0,0,0,0,0,0,0,0,0,0,0,0,0,0,0,0,0,0,0,0,0,0,0,0,0,0,0,0],"sum_hessian":[4.869864E1,2.8827843E1,1.9870798E1,1.9804413E1,9.02343E0,1.37775E1,6.0932965E0,1.7068398E1,2.7360156E0,3.5720432E0,5.451387E0,7.423159E0,6.3543415E0,2.0835323E0,4.009764E0,1.3484281E1,3.584117E0,1.3462721E0,1.3897434E0,1.5711671E0,2.0008762E0,3.6912498E0,1.7601371E0,5.3497343E0,1.0046067E0,2.75005E0,1.2597144E0,1.1115648E0,1.2372716E1,2.0640452E0,1.5200717E0,1.6346622E0,2.0565877E0,3.9461756E0,1.403559E0,1.6825596E0,1.0674903E0,1.117848E1,1.1942356E0],"tree_param":{"num_deleted":"0","num_feature":"13","num_nodes":"39","size_leaf_vector":"1"}},{"base_weights":[9.823553E-3,3.8995466E-1,-5.4518574E-1,6.73263E-1,-2.5652155E-1,1.5711248E-1,-7.9082483E-1,1.000861E0,4.001035E-1,-5.8603203E-1,5.098532E-1,-4.1372105E-1,2.029454E-1,4.8912644E-2,-8.918061E-1,3.2047606E-1,9.858186E-2,-2.2077723E-1,5.7878834E-1,-1.9516723E-2,-2.817809E-1,2.3535246E-1,3.7852335E-3,-2.2729848E-1,2.7533274E-2,-3.364906E-1,-3.2586083E-1,-5.8435287E-2,7.126052E-1,-1.413321E-1,1.2324972E-1,8.102108E-2,-2.4431829E-1,9.013231E-2,2.774869E-1],"categories":[],"categories_nodes":[],"categories_segments":[],"categories_sizes":[],"default_left":[0,0,0,0,0,0,0,0,0,0,0,0,0,0,0,0,0,0,0,0,0,0,0,0,0,0,0,0,0,0,0,0,0,0,0],"id":4,"left_children":[1,3,5,7,9,11,13,15,17,19,21,23,-1,-1,25,-1,-1,-1,27,29,-1,-1,-1,-1,-1,31,-1,-1,33,-1,-1,-1,-1,-1,-1],"loss_changes":[9.639291E0,5.1364055E0,3.329482E0,1.3104877E0,2.567007E0,1.954616E0,1.4872675E0,1.2649536E-2,2.8805122E0,1.3317521E0,4.3196392E-1,6.4529747E-1,0E0,0E0,1.0110874E0,0E0,0E0,0E0,1.2783532E0,8.9556205E-1,0E0,0E0,0E0,0E0,0E0,1.5984066E0,0E0,0E0,5.622916E-1,0E0,0E0,0E0,0E0,0E0,0E0],"parents":[2147483647,0,0,1,1,2,2,3,3,4,4,5,5,6,6,7,7,8,8,9,9,10,10,11,11,14,14,18,18,19,19,25,25,28,28],"right_children":[2,4,6,8,10,12,14,16,18,20,22,24,-1,-1,26,-1,-1,-1,28,30,-1,-1,-1,-1,-1,32,-1,-1,34,-1,-1,-1,-1,-1,-1],"split_conditions":[1E0,1E0,1E0,1E0,2E0,2E0,4.5E1,3.15E2,1.33E2,1E0,2.34E2,2.37E2,2.029454E-1,4.8912644E-2,6E-1,3.2047606E-1,9.858186E-2,-2.2077723E-1,1.12E2,1.47E2,-2.817809E-1,2.3535246E-1,3.7852335E-3,-2.2729848E-1,2.7533274E-2,1.55E2,-3.2586083E-1,-5.8435287E-2,1.61E2,-1.413321E-1,1.2324972E-1,8.102108E-2,-2.4431829E-1,9.013231E-2,2.774869E-1],"split_indices":[11,8,1,1,10,10,0,4,7,6,4,4,0,0,9,0,0,0,3,7,0,0,0,0,0,7,0,0,7,0,0,0,0,0,0],"split_type":[0,0,0,0,0,0,0,0,0,0,0,0,0,0,0,0,0,0,0,0,0,0,0,0,0,0,0,0,0,0,0,0,0,0,0],"sum_hessian":[4.368129E1,2.610151E1,1.7579779E1,1.8119486E1,7.9820232E0,4.6488395E0,1.293094E1,7.027474E0,1.1092011E1,5.7465544E0,2.235469E0,2.3116086E0,2.3372307E0,1.1790533E0,1.1751886E1,5.8517814E0,1.1756923E0,1.0836854E0,1.0008326E1,2.6122813E0,3.1342728E0,1.0678748E0,1.1675943E0,1.078773E0,1.2328357E0,3.755327E0,7.9965596E0,1.4087833E0,8.599543E0,1.2284689E0,1.3838125E0,1.84655E0,1.9087769E0,3.7451675E0,4.854375E0],"tree_param":{"num_deleted":"0","num_feature":"13","num_nodes":"35","size_leaf_vector":"1"}},{"base_weights":[8.898675E-3,3.370151E-1,-4.9810556E-1,6.0561305E-1,-1.7104082E-1,-7.909121E-1,2.7743846E-2,3.1084904E-1,9.2313E-1,3.7798017E-1,-5.5004984E-1,-2.6474947E-1,-3.0900308E-1,-1.7017832E-1,2.290948E-1,7.226557E-1,-7.313355E-2,3.0214378E-1,5.6385454E-2,-1.19788505E-1,2.610734E-1,3.4628518E-2,-2.5551066E-1,-1.9948079E-1,1.3557668E-1,5.443853E-1,-1.039912E-1,2.871945E-1,9.020311E-3,3.4257364E-1,-4.7245175E-1,8.1103735E-2,-1.3315889E-1,8.3553344E-2,-2.3280628E-2,3.071463E-1,-8.981013E-2,2.3254845E-1,-5.642056E-2,-2.0364301E-1,-1.718019E-2],"categories":[],"categories_nodes":[],"categories_segments":[],"categories_sizes":[],"default_left":[0,0,0,0,0,0,0,0,0,0,0,0,0,0,0,0,0,0,0,0,0,0,0,0,0,0,0,0,0,0,0,0,0,0,0,0,0,0,0,0,0],"id":5,"left_children":[1,3,5,7,9,11,13,15,17,19,21,23,-1,-1,25,27,29,-1,-1,31,-1,-1,-1,-1,33,35,-1,-1,-1,37,39,-1,-1,-1,-1,-1,-1,-1,-1,-1,-1],"loss_changes":[6.909495E0,3.542366E0,2.5356588E0,1.2764797E0,2.18361E0,1.050827E0,9.452654E-1,1.6610624E0,2.7607203E-1,1.1996381E0,1.3076596E0,8.323761E-1,0E0,0E0,1.2409877E0,7.837138E-1,1.1862495E0,0E0,0E0,5.1216066E-1,0E0,0E0,0E0,0E0,1.1749551E-1,1.9791013E0,0E0,0E0,0E0,9.7289187E-1,2.6681423E-1,0E0,0E0,0E0,0E0,0E0,0E0,0E0,0E0,0E0,0E0],"parents":[2147483647,0,0,1,1,2,2,3,3,4,4,5,5,6,6,7,7,8,8,9,9,10,10,11,11,14,14,15,15,16,16,19,19,24,24,25,25,29,29,30,30],"right_children":[2,4,6,8,10,12,14,16,18,20,22,24,-1,-1,26,28,30,-1,-1,32,-1,-1,-1,-1,34,36,-1,-1,-1,38,40,-1,-1,-1,-1,-1,-1,-1,-1,-1,-1],"split_conditions":[3E0,1E0,1E0,1.61E2,1E0,6E-1,1.42E2,1E0,3.04E2,6.4E1,5.5E1,5.3E1,-3.0900308E-1,-1.7017832E-1,1.64E2,2.66E2,2.27E2,3.0214378E-1,5.6385454E-2,5.8E1,2.610734E-1,3.4628518E-2,-2.5551066E-1,-1.9948079E-1,1.57E2,1.26E2,-1.039912E-1,2.871945E-1,9.020311E-3,1.32E2,1.42E2,8.1103735E-2,-1.3315889E-1,8.3553344E-2,-2.3280628E-2,3.071463E-1,-8.981013E-2,2.3254845E-1,-5.642056E-2,-2.0364301E-1,-1.718019E-2],"split_indices":[12,11,2,7,1,9,7,6,4,0,0,0,0,0,7,4,4,0,0,0,0,0,0,0,7,3,0,0,0,7,3,0,0,0,0,0,0,0,0,0,0],"split_type":[0,0,0,0,0,0,0,0,0,0,0,0,0,0,0,0,0,0,0,0,0,0,0,0,0,0,0,0,0,0,0,0,0,0,0,0,0,0,0,0,0],"sum_hessian":[3.9525196E1,2.4199413E1,1.5325781E1,1.5704678E1,8.494736E0,9.520471E0,5.8053107E0,9.170409E0,6.5342674E0,3.4703734E0,5.0243626E0,3.6329756E0,5.887495E0,1.0083367E0,4.796974E0,3.9993057E0,5.171104E0,5.5321245E0,1.0021431E0,2.1017656E0,1.3686078E0,1.7596741E0,3.2646887E0,1.4862543E0,2.1467214E0,3.134734E0,1.66224E0,2.7017002E0,1.2976056E0,2.6031833E0,2.5679207E0,1.028911E0,1.0728548E0,1.1016245E0,1.0450968E0,1.8628272E0,1.2719067E0,1.1802369E0,1.4229463E0,1.2911988E0,1.2767218E0],"tree_param":{"num_deleted":"0","num_feature":"13","num_nodes":"41","size_leaf_vector":"1"}},{"base_weights":[1.09309405E-2,-3.8100463E-1,3.5273153E-1,-3.596625E-2,-7.630784E-1,7.8691053E-1,1.0785694E-1,1.9545072E-1,-2.5356027E-1,-2.886107E-1,-1.763227E-1,2.642037E-1,2.8473163E-1,2.0872127E-1,-7.539859E-2,-2.5429764E-1,1.3393639E-1,-1.7396767E-1,7.810563E-2,-6.861273E-2,1.8389872E-1,-2.8365362E-1,4.3557426E-1,-3.0711806E-1,4.7586885E-1,-2.3695275E-1,-6.504341E-2,2.1631841E-1,-4.0083837E-2,3.723325E-2,-1.7786323E-1,2.2534049E-1,2.1779073E-2,1.7507811E-1,-1.2817413E-1],"categories":[],"categories_nodes":[],"categories_segments":[],"categories_sizes":[],"default_left":[0,0,0,0,0,0,0,0,0,0,0,0,0,0,0,0,0,0,0,0,0,0,0,0,0,0,0,0,0,0,0,0,0,0,0],"id":6,"left_children":[1,3,5,7,9,11,13,-1,15,-1,17,19,-1,-1,21,-1,23,-1,-1,-1,-1,25,27,29,31,-1,33,-1,-1,-1,-1,-1,-1,-1,-1],"loss_changes":[5.06995E0,2.2984698E0,2.062692E0,1.7090188E0,8.019738E-1,3.5332203E-1,1.5686791E0,0E0,2.083921E0,0E0,7.381542E-1,6.685399E-1,0E0,0E0,1.361302E0,0E0,1.0576203E0,0E0,0E0,0E0,0E0,9.300791E-1,7.077095E-1,4.737163E-1,3.6693084E-1,0E0,1.9606054E0,0E0,0E0,0E0,0E0,0E0,0E0,0E0,0E0],"parents":[2147483647,0,0,1,1,2,2,3,3,4,4,5,5,6,6,8,8,10,10,11,11,14,14,16,16,21,21,22,22,23,23,24,24,26,26],"right_children":[2,4,6,8,10,12,14,-1,16,-1,18,20,-1,-1,22,-1,24,-1,-1,-1,-1,26,28,30,32,-1,34,-1,-1,-1,-1,-1,-1,-1,-1],"split_conditions":[1E0,1E0,1E0,1.17E2,6.4E1,2E0,4.5E1,1.9545072E-1,1.37E2,-2.886107E-1,1E0,1E0,2.8473163E-1,2.0872127E-1,1E0,-2.5429764E-1,5.4E1,-1.7396767E-1,7.810563E-2,-6.861273E-2,1.8389872E-1,5E1,2.44E2,1E0,2.4E2,-2.3695275E-1,5.7E1,2.1631841E-1,-4.0083837E-2,3.723325E-2,-1.7786323E-1,2.2534049E-1,2.1779073E-2,1.7507811E-1,-1.2817413E-1],"split_indices":[2,11,1,3,0,2,0,0,7,0,6,6,0,0,5,0,0,0,0,0,0,0,4,6,4,0,0,0,0,0,0,0,0,0,0],"split_type":[0,0,0,0,0,0,0,0,0,0,0,0,0,0,0,0,0,0,0,0,0,0,0,0,0,0,0,0,0,0,0,0,0,0,0],"sum_hessian":[3.584247E1,1.6643274E1,1.9199192E1,9.320432E0,7.3228436E0,6.1252294E0,1.3073963E1,1.7613828E0,7.5590487E0,4.990933E0,2.3319104E0,2.073114E0,4.0521154E0,2.4423628E0,1.0631601E1,2.5152369E0,5.043812E0,1.041446E0,1.2904645E0,1.0017389E0,1.0713751E0,7.8692427E0,2.7623584E0,2.2471097E0,2.7967021E0,1.585356E0,6.2838864E0,1.6619484E0,1.1004099E0,1.1210521E0,1.1260576E0,1.1494839E0,1.6472182E0,2.0326214E0,4.251265E0],"tree_param":{"num_deleted":"0","num_feature":"13","num_nodes":"35","size_leaf_vector":"1"}},{"base_weights":[1.6489899E-2,2.7645728E-1,-3.877274E-1,4.9545532E-1,-1.3745275E-1,-6.4682084E-1,1.943508E-2,-5.054802E-2,6.1196023E-1,2.9462007E-1,-4.4037753E-1,3.3111688E-2,-7.7320665E-1,1.9696638E-1,-1.139712E-1,1.2580726E-1,-1.729775E-1,7.090075E-1,1.1123895E-2,-3.660457E-2,2.1719392E-1,3.551219E-2,-2.1413735E-1,-2.7817056E-1,-6.464479E-2,-2.6399887E-1,2.1391329E-1,8.026103E-1,1.4681625E-2,2.0344436E-2,-1.563799E-1,4.7078263E-2,2.6035047E-1],"categories":[],"categories_nodes":[],"categories_segments":[],"categories_sizes":[],"default_left":[0,0,0,0,0,0,0,0,0,0,0,0,0,0,0,0,0,0,0,0,0,0,0,0,0,0,0,0,0,0,0,0,0],"id":7,"left_children":[1,3,5,7,9,11,13,15,17,19,21,-1,23,25,-1,-1,-1,27,-1,-1,-1,-1,-1,-1,-1,29,-1,31,-1,-1,-1,-1,-1],"loss_changes":[3.6505122E0,1.9811723E0,1.4487753E0,9.227388E-1,1.1880245E0,8.8433456E-1,5.1899487E-1,1.0795473E0,6.225748E-1,7.916392E-1,8.718689E-1,0E0,4.255681E-1,1.3766644E0,0E0,0E0,0E0,5.7210016E-1,0E0,0E0,0E0,0E0,0E0,0E0,0E0,3.2290006E-1,0E0,2.2605896E-1,0E0,0E0,0E0,0E0,0E0],"parents":[2147483647,0,0,1,1,2,2,3,3,4,4,5,5,6,6,7,7,8,8,9,9,10,10,12,12,13,13,17,17,25,25,27,27],"right_children":[2,4,6,8,10,12,14,16,18,20,22,-1,24,26,-1,-1,-1,28,-1,-1,-1,-1,-1,-1,-1,30,-1,32,-1,-1,-1,-1,-1],"split_conditions":[3E0,1E0,1E0,1.37E2,1E0,1.12E2,1.66E2,2.27E2,1.8E0,6.4E1,5.5E1,3.3111688E-2,1.61E2,1.51E2,-1.139712E-1,1.2580726E-1,-1.729775E-1,3.26E2,1.1123895E-2,-3.660457E-2,2.1719392E-1,3.551219E-2,-2.1413735E-1,-2.7817056E-1,-6.464479E-2,1.46E2,2.1391329E-1,1.14E2,1.4681625E-2,2.0344436E-2,-1.563799E-1,4.7078263E-2,2.6035047E-1],"split_indices":[12,11,2,7,1,7,7,4,9,0,0,0,7,7,0,0,0,4,0,0,0,0,0,0,0,7,0,3,0,0,0,0,0],"split_type":[0,0,0,0,0,0,0,0,0,0,0,0,0,0,0,0,0,0,0,0,0,0,0,0,0,0,0,0,0,0,0,0,0],"sum_hessian":[3.2719173E1,2.0104975E1,1.2614198E1,1.3019434E1,7.08554E0,7.3490825E0,5.2651157E0,2.3890798E0,1.0630354E1,2.931561E0,4.153979E0,1.0693249E0,6.2797575E0,3.9955928E0,1.2695229E0,1.3689921E0,1.0200878E0,8.895386E0,1.7349685E0,1.8511204E0,1.0804408E0,1.5511272E0,2.6028516E0,4.4016147E0,1.8781427E0,2.3684893E0,1.6271036E0,7.601487E0,1.2938985E0,1.3559895E0,1.0124997E0,1.0099143E0,6.591573E0],"tree_param":{"num_deleted":"0","num_feature":"13","num_nodes":"33","size_leaf_vector":"1"}},{"base_weights":[1.1727344E-2,-2.9841322E-1,2.7571854E-1,-2.009599E-2,-6.523918E-1,6.732412E-1,7.1059436E-2,1.718621E-1,-2.1697028E-1,-2.5801083E-1,-3.699562E-2,5.969434E-2,2.5314963E-1,1.7385082E-1,-7.882128E-2,2.023147E-1,-6.219327E-1,-2.6445472E-1,3.843472E-1,-5.241715E-2,1.3943824E-1,-2.4693419E-1,-7.228115E-2,-2.1017954E-1,-5.7783958E-2,1.7963271E-1,-1.5707435E-2,-1.3470739E-1,1.1154928E-1,7.208063E-2,-1.15005806E-1],"categories":[],"categories_nodes":[],"categories_segments":[],"categories_sizes":[],"default_left":[0,0,0,0,0,0,0,0,0,0,0,0,0,0,0,0,0,0,0,0,0,0,0,0,0,0,0,0,0,0,0],"id":8,"left_children":[1,3,5,7,9,11,13,-1,15,-1,-1,-1,-1,-1,17,19,21,23,25,27,-1,-1,-1,-1,29,-1,-1,-1,-1,-1,-1],"loss_changes":[2.6415312E0,1.4501919E0,1.3681884E0,1.2154698E0,6.086941E-1,3.0112624E-1,1.006467E0,0E0,1.44046E0,0E0,0E0,0E0,0E0,0E0,1.014545E0,3.2915455E-1,1.22378945E-1,6.961406E-1,3.539948E-1,7.07422E-1,0E0,0E0,0E0,0E0,7.3591E-1,0E0,0E0,0E0,0E0,0E0,0E0],"parents":[2147483647,0,0,1,1,2,2,3,3,4,4,5,5,6,6,8,8,14,14,15,15,16,16,17,17,18,18,19,19,24,24],"right_children":[2,4,6,8,10,12,14,-1,16,-1,-1,-1,-1,-1,18,20,22,24,26,28,-1,-1,-1,-1,30,-1,-1,-1,-1,-1,-1],"split_conditions":[1E0,1E0,1E0,1.17E2,6.4E1,2E0,4.5E1,1.718621E-1,7E-1,-2.5801083E-1,-3.699562E-2,5.969434E-2,2.5314963E-1,1.7385082E-1,1E0,1E-1,1.38E2,1.42E2,2.44E2,1.34E2,1.3943824E-1,-2.4693419E-1,-7.228115E-2,-2.1017954E-1,1.57E2,1.7963271E-1,-1.5707435E-2,-1.3470739E-1,1.1154928E-1,7.208063E-2,-1.15005806E-1],"split_indices":[2,11,1,3,0,2,0,0,9,0,0,0,0,0,5,9,3,7,4,3,0,0,0,0,7,0,0,0,0,0,0],"split_type":[0,0,0,0,0,0,0,0,0,0,0,0,0,0,0,0,0,0,0,0,0,0,0,0,0,0,0,0,0,0,0],"sum_hessian":[3.0258293E1,1.3853094E1,1.6405201E1,8.347E0,5.506094E0,4.7973742E0,1.1607825E1,1.6045072E0,6.7424927E0,3.5049574E0,2.0011363E0,1.8422242E0,2.9551504E0,1.9901557E0,9.61767E0,3.5585237E0,3.183969E0,7.1721663E0,2.4455035E0,2.212058E0,1.3464655E0,1.3242705E0,1.8596985E0,1.5375345E0,5.634632E0,1.3912563E0,1.0542471E0,1.1130885E0,1.0989697E0,3.0784059E0,2.556226E0],"tree_param":{"num_deleted":"0","num_feature":"13","num_nodes":"31","size_leaf_vector":"1"}},{"base_weights":[1.1191373E-2,-2.4129805E-1,2.9196885E-1,2.2014664E-1,-4.436297E-1,-1.2032483E-1,5.700917E-1,1.7698507E-1,-6.2049754E-2,-5.744986E-1,5.9779976E-2,2.423011E-1,-5.5329907E-1,2.3827697E-1,2.7626416E-1,-2.1397515E-1,1.1624375E-1,-2.0453975E-1,-2.7193692E-1,-1.1544483E-1,1.6573815E-1,-2.0641823E-1,-4.4821687E-2,2.2569476E-1,-1.3126938E-1,1.10013805E-1,-3.9802417E-1,-1.0829496E-1,6.0426336E-2,3.61507E-2,-1.9054006E-1],"categories":[],"categories_nodes":[],"categories_segments":[],"categories_sizes":[],"default_left":[0,0,0,0,0,0,0,0,0,0,0,0,0,0,0,0,0,0,0,0,0,0,0,0,0,0,0,0,0,0,0],"id":9,"left_children":[1,3,5,7,9,11,13,-1,15,17,-1,19,21,-1,23,-1,-1,25,-1,-1,-1,-1,-1,-1,27,-1,29,-1,-1,-1,-1],"loss_changes":[2.1396024E0,1.5835702E0,1.7051153E0,6.1261153E-1,1.07324E0,1.1663693E0,3.534038E-1,0E0,1.4576756E0,1.009011E0,0E0,1.0438304E0,7.6887965E-2,0E0,1.1264075E0,0E0,0E0,7.970805E-1,0E0,0E0,0E0,0E0,0E0,0E0,3.5588235E-1,0E0,6.7652327E-1,0E0,0E0,0E0,0E0],"parents":[2147483647,0,0,1,1,2,2,3,3,4,4,5,5,6,6,8,8,9,9,11,11,12,12,14,14,17,17,24,24,26,26],"right_children":[2,4,6,8,10,12,14,-1,16,18,-1,20,22,-1,24,-1,-1,26,-1,-1,-1,-1,-1,-1,28,-1,30,-1,-1,-1,-1],"split_conditions":[2E0,7E-1,1E0,5.5E1,3E0,2.69E2,2.22E2,1.7698507E-1,5.8E1,3E0,5.9779976E-2,1.2E2,1.38E2,2.3827697E-1,1E0,-2.1397515E-1,1.1624375E-1,1.17E2,-2.7193692E-1,-1.1544483E-1,1.6573815E-1,-2.0641823E-1,-4.4821687E-2,2.2569476E-1,2E-1,1.10013805E-1,1E0,-1.0829496E-1,6.0426336E-2,3.61507E-2,-1.9054006E-1],"split_indices":[10,9,6,0,2,4,4,0,0,12,0,3,3,0,1,0,0,3,0,0,0,0,0,0,9,0,1,0,0,0,0],"split_type":[0,0,0,0,0,0,0,0,0,0,0,0,0,0,0,0,0,0,0,0,0,0,0,0,0,0,0,0,0,0,0],"sum_hessian":[2.818682E1,1.4915051E1,1.3271767E1,4.5195527E0,1.0395498E1,5.5748663E0,7.696901E0,1.4841223E0,3.0354307E0,8.7256775E0,1.6698211E0,3.2735622E0,2.3013043E0,3.3999197E0,4.296981E0,1.0000569E0,2.0353737E0,4.8909717E0,3.8347056E0,1.0036198E0,2.2699423E0,1.1980101E0,1.1032941E0,1.5916762E0,2.7053049E0,1.0109342E0,3.8800375E0,1.5500176E0,1.1552873E0,1.371825E0,2.5082126E0],"tree_param":{"num_deleted":"0","num_feature":"13","num_nodes":"31","size_leaf_vector":"1"}},{"base_weights":[9.4684735E-3,2.1115512E-1,-3.143326E-1,-1.9880837E-2,5.7826024E-1,-5.8908725E-1,2.9213144E-2,-1.6502601E-1,8.702355E-2,-4.521407E-3,7.050539E-1,-2.513024E-1,-7.6638676E-2,-2.2349729E-1,1.2608427E-1,3.8746044E-1,-1.9484897E-1,2.4578616E-1,3.0675232E-2,-5.0099317E-2,1.5465644E-2,4.3051362E-2,-1.802167E-1,6.355172E-1,-3.8793243E-2,9.231366E-2,-5.1151806E-1,4.5524687E-2,2.2662392E-1,-2.1046108E-1,2.4812928E-4],"categories":[],"categories_nodes":[],"categories_segments":[],"categories_sizes":[],"default_left":[0,0,0,0,0,0,0,0,0,0,0,0,0,0,0,0,0,0,0,0,0,0,0,0,0,0,0,0,0,0,0],"id":10,"left_children":[1,3,5,7,9,11,13,-1,15,-1,17,-1,19,21,-1,23,25,-1,-1,-1,-1,-1,-1,27,-1,-1,29,-1,-1,-1,-1],"loss_changes":[1.8548572E0,1.4934802E0,1.0472801E0,7.1052325E-1,5.2087E-1,7.142372E-1,6.6733485E-1,0E0,9.7252786E-1,0E0,3.0247307E-1,0E0,4.4479188E-2,6.6452974E-1,0E0,7.8235245E-1,1.1330464E0,0E0,0E0,0E0,0E0,0E0,0E0,1.0923159E-1,0E0,0E0,4.032817E-1,0E0,0E0,0E0,0E0],"parents":[2147483647,0,0,1,1,2,2,3,3,4,4,5,5,6,6,8,8,10,10,12,12,13,13,15,15,16,16,23,23,26,26],"right_children":[2,4,6,8,10,12,14,-1,16,-1,18,-1,20,22,-1,24,26,-1,-1,-1,-1,-1,-1,28,-1,-1,30,-1,-1,-1,-1],"split_conditions":[1E0,1.61E2,1E0,4.5E1,4.1E1,2E0,2.61E2,-1.6502601E-1,1E0,-4.521407E-3,2.84E2,-2.513024E-1,2.45E2,5E-1,1.2608427E-1,2.71E2,2.27E2,2.4578616E-1,3.0675232E-2,-5.0099317E-2,1.5465644E-2,4.3051362E-2,-1.802167E-1,2.13E2,-3.8793243E-2,9.231366E-2,2.65E2,4.5524687E-2,2.2662392E-1,-2.1046108E-1,2.4812928E-4],"split_indices":[11,7,6,0,0,2,4,0,6,0,4,0,4,9,0,4,4,0,0,0,0,0,0,4,0,0,4,0,0,0,0],"split_type":[0,0,0,0,0,0,0,0,0,0,0,0,0,0,0,0,0,0,0,0,0,0,0,0,0,0,0,0,0,0,0],"sum_hessian":[2.638607E1,1.6473238E1,9.912833E0,1.0690846E1,5.782391E0,5.1107364E0,4.802097E0,1.0982653E0,9.592581E0,1.173258E0,4.6091332E0,3.0140018E0,2.0967345E0,3.1773608E0,1.6247361E0,4.4620557E0,5.130525E0,3.572923E0,1.0362103E0,1.052278E0,1.0444565E0,1.9245484E0,1.2528124E0,2.8596182E0,1.6024375E0,1.9941106E0,3.1364148E0,1.017952E0,1.8416662E0,2.0185192E0,1.1178954E0],"tree_param":{"num_deleted":"0","num_feature":"13","num_nodes":"31","size_leaf_vector":"1"}},{"base_weights":[4.874922E-3,-2.602726E-1,2.1868326E-1,-3.9925995E-1,1.6713867E-1,5.9097135E-1,4.480004E-2,-1.723682E-1,-2.2719583E-1,1.4865749E-1,-9.454167E-2,5.5099487E-2,2.2132345E-1,1.34466E-1,-7.087911E-2,1.1760048E-1,-3.6182556E-1,-2.3697245E-1,3.4650794E-1,-6.7655843E-1,5.676221E-2,-1.852782E-1,-5.6426536E-2,8.581941E-3,1.4758752E-1,-6.713288E-2,-2.4554633E-1,1.6881366E-1,-9.459161E-2],"categories":[],"categories_nodes":[],"categories_segments":[],"categories_sizes":[],"default_left":[0,0,0,0,0,0,0,0,0,0,0,0,0,0,0,0,0,0,0,0,0,0,0,0,0,0,0,0,0],"id":11,"left_children":[1,3,5,7,9,11,13,15,-1,-1,-1,-1,-1,-1,17,-1,19,21,23,25,-1,-1,27,-1,-1,-1,-1,-1,-1],"loss_changes":[1.5267478E0,7.81407E-1,9.378483E-1,6.3097465E-1,7.3534214E-1,1.4311862E-1,5.561233E-1,8.9376664E-1,0E0,0E0,0E0,0E0,0E0,0E0,7.4732745E-1,0E0,1.1312861E0,4.776598E-1,1.3100633E-1,6.749952E-2,0E0,0E0,1.1646091E0,0E0,0E0,0E0,0E0,0E0,0E0],"parents":[2147483647,0,0,1,1,2,2,3,3,4,4,5,5,6,6,7,7,14,14,16,16,17,17,18,18,19,19,22,22],"right_children":[2,4,6,8,10,12,14,16,-1,-1,-1,-1,-1,-1,18,-1,20,22,24,26,-1,-1,28,-1,-1,-1,-1,-1,-1],"split_conditions":[1E0,6.4E1,1E0,1E0,6.7E1,2E0,4.5E1,1.17E2,-2.2719583E-1,1.4865749E-1,-9.454167E-2,5.5099487E-2,2.2132345E-1,1.34466E-1,1E0,1.1760048E-1,1.57E2,5E1,1.4E2,1E0,5.676221E-2,-1.852782E-1,1.2E2,8.581941E-3,1.4758752E-1,-6.713288E-2,-2.4554633E-1,1.6881366E-1,-9.459161E-2],"split_indices":[2,0,1,11,0,2,0,3,0,0,0,0,0,0,5,0,7,0,3,6,0,0,3,0,0,0,0,0,0],"split_type":[0,0,0,0,0,0,0,0,0,0,0,0,0,0,0,0,0,0,0,0,0,0,0,0,0,0,0,0,0],"sum_hessian":[2.492717E1,1.1030604E1,1.38965645E1,8.373529E0,2.6570747E0,3.660557E0,1.0236008E1,6.032382E0,2.3411477E0,1.564397E0,1.0926777E0,1.5660398E0,2.0945175E0,1.6404418E0,8.595566E0,1.2474144E0,4.7849674E0,6.457959E0,2.1376069E0,2.9004946E0,1.8844728E0,1.298917E0,5.159042E0,1.0466617E0,1.090945E0,1.3071393E0,1.5933554E0,1.1750715E0,3.9839706E0],"tree_param":{"num_deleted":"0","num_feature":"13","num_nodes":"29","size_leaf_vector":"1"}},{"base_weights":[9.232227E-3,1.9461438E-1,-2.7281305E-1,4.8302707E-1,-5.2372437E-2,-4.812521E-1,4.0391338E-4,-4.258918E-3,2.3985039E-1,-3.044636E-1,3.039727E-1,7.6784315E-3,-5.960609E-1,1.7953451E-1,-1.05780795E-1,9.8085634E-2,-1.0736547E-1,1.6034068E-1,-6.495443E-1,-3.090485E-2,1.5087122E-1,-4.3087542E-2,-2.2467534E-1,-4.4812396E-2,1.5919772E-1,1.15973584E-1,-3.49318E-2,-2.3954436E-1,-4.504094E-2],"categories":[],"categories_nodes":[],"categories_segments":[],"categories_sizes":[],"default_left":[0,0,0,0,0,0,0,0,0,0,0,0,0,0,0,0,0,0,0,0,0,0,0,0,0,0,0,0,0],"id":12,"left_children":[1,3,5,7,9,11,13,15,-1,17,19,-1,21,23,-1,-1,-1,25,27,-1,-1,-1,-1,-1,-1,-1,-1,-1,-1],"loss_changes":[1.3313987E0,1.1177225E0,5.7609487E-1,1.1094826E0,9.157031E-1,3.491025E-1,4.03215E-1,5.6428385E-1,0E0,1.0450754E0,3.9970532E-1,0E0,2.187761E-1,5.676124E-1,0E0,0E0,0E0,2.5175136E-1,1.4526498E-1,0E0,0E0,0E0,0E0,0E0,0E0,0E0,0E0,0E0,0E0],"parents":[2147483647,0,0,1,1,2,2,3,3,4,4,5,5,6,6,7,7,9,9,10,10,12,12,13,13,17,17,18,18],"right_children":[2,4,6,8,10,12,14,16,-1,18,20,-1,22,24,-1,-1,-1,26,28,-1,-1,-1,-1,-1,-1,-1,-1,-1,-1],"split_conditions":[3E0,5.6E1,1E0,1.57E2,1.4E2,1.22E2,1.66E2,7E-1,2.3985039E-1,1.22E2,1E-1,7.6784315E-3,2.12E2,1.51E2,-1.05780795E-1,9.8085634E-2,-1.0736547E-1,1E0,6.2E1,-3.090485E-2,1.5087122E-1,-4.3087542E-2,-2.2467534E-1,-4.4812396E-2,1.5919772E-1,1.15973584E-1,-3.49318E-2,-2.3954436E-1,-4.504094E-2],"split_indices":[12,0,2,7,3,7,7,9,0,3,9,0,4,7,0,0,0,9,0,0,0,0,0,0,0,0,0,0,0],"split_type":[0,0,0,0,0,0,0,0,0,0,0,0,0,0,0,0,0,0,0,0,0,0,0,0,0,0,0,0,0],"sum_hessian":[2.3448252E1,1.43357E1,9.112551E0,6.1723795E0,8.163321E0,4.7371325E0,4.3754187E0,2.8187687E0,3.3536105E0,4.8663125E0,3.2970085E0,1.0183747E0,3.718758E0,3.228535E0,1.1468835E0,1.4944632E0,1.3243057E0,2.3015742E0,2.5647383E0,1.2407469E0,2.0562615E0,1.4289284E0,2.2898297E0,1.9636786E0,1.2648563E0,1.048136E0,1.2534382E0,1.5142825E0,1.0504557E0],"tree_param":{"num_deleted":"0","num_feature":"13","num_nodes":"29","size_leaf_vector":"1"}},{"base_weights":[4.2144535E-3,1.6495056E-1,-2.5798935E-1,-8.000315E-3,4.5619658E-1,-5.1103395E-1,5.8212742E-2,-2.7280745E-1,1.284992E-1,-2.3401933E-2,5.954676E-1,-8.991473E-3,-6.7262137E-1,2.9739174E-1,-9.1210485E-2,-1.16266105E-2,-1.2614349E-1,-1.7483741E-1,2.9583254E-1,2.1067609E-1,3.5331182E-2,-2.4127272E-1,-5.3147864E-2,1.368539E-3,1.4960435E-1,7.7498764E-2,-1.564458E-1,1.648503E-1,3.9360225E-2,1.05733246E-1,-1.1853414E-1],"categories":[],"categories_nodes":[],"categories_segments":[],"categories_sizes":[],"default_left":[0,0,0,0,0,0,0,0,0,0,0,0,0,0,0,0,0,0,0,0,0,0,0,0,0,0,0,0,0,0,0],"id":13,"left_children":[1,3,5,7,9,11,13,15,17,-1,19,-1,21,23,-1,-1,-1,25,27,-1,-1,-1,-1,-1,-1,-1,-1,-1,29,-1,-1],"loss_changes":[1.017471E0,7.5674224E-1,7.643687E-1,4.096445E-1,4.6216452E-1,3.8422668E-1,5.2181065E-1,1.16601825E-1,4.333282E-1,0E0,1.492927E-1,0E0,1.08430624E-1,2.0429054E-1,0E0,0E0,0E0,6.3043875E-1,3.1776506E-1,0E0,0E0,0E0,0E0,0E0,0E0,0E0,0E0,0E0,6.386337E-1,0E0,0E0],"parents":[2147483647,0,0,1,1,2,2,3,3,4,4,5,5,6,6,7,7,8,8,10,10,12,12,13,13,17,17,18,18,28,28],"right_children":[2,4,6,8,10,12,14,16,18,-1,20,-1,22,24,-1,-1,-1,26,28,-1,-1,-1,-1,-1,-1,-1,-1,-1,30,-1,-1],"split_conditions":[1E0,1.61E2,1E0,5.3E1,4.1E1,5.5E1,1.32E2,7E-1,1.37E2,-2.3401933E-2,2.69E2,-8.991473E-3,6.5E1,6.4E1,-9.1210485E-2,-1.16266105E-2,-1.2614349E-1,2.27E2,1.49E2,2.1067609E-1,3.5331182E-2,-2.4127272E-1,-5.3147864E-2,1.368539E-3,1.4960435E-1,7.7498764E-2,-1.564458E-1,1.648503E-1,1.4E0,1.05733246E-1,-1.1853414E-1],"split_indices":[11,7,6,0,0,0,3,9,7,0,4,0,0,0,0,0,0,4,7,0,0,0,0,0,0,0,0,0,9,0,0],"split_type":[0,0,0,0,0,0,0,0,0,0,0,0,0,0,0,0,0,0,0,0,0,0,0,0,0,0,0,0,0,0,0],"sum_hessian":[2.2132072E1,1.3950839E1,8.181232E0,9.363208E0,4.587631E0,4.2022047E0,3.979028E0,2.8451197E0,6.5180883E0,1.0396669E0,3.5479643E0,1.3546762E0,2.8475287E0,2.5044608E0,1.4745672E0,1.5890255E0,1.2560942E0,2.301378E0,4.2167106E0,2.5155487E0,1.0324156E0,1.7574409E0,1.0900877E0,1.4368442E0,1.0676165E0,1.1362805E0,1.1650975E0,1.5455362E0,2.6711743E0,1.6621932E0,1.0089811E0],"tree_param":{"num_deleted":"0","num_feature":"13","num_nodes":"31","size_leaf_vector":"1"}},{"base_weights":[-5.732403E-4,1.6594404E-1,-2.4700251E-1,4.2163378E-1,-4.246305E-2,-3.409071E-1,7.6317966E-2,2.3839667E-2,2.1080635E-1,-2.570793E-1,2.5933504E-1,-1.8541435E-2,-6.526298E-1,1.0312984E-1,-7.775031E-2,8.785709E-2,-4.6926638E-1,1.4799978E-1,-1.530771E-2,1.0229151E-1,-2.6766595E-1,-2.262196E-1,-6.426555E-2,-1.8421686E-1,-4.3993E-2,-1.5728049E-1,1.31217865E-2],"categories":[],"categories_nodes":[],"categories_segments":[],"categories_sizes":[],"default_left":[0,0,0,0,0,0,0,0,0,0,0,0,0,0,0,0,0,0,0,0,0,0,0,0,0,0,0],"id":14,"left_children":[1,3,5,7,9,11,-1,13,-1,15,17,19,21,-1,-1,-1,23,-1,-1,-1,25,-1,-1,-1,-1,-1,-1],"loss_changes":[9.4958246E-1,7.5389063E-1,5.2603376E-1,6.868975E-1,6.1837924E-1,8.205466E-1,0E0,4.1873884E-1,0E0,7.769002E-1,3.184092E-1,5.4828167E-1,2.4497986E-2,0E0,0E0,0E0,1.1262143E-1,0E0,0E0,0E0,3.0854413E-1,0E0,0E0,0E0,0E0,0E0,0E0],"parents":[2147483647,0,0,1,1,2,2,3,3,4,4,5,5,7,7,9,9,10,10,11,11,12,12,16,16,20,20],"right_children":[2,4,6,8,10,12,-1,14,-1,16,18,20,22,-1,-1,-1,24,-1,-1,-1,26,-1,-1,-1,-1,-1,-1],"split_conditions":[3E0,5.6E1,3E0,1.57E2,1.4E2,7E-1,7.6317966E-2,1E0,2.1080635E-1,1.14E2,2.44E2,1.48E2,1.51E2,1.0312984E-1,-7.775031E-2,8.785709E-2,1E0,1.4799978E-1,-1.530771E-2,1.0229151E-1,1E0,-2.262196E-1,-6.426555E-2,-1.8421686E-1,-4.3993E-2,-1.5728049E-1,1.31217865E-2],"split_indices":[12,0,2,7,3,9,0,6,0,3,4,7,7,0,0,0,6,0,0,0,6,0,0,0,0,0,0],"split_type":[0,0,0,0,0,0,0,0,0,0,0,0,0,0,0,0,0,0,0,0,0,0,0,0,0,0,0],"sum_hessian":[2.1142069E1,1.2811609E1,8.33046E0,5.2937307E0,7.5178785E0,7.2859793E0,1.0444807E0,2.6408234E0,2.6529074E0,4.4801235E0,3.037755E0,4.102692E0,3.1832871E0,1.1387877E0,1.5020355E0,1.1414878E0,3.338636E0,1.3958232E0,1.6419318E0,1.5283873E0,2.5743046E0,2.0004473E0,1.1828398E0,1.680929E0,1.657707E0,1.0365865E0,1.5377182E0],"tree_param":{"num_deleted":"0","num_feature":"13","num_nodes":"27","size_leaf_vector":"1"}},{"base_weights":[-1.4663136E-3,-2.0108625E-1,1.6307823E-1,-1.4781874E-2,-4.632065E-1,5.2651614E-1,5.2178456E-3,2.9991594E-1,-2.1133931E-1,1.0400388E-2,-1.9061612E-1,4.8666146E-2,1.9088694E-1,3.2195508E-1,-1.5937816E-1,2.0257533E-2,1.1498629E-1,-1.5700646E-1,2.196946E-2,1.9498877E-1,-3.7814442E-2,-1.7930192E-1,2.627635E-2,9.310764E-2,-1.0169773E-1,-2.80672E-1,2.7337563E-1,-1.4781769E-1,1.756555E-2,1.3671179E-1,-2.546404E-2],"categories":[],"categories_nodes":[],"categories_segments":[],"categories_sizes":[],"default_left":[0,0,0,0,0,0,0,0,0,0,0,0,0,0,0,0,0,0,0,0,0,0,0,0,0,0,0,0,0,0,0],"id":15,"left_children":[1,3,5,7,9,11,13,15,17,-1,-1,-1,-1,19,21,-1,-1,-1,23,-1,-1,-1,25,-1,-1,27,29,-1,-1,-1,-1],"loss_changes":[7.2707874E-1,4.814237E-1,6.936865E-1,4.8879847E-1,3.7530375E-1,4.3379903E-2,5.4517144E-1,3.3356786E-2,3.6237317E-1,0E0,0E0,0E0,0E0,6.066011E-1,5.773679E-1,0E0,0E0,0E0,4.921961E-1,0E0,0E0,0E0,5.171359E-1,0E0,0E0,2.506264E-1,2.8190085E-1,0E0,0E0,0E0,0E0],"parents":[2147483647,0,0,1,1,2,2,3,3,4,4,5,5,6,6,7,7,8,8,13,13,14,14,18,18,22,22,25,25,26,26],"right_children":[2,4,6,8,10,12,14,16,18,-1,-1,-1,-1,20,22,-1,-1,-1,24,-1,-1,-1,26,-1,-1,28,30,-1,-1,-1,-1],"split_conditions":[1E0,1E0,1E0,1.23E2,1.25E2,2E0,2.28E2,4.8E1,1.32E2,1.0400388E-2,-1.9061612E-1,4.8666146E-2,1.9088694E-1,7E-1,2.33E2,2.0257533E-2,1.1498629E-1,-1.5700646E-1,1.44E2,1.9498877E-1,-3.7814442E-2,-1.7930192E-1,4E-1,9.310764E-2,-1.0169773E-1,1.53E2,2.74E2,-1.4781769E-1,1.756555E-2,1.3671179E-1,-2.546404E-2],"split_indices":[2,11,1,3,7,2,4,0,3,0,0,0,0,9,4,0,0,0,3,0,0,0,9,0,0,7,4,0,0,0,0],"split_type":[0,0,0,0,0,0,0,0,0,0,0,0,0,0,0,0,0,0,0,0,0,0,0,0,0,0,0,0,0,0,0],"sum_hessian":[2.0137371E1,8.998551E0,1.1138819E1,5.8774753E0,3.121076E0,2.6658876E0,8.472931E0,2.0574908E0,3.8199844E0,1.0072323E0,2.113844E0,1.1910462E0,1.4748414E0,2.5704677E0,5.9024634E0,1.0211262E0,1.0363648E0,1.1024446E0,2.7175398E0,1.2237182E0,1.3467494E0,1.0959228E0,4.806541E0,1.588557E0,1.1289829E0,2.08307E0,2.7234707E0,1.0033519E0,1.079718E0,1.6246234E0,1.0988474E0],"tree_param":{"num_deleted":"0","num_feature":"13","num_nodes":"31","size_leaf_vector":"1"}},{"base_weights":[-1.170024E-3,1.3780196E-1,-2.0613068E-1,-8.791326E-2,2.1446456E-1,-3.545956E-1,7.545767E-2,4.7035038E-1,-1.0569749E-2,-7.1466364E-2,-1.8619671E-1,-1.0419271E-1,1.1891036E-1,3.309683E-2,1.9503413E-1,-2.4400432E-1,2.8995225E-1,-8.811563E-2,7.894924E-2,-1.332096E-1,4.729513E-2,1.9984739E-1,-5.4959193E-2],"categories":[],"categories_nodes":[],"categories_segments":[],"categories_sizes":[],"default_left":[0,0,0,0,0,0,0,0,0,0,0,0,0,0,0,0,0,0,0,0,0,0,0],"id":16,"left_children":[1,3,5,-1,7,9,11,13,15,17,-1,-1,-1,-1,-1,19,21,-1,-1,-1,-1,-1,-1],"loss_changes":[6.0270625E-1,4.7951016E-1,3.8409904E-1,0E0,6.5489036E-1,3.9046317E-1,6.498698E-1,2.7150416E-1,5.606479E-1,3.6932316E-1,0E0,0E0,0E0,0E0,0E0,4.294047E-1,7.468152E-1,0E0,0E0,0E0,0E0,0E0,0E0],"parents":[2147483647,0,0,1,1,2,2,4,4,5,5,6,6,7,7,8,8,9,9,15,15,16,16],"right_children":[2,4,6,-1,8,10,12,14,16,18,-1,-1,-1,-1,-1,20,22,-1,-1,-1,-1,-1,-1],"split_conditions":[3E0,2E0,2E0,-8.791326E-2,5.7E1,1.36E2,2.32E2,1.54E2,6.4E1,5.8E1,-1.8619671E-1,-1.0419271E-1,1.1891036E-1,3.309683E-2,1.9503413E-1,1.4E2,1E0,-8.811563E-2,7.894924E-2,-1.332096E-1,4.729513E-2,1.9984739E-1,-5.4959193E-2],"split_indices":[12,12,2,0,0,3,4,7,0,0,0,0,0,0,0,3,1,0,0,0,0,0,0],"split_type":[0,0,0,0,0,0,0,0,0,0,0,0,0,0,0,0,0,0,0,0,0,0,0],"sum_hessian":[1.9162382E1,1.1614754E1,7.547628E0,1.328126E0,1.0286628E1,4.7722387E0,2.7753894E0,4.303268E0,5.9833603E0,2.9265478E0,1.845691E0,1.1621336E0,1.6132559E0,1.9704962E0,2.3327715E0,3.473408E0,2.509952E0,1.8320259E0,1.0945218E0,2.248252E0,1.2251562E0,1.1709758E0,1.3389763E0],"tree_param":{"num_deleted":"0","num_feature":"13","num_nodes":"23","size_leaf_vector":"1"}},{"base_weights":[1.3941772E-3,1.3268161E-1,-2.1891819E-1,4.0507743E-1,-1.3590589E-2,-4.4596437E-1,6.2202524E-2,1.1175901E-1,1.9133218E-1,2.3906426E-1,-2.2944573E-1,-1.8649307E-1,-2.1629082E-2,2.4318784E-1,-7.318349E-2,-7.336461E-2,1.23272106E-1,1.791603E-1,-7.8650184E-2,-1.6773887E-1,7.981791E-2,1.0158381E-1,7.872808E-3,-9.415848E-2,1.0321333E-1],"categories":[],"categories_nodes":[],"categories_segments":[],"categories_sizes":[],"default_left":[0,0,0,0,0,0,0,0,0,0,0,0,0,0,0,0,0,0,0,0,0,0,0,0,0],"id":17,"left_children":[1,3,5,7,9,11,13,15,-1,17,19,-1,-1,21,-1,-1,-1,-1,-1,-1,23,-1,-1,-1,-1],"loss_changes":[5.8833647E-1,5.1306933E-1,5.1267326E-1,2.3471206E-1,5.5963016E-1,2.3927826E-1,2.9603648E-1,4.4110948E-1,0E0,1.0099714E0,6.0557014E-1,0E0,0E0,5.7063818E-2,0E0,0E0,0E0,0E0,0E0,0E0,4.9429455E-1,0E0,0E0,0E0,0E0],"parents":[2147483647,0,0,1,1,2,2,3,3,4,4,5,5,6,6,7,7,9,9,10,10,13,13,20,20],"right_children":[2,4,6,8,10,12,14,16,-1,18,20,-1,-1,22,-1,-1,-1,-1,-1,-1,24,-1,-1,-1,-1],"split_conditions":[1E0,2.12E2,1E0,1E0,1E0,2E0,1.32E2,2.01E2,1.9133218E-1,2.73E2,1.53E2,-1.8649307E-1,-2.1629082E-2,1.45E2,-7.318349E-2,-7.336461E-2,1.23272106E-1,1.791603E-1,-7.8650184E-2,-1.6773887E-1,5.2E1,1.0158381E-1,7.872808E-3,-9.415848E-2,1.0321333E-1],"split_indices":[11,4,6,2,6,2,3,4,0,4,7,0,0,7,0,0,0,0,0,0,0,0,0,0,0],"split_type":[0,0,0,0,0,0,0,0,0,0,0,0,0,0,0,0,0,0,0,0,0,0,0,0,0],"sum_hessian":[1.8336378E1,1.1738805E1,6.5975723E0,3.4830832E0,8.255722E0,3.3254242E0,3.272148E0,2.195673E0,1.2874104E0,3.7540948E0,4.5016274E0,1.8114784E0,1.5139459E0,2.1856863E0,1.0864615E0,1.0853983E0,1.1102747E0,2.0779233E0,1.6761714E0,1.7878213E0,2.713806E0,1.1284903E0,1.0571959E0,1.0144677E0,1.6993382E0],"tree_param":{"num_deleted":"0","num_feature":"13","num_nodes":"25","size_leaf_vector":"1"}},{"base_weights":[2.339185E-3,2.624242E-1,-1.1343497E-1,4.806762E-1,-6.559943E-2,3.7976295E-2,-3.4268695E-1,6.191215E-3,2.0287316E-1,3.5310695E-1,-1.319537E-1,-1.2413887E-1,-1.7055604E-1,1.8439302E-2,1.3477154E-1,-4.3039694E-1,1.1577398E-1,4.6347443E-2,-1.2262053E-1,-1.759476E-2,-1.8353286E-1,3.3433333E-1,-9.137175E-2,-3.569156E-2,1.7754644E-1],"categories":[],"categories_nodes":[],"categories_segments":[],"categories_sizes":[],"default_left":[0,0,0,0,0,0,0,0,0,0,0,0,0,0,0,0,0,0,0,0,0,0,0,0,0],"id":18,"left_children":[1,3,5,7,-1,9,11,-1,-1,13,15,17,-1,-1,-1,19,21,-1,-1,-1,-1,23,-1,-1,-1],"loss_changes":[5.876482E-1,7.360125E-1,4.8226508E-1,3.8606E-1,0E0,5.307819E-1,1.9973934E-1,0E0,0E0,6.882104E-2,5.379436E-1,3.853064E-1,0E0,0E0,0E0,1.8032712E-1,5.0565815E-1,0E0,0E0,0E0,0E0,4.636031E-1,0E0,0E0,0E0],"parents":[2147483647,0,0,1,1,2,2,3,3,5,5,6,6,9,9,10,10,11,11,15,15,16,16,21,21],"right_children":[2,4,6,8,-1,10,12,-1,-1,14,16,18,-1,-1,-1,20,22,-1,-1,-1,-1,24,-1,-1,-1],"split_conditions":[1E0,1E0,1E0,1E-1,-6.559943E-2,2.12E2,1.1E0,6.191215E-3,2.0287316E-1,1.99E2,1.28E2,1.55E2,-1.7055604E-1,1.8439302E-2,1.3477154E-1,9E-1,2.71E2,4.6347443E-2,-1.2262053E-1,-1.759476E-2,-1.8353286E-1,2.32E2,-9.137175E-2,-3.569156E-2,1.7754644E-1],"split_indices":[1,8,11,9,0,4,9,0,0,4,3,7,0,0,0,9,4,0,0,0,0,4,0,0,0],"split_type":[0,0,0,0,0,0,0,0,0,0,0,0,0,0,0,0,0,0,0,0,0,0,0,0,0],"sum_hessian":[1.7527376E1,5.008703E0,1.2518673E1,3.4461656E0,1.562538E0,8.04177E0,4.476903E0,1.357771E0,2.0883944E0,2.4396143E0,5.602155E0,3.0626972E0,1.4142057E0,1.0112064E0,1.428408E0,2.2065248E0,3.3956304E0,1.7785681E0,1.284129E0,1.1575032E0,1.0490216E0,2.368666E0,1.0269645E0,1.0529355E0,1.3157305E0],"tree_param":{"num_deleted":"0","num_feature":"13","num_nodes":"25","size_leaf_vector":"1"}},{"base_weights":[-3.1624434E-3,2.220588E-1,-1.0217923E-1,4.138091E-1,-5.3900383E-2,2.8476663E-2,-3.0066603E-1,1.0005135E-2,1.8471308E-1,-1.4829835E-1,3.5064697E-1,-1.3754359E-1,-3.9313816E-2,9.268585E-2,-3.8022542E-1,1.8031053E-2,1.5275894E-1,-7.162309E-2,5.5062246E-2,1.3102837E-1,-7.548669E-2,-1.3991773E-1,-4.2688645E-2],"categories":[],"categories_nodes":[],"categories_segments":[],"categories_sizes":[],"default_left":[0,0,0,0,0,0,0,0,0,0,0,0,0,0,0,0,0,0,0,0,0,0,0],"id":19,"left_children":[1,3,5,7,-1,9,11,-1,-1,13,15,-1,17,19,21,-1,-1,-1,-1,-1,-1,-1,-1],"loss_changes":[4.185328E-1,5.1618123E-1,3.4607306E-1,3.009596E-1,0E0,5.509976E-1,1.9862252E-1,0E0,0E0,3.907221E-1,1.2608719E-1,0E0,1.803243E-1,5.7467717E-1,4.0994883E-3,0E0,0E0,0E0,0E0,0E0,0E0,0E0,0E0],"parents":[2147483647,0,0,1,1,2,2,3,3,5,5,6,6,9,9,10,10,12,12,13,13,14,14],"right_children":[2,4,6,8,-1,10,12,-1,-1,14,16,-1,18,20,22,-1,-1,-1,-1,-1,-1,-1,-1],"split_conditions":[1E0,1E0,1E0,1E0,-5.3900383E-2,1.61E2,2E0,1.0005135E-2,1.8471308E-1,1.49E2,4.9E1,-1.3754359E-1,2E0,2.29E2,5.4E1,1.8031053E-2,1.5275894E-1,-7.162309E-2,5.5062246E-2,1.3102837E-1,-7.548669E-2,-1.3991773E-1,-4.2688645E-2],"split_indices":[1,8,11,6,0,7,2,0,0,7,0,0,10,4,0,0,0,0,0,0,0,0,0],"split_type":[0,0,0,0,0,0,0,0,0,0,0,0,0,0,0,0,0,0,0,0,0,0,0],"sum_hessian":[1.6750263E1,4.7357655E0,1.2014498E1,3.185298E0,1.5504675E0,7.761769E0,4.2527294E0,1.5082892E0,1.6770087E0,5.3602734E0,2.4014952E0,2.1813233E0,2.0714061E0,2.9232414E0,2.437032E0,1.3347102E0,1.0667851E0,1.055529E0,1.0158771E0,1.3278104E0,1.595431E0,1.0841831E0,1.3528489E0],"tree_param":{"num_deleted":"0","num_feature":"13","num_nodes":"23","size_leaf_vector":"1"}},{"base_weights":[4.0997763E-4,7.930439E-2,-2.9043463E-1,1.955998E-1,-9.1958694E-2,3.5104482E-3,-1.3089643E-1,-1.4204551E-2,3.1448156E-1,-2.562315E-1,7.54624E-2,6.817864E-2,-6.7857265E-2,1.4701575E-1,2.6403435E-2,1.7004086E-2,-1.3024804E-1,9.472018E-2,-7.48647E-2],"categories":[],"categories_nodes":[],"categories_segments":[],"categories_sizes":[],"default_left":[0,0,0,0,0,0,0,0,0,0,0,0,0,0,0,0,0,0,0],"id":20,"left_children":[1,3,5,7,9,-1,-1,11,13,15,-1,-1,-1,-1,17,-1,-1,-1,-1],"loss_changes":[4.1513816E-1,3.013564E-1,1.7527792E-1,2.2378916E-1,4.2751524E-1,0E0,0E0,2.6317906E-1,2.7313572E-1,2.9452297E-1,0E0,0E0,0E0,0E0,3.3418405E-1,0E0,0E0,0E0,0E0],"parents":[2147483647,0,0,1,1,2,2,3,3,4,4,7,7,8,8,9,9,14,14],"right_children":[2,4,6,8,10,-1,-1,12,14,16,-1,-1,-1,-1,18,-1,-1,-1,-1],"split_conditions":[2E0,3E0,5E-1,1E-1,5.9E1,3.5104482E-3,-1.3089643E-1,5.7E1,1.4E0,2.28E2,7.54624E-2,6.817864E-2,-6.7857265E-2,1.4701575E-1,2.29E2,1.7004086E-2,-1.3024804E-1,9.472018E-2,-7.48647E-2],"split_indices":[11,12,9,9,0,0,0,0,9,4,0,0,0,0,4,0,0,0,0],"split_type":[0,0,0,0,0,0,0,0,0,0,0,0,0,0,0,0,0,0,0],"sum_hessian":[1.608817E1,1.3227431E1,2.8607378E0,7.7933154E0,5.434116E0,1.2310292E0,1.6297088E0,3.1372192E0,4.656096E0,3.8479562E0,1.5861601E0,1.4329419E0,1.7042774E0,2.457344E0,2.1987522E0,1.641898E0,2.206058E0,1.0029837E0,1.1957685E0],"tree_param":{"num_deleted":"0","num_feature":"13","num_nodes":"19","size_leaf_vector":"1"}},{"base_weights":[4.993734E-4,-1.7237121E-1,1.4210647E-1,-3.0408412E-1,5.3429153E-2,3.0756336E-1,-3.574303E-2,2.7479231E-3,-3.8448027E-1,-4.4647153E-2,5.1597595E-1,7.377292E-2,-2.3418738E-1,-5.4955256E-1,2.5957488E-3,1.9270056E-1,4.7179345E-2,-1.3079378E-1,1.4979175E-2,-3.900295E-2,-2.011354E-1],"categories":[],"categories_nodes":[],"categories_segments":[],"categories_sizes":[],"default_left":[0,0,0,0,0,0,0,0,0,0,0,0,0,0,0,0,0,0,0,0,0],"id":21,"left_children":[1,3,5,7,-1,9,11,-1,13,-1,15,-1,17,19,-1,-1,-1,-1,-1,-1,-1],"loss_changes":[4.317747E-1,4.2084295E-1,2.9624823E-1,1.5822661E-1,0E0,5.64358E-1,3.6878896E-1,0E0,3.2350153E-1,0E0,6.863499E-2,0E0,2.384075E-1,8.907986E-2,0E0,0E0,0E0,0E0,0E0,0E0,0E0],"parents":[2147483647,0,0,1,1,2,2,3,3,5,5,6,6,8,8,10,10,12,12,13,13],"right_children":[2,4,6,8,-1,10,12,-1,14,-1,16,-1,18,20,-1,-1,-1,-1,-1,-1,-1],"split_conditions":[1E0,6.4E1,5.7E1,1.17E2,5.3429153E-2,1.53E2,1.46E2,2.7479231E-3,1.57E2,-4.4647153E-2,3E0,7.377292E-2,2E0,9E-1,2.5957488E-3,1.9270056E-1,4.7179345E-2,-1.3079378E-1,1.4979175E-2,-3.900295E-2,-2.011354E-1],"split_indices":[2,0,0,3,0,7,7,0,7,0,12,0,10,9,0,0,0,0,0,0,0],"split_type":[0,0,0,0,0,0,0,0,0,0,0,0,0,0,0,0,0,0,0,0,0],"sum_hessian":[1.5637442E1,6.9436045E0,8.693837E0,5.143082E0,1.8005223E0,4.1259956E0,4.5678415E0,1.2313797E0,3.9117026E0,1.3831203E0,2.7428756E0,1.7892151E0,2.7786264E0,2.4747152E0,1.4369874E0,1.4436599E0,1.2992156E0,1.3121701E0,1.4664563E0,1.0178686E0,1.4568466E0],"tree_param":{"num_deleted":"0","num_feature":"13","num_nodes":"21","size_leaf_vector":"1"}},{"base_weights":[-1.5937226E-3,7.056495E-2,-2.6644692E-1,-8.7042E-2,1.2845597E-1,-9.946913E-3,-1.2322108E-1,-8.679684E-2,1.9814692E-1,4.8405524E-2,-9.821366E-2,2.780341E-1,-2.1393701E-2,3.5761738E-1,5.907873E-2,2.3125274E-2,1.6415556E-1,6.1391253E-2,-3.5192583E-2],"categories":[],"categories_nodes":[],"categories_segments":[],"categories_sizes":[],"default_left":[0,0,0,0,0,0,0,0,0,0,0,0,0,0,0,0,0,0,0],"id":22,"left_children":[1,3,5,-1,7,-1,-1,9,11,-1,-1,13,-1,15,17,-1,-1,-1,-1],"loss_changes":[3.2661882E-1,3.1809473E-1,1.09514445E-1,0E0,2.0143801E-1,0E0,0E0,2.736666E-1,2.2610235E-1,0E0,0E0,1.1122203E-1,0E0,2.4354035E-1,1.0674563E-1,0E0,0E0,0E0,0E0],"parents":[2147483647,0,0,1,1,2,2,4,4,7,7,8,8,11,11,13,13,14,14],"right_children":[2,4,6,-1,8,-1,-1,10,12,-1,-1,14,-1,16,18,-1,-1,-1,-1],"split_conditions":[2E0,4.2E1,2.47E2,-8.7042E-2,1.37E2,-9.946913E-3,-1.2322108E-1,7E-1,1E0,4.8405524E-2,-9.821366E-2,6.1E1,-2.1393701E-2,1.29E2,1.52E2,2.3125274E-2,1.6415556E-1,6.1391253E-2,-3.5192583E-2],"split_indices":[11,0,4,0,7,0,0,9,11,0,0,0,0,3,7,0,0,0,0],"split_type":[0,0,0,0,0,0,0,0,0,0,0,0,0,0,0,0,0,0,0],"sum_hessian":[1.5106413E1,1.2448434E1,2.6579788E0,1.166766E0,1.1281668E1,1.4856858E0,1.1722928E0,2.6992147E0,8.582453E0,1.4908271E0,1.2083877E0,6.595306E0,1.987147E0,4.3726854E0,2.2226205E0,2.3305044E0,2.042181E0,1.1299777E0,1.0926428E0],"tree_param":{"num_deleted":"0","num_feature":"13","num_nodes":"19","size_leaf_vector":"1"}},{"base_weights":[-5.5526006E-3,2.1718131E-1,-1.026828E-1,3.7581912E-1,-3.7851818E-2,-1.6253236E-1,4.4601727E-2,-1.7504109E-3,1.683392E-1,2.0441622E-2,-3.550841E-1,-1.421325E-1,1.1242107E-1,-1.4208382E-1,-1.5224789E-2,3.7911158E-2,-3.218976E-1,-1.3323891E-1,-1.5003004E-2],"categories":[],"categories_nodes":[],"categories_segments":[],"categories_sizes":[],"default_left":[0,0,0,0,0,0,0,0,0,0,0,0,0,0,0,0,0,0,0],"id":23,"left_children":[1,3,5,7,-1,9,-1,-1,-1,11,13,15,-1,-1,-1,-1,17,-1,-1],"loss_changes":[3.6353502E-1,3.2578897E-1,1.9960555E-1,2.6827538E-1,0E0,3.559552E-1,0E0,0E0,0E0,4.0003073E-1,1.5188259E-1,2.7486026E-1,0E0,0E0,0E0,0E0,8.3737314E-2,0E0,0E0],"parents":[2147483647,0,0,1,1,2,2,3,3,5,5,9,9,10,10,11,11,16,16],"right_children":[2,4,6,8,-1,10,-1,-1,-1,12,14,16,-1,-1,-1,-1,18,-1,-1],"split_conditions":[1E0,1E0,3E0,1E-1,-3.7851818E-2,7E-1,4.4601727E-2,-1.7504109E-3,1.683392E-1,4E-1,1.51E2,2.28E2,1.1242107E-1,-1.4208382E-1,-1.5224789E-2,3.7911158E-2,1.28E2,-1.3323891E-1,-1.5003004E-2],"split_indices":[1,8,2,9,0,9,0,0,0,9,7,4,0,0,0,0,3,0,0],"split_type":[0,0,0,0,0,0,0,0,0,0,0,0,0,0,0,0,0,0,0],"sum_hessian":[1.4772916E1,4.1106367E0,1.0662279E1,2.7469342E0,1.3637022E0,8.897172E0,1.7651074E0,1.214387E0,1.5325472E0,5.0203643E0,3.8768072E0,3.8517547E0,1.1686096E0,2.3898246E0,1.4869827E0,1.663749E0,2.1880057E0,1.0723888E0,1.1156169E0],"tree_param":{"num_deleted":"0","num_feature":"13","num_nodes":"19","size_leaf_vector":"1"}},{"base_weights":[-2.6475342E-3,1.8576291E-1,-8.422183E-2,3.2478184E-1,-3.138468E-2,1.5284927E-2,-2.3561063E-1,-4.8993663E-3,1.5828219E-1,8.093456E-2,-1.22219324E-1,-3.3686474E-1,1.639973E-2,-1.2493778E-1,9.389152E-2,-2.4786979E-2,-1.4291601E-1,8.835589E-2,-6.649217E-2],"categories":[],"categories_nodes":[],"categories_segments":[],"categories_sizes":[],"default_left":[0,0,0,0,0,0,0,0,0,0,0,0,0,0,0,0,0,0,0],"id":24,"left_children":[1,3,5,7,-1,9,11,-1,-1,-1,13,15,-1,-1,17,-1,-1,-1,-1],"loss_changes":[2.514779E-1,2.3372366E-1,1.7527488E-1,2.569807E-1,0E0,3.064688E-1,1.5304923E-1,0E0,0E0,0E0,4.0551046E-1,8.605859E-2,0E0,0E0,3.2724348E-1,0E0,0E0,0E0,0E0],"parents":[2147483647,0,0,1,1,2,2,3,3,5,5,6,6,10,10,11,11,14,14],"right_children":[2,4,6,8,-1,10,12,-1,-1,-1,14,16,-1,-1,18,-1,-1,-1,-1],"split_conditions":[1E0,1E0,1E0,1E0,-3.138468E-2,2.12E2,2.61E2,-4.8993663E-3,1.5828219E-1,8.093456E-2,5.2E1,5E-1,1.639973E-2,-1.2493778E-1,2.73E2,-2.4786979E-2,-1.4291601E-1,8.835589E-2,-6.649217E-2],"split_indices":[1,8,11,6,0,4,4,0,0,0,0,9,0,0,4,0,0,0,0],"split_type":[0,0,0,0,0,0,0,0,0,0,0,0,0,0,0,0,0,0,0],"sum_hessian":[1.4344245E1,3.9481235E0,1.0396121E1,2.5897846E0,1.3583391E0,6.815426E0,3.580695E0,1.3085455E0,1.281239E0,2.0532398E0,4.762186E0,2.5356975E0,1.0449975E0,1.6240039E0,3.1381824E0,1.4626311E0,1.0730664E0,1.9591005E0,1.1790819E0],"tree_param":{"num_deleted":"0","num_feature":"13","num_nodes":"19","size_leaf_vector":"1"}},{"base_weights":[-4.9835513E-3,-1.5493199E-1,1.1887654E-1,-2.741611E-1,4.7116563E-2,2.980798E-1,-4.9040716E-2,7.649409E-3,-3.6072963E-1,-1.960385E-2,1.5473598E-1,1.6542764E-1,-2.3355706E-1,-1.5043011E-1,-5.8416994E-3,8.7470226E-2,-1.190497E-2,-1.2032047E-1,1.8504232E-2],"categories":[],"categories_nodes":[],"categories_segments":[],"categories_sizes":[],"default_left":[0,0,0,0,0,0,0,0,0,0,0,0,0,0,0,0,0,0,0],"id":25,"left_children":[1,3,5,7,-1,9,11,-1,13,-1,-1,15,17,-1,-1,-1,-1,-1,-1],"loss_changes":[2.9609773E-1,3.1078738E-1,2.7802598E-1,1.5373048E-1,0E0,3.79918E-1,2.5145343E-1,0E0,2.0096934E-1,0E0,0E0,9.106241E-2,1.882087E-1,0E0,0E0,0E0,0E0,0E0,0E0],"parents":[2147483647,0,0,1,1,2,2,3,3,5,5,6,6,8,8,11,11,12,12],"right_children":[2,4,6,8,-1,10,12,-1,14,-1,-1,16,18,-1,-1,-1,-1,-1,-1],"split_conditions":[1E0,6.4E1,5.6E1,1.17E2,4.7116563E-2,1.22E2,2.44E2,7.649409E-3,1.57E2,-1.960385E-2,1.5473598E-1,7E-1,7E-1,-1.5043011E-1,-5.8416994E-3,8.7470226E-2,-1.190497E-2,-1.2032047E-1,1.8504232E-2],"split_indices":[2,0,0,3,0,3,4,0,7,0,0,9,9,0,0,0,0,0,0],"split_type":[0,0,0,0,0,0,0,0,0,0,0,0,0,0,0,0,0,0,0],"sum_hessian":[1.3951031E1,6.197411E0,7.7536197E0,4.571578E0,1.625833E0,3.3757844E0,4.3778353E0,1.1827875E0,3.3887904E0,1.5268315E0,1.848953E0,2.0724375E0,2.3053977E0,2.0671222E0,1.3216681E0,1.0222559E0,1.0501816E0,1.2421644E0,1.0632334E0],"tree_param":{"num_deleted":"0","num_feature":"13","num_nodes":"19","size_leaf_vector":"1"}},{"base_weights":[-3.0108227E-3,6.1893158E-2,-2.447639E-1,-7.791476E-2,1.1605258E-1,-8.765665E-3,-1.107079E-1,2.5908822E-1,1.3856762E-2,1.2663329E-1,5.210285E-2,-6.292671E-2,1.392563E-1,-8.1803724E-2,1.0576632E-1,2.7449766E-1,-2.55005E-2,1.2609644E-1,9.150118E-3],"categories":[],"categories_nodes":[],"categories_segments":[],"categories_sizes":[],"default_left":[0,0,0,0,0,0,0,0,0,0,0,0,0,0,0,0,0,0,0],"id":26,"left_children":[1,3,5,-1,7,-1,-1,9,11,-1,13,-1,15,-1,-1,17,-1,-1,-1],"loss_changes":[2.4411555E-1,2.4442115E-1,7.734606E-2,0E0,1.6042253E-1,0E0,0E0,1.3387755E-1,2.4234524E-1,0E0,4.060567E-1,0E0,1.8925917E-1,0E0,0E0,1.1702153E-1,0E0,0E0,0E0],"parents":[2147483647,0,0,1,1,2,2,4,4,7,7,8,8,10,10,12,12,15,15],"right_children":[2,4,6,-1,8,-1,-1,10,12,-1,14,-1,16,-1,-1,18,-1,-1,-1],"split_conditions":[2E0,4.2E1,2.47E2,-7.791476E-2,1.23E2,-8.765665E-3,-1.107079E-1,2.28E2,1.32E2,1.2663329E-1,2.65E2,-6.292671E-2,3E0,-8.1803724E-2,1.0576632E-1,1E0,-2.55005E-2,1.2609644E-1,9.150118E-3],"split_indices":[11,0,4,0,3,0,0,4,3,0,4,0,12,0,0,1,0,0,0],"split_type":[0,0,0,0,0,0,0,0,0,0,0,0,0,0,0,0,0,0,0],"sum_hessian":[1.3592454E1,1.1302129E1,2.2903256E0,1.0819439E0,1.0220185E1,1.2892089E0,1.0011166E0,3.6193063E0,6.6008787E0,1.4432603E0,2.1760461E0,2.1299868E0,4.4708915E0,1.090103E0,1.0859431E0,2.6492214E0,1.8216702E0,1.2058829E0,1.4433385E0],"tree_param":{"num_deleted":"0","num_feature":"13","num_nodes":"19","size_leaf_vector":"1"}},{"base_weights":[-1.5481414E-3,-1.03578694E-1,1.4665361E-1,6.782049E-3,-1.2055755E-1,-4.4934154E-2,3.0468485E-1,1.8797499E-1,-1.3911068E-1,1.9127388E-3,1.2317617E-1,-4.824912E-2,1.5569144E-1,3.4557402E-2,-2.6448867E-1,-1.3390091E-1,1.6376581E-2],"categories":[],"categories_nodes":[],"categories_segments":[],"categories_sizes":[],"default_left":[0,0,0,0,0,0,0,0,0,0,0,0,0,0,0,0,0],"id":27,"left_children":[1,3,5,7,-1,-1,9,11,13,-1,-1,-1,-1,-1,15,-1,-1],"loss_changes":[2.3145318E-1,3.0085275E-1,3.3821166E-1,2.2689672E-1,0E0,0E0,1.3649058E-1,5.236383E-1,1.8292032E-1,0E0,0E0,0E0,0E0,0E0,2.2779278E-1,0E0,0E0],"parents":[2147483647,0,0,1,1,2,2,3,3,6,6,7,7,8,8,14,14],"right_children":[2,4,6,8,-1,-1,10,12,14,-1,-1,-1,-1,-1,16,-1,-1],"split_conditions":[2E0,1.44E2,2.32E2,2.27E2,-1.2055755E-1,-4.4934154E-2,2E-1,2.07E2,5.7E1,1.9127388E-3,1.2317617E-1,-4.824912E-2,1.5569144E-1,3.4557402E-2,6.2E1,-1.3390091E-1,1.6376581E-2],"split_indices":[2,3,4,4,0,0,9,4,0,0,0,0,0,0,0,0,0],"split_type":[0,0,0,0,0,0,0,0,0,0,0,0,0,0,0,0,0],"sum_hessian":[1.3302062E1,8.056561E0,5.2455006E0,6.594077E0,1.4624842E0,1.8421726E0,3.4033277E0,2.8125527E0,3.7815247E0,1.1694341E0,2.2338936E0,1.6197529E0,1.1927998E0,1.2755651E0,2.5059595E0,1.3421884E0,1.163771E0],"tree_param":{"num_deleted":"0","num_feature":"13","num_nodes":"17","size_leaf_vector":"1"}},{"base_weights":[-1.9021962E-3,2.0526646E-1,-9.071043E-2,-3.106975E-3,1.07683435E-1,5.3420947E-3,-2.3216009E-1,-1.4141497E-1,8.30687E-2,-1.0807086E-1,-2.157159E-3,-1.1171903E-1,3.79275E-2,8.164062E-2,-6.593822E-2],"categories":[],"categories_nodes":[],"categories_segments":[],"categories_sizes":[],"default_left":[0,0,0,0,0,0,0,0,0,0,0,0,0,0,0],"id":28,"left_children":[1,3,5,-1,-1,7,9,11,-1,-1,-1,-1,13,-1,-1],"loss_changes":[2.758079E-1,1.5286091E-1,1.4360125E-1,0E0,0E0,3.268094E-1,1.2015714E-1,2.3564707E-1,0E0,0E0,0E0,0E0,2.962973E-1,0E0,0E0],"parents":[2147483647,0,0,1,1,2,2,5,5,6,6,7,7,12,12],"right_children":[2,4,6,-1,-1,8,10,12,-1,-1,-1,-1,14,-1,-1],"split_conditions":[1E0,2E0,1E0,-3.106975E-3,1.07683435E-1,1.61E2,1E0,5.3E1,8.30687E-2,-1.0807086E-1,-2.157159E-3,-1.1171903E-1,2.59E2,8.164062E-2,-6.593822E-2],"split_indices":[1,10,11,0,0,7,6,0,0,0,0,0,4,0,0],"split_type":[0,0,0,0,0,0,0,0,0,0,0,0,0,0,0],"sum_hessian":[1.2978919E1,3.5008702E0,9.478048E0,1.8449149E0,1.6559552E0,6.21794E0,3.2601087E0,4.347588E0,1.8703519E0,1.6942813E0,1.5658274E0,1.4297302E0,2.917858E0,1.4993635E0,1.4184945E0],"tree_param":{"num_deleted":"0","num_feature":"13","num_nodes":"15","size_leaf_vector":"1"}},{"base_weights":[-2.5763528E-3,1.0651772E-1,-1.3185492E-1,-1.7361484E-2,1.2589522E-1,-2.6510745E-1,7.117461E-2,1.559467E-1,-1.7272784E-1,-4.0259093E-1,-4.6580963E-2,-3.618973E-2,1.0150995E-1,-1.2767874E-1,3.3514146E-2,-3.245962E-2,-1.5506637E-1,-5.7508837E-2,3.968357E-2],"categories":[],"categories_nodes":[],"categories_segments":[],"categories_sizes":[],"default_left":[0,0,0,0,0,0,0,0,0,0,0,0,0,0,0,0,0,0,0],"id":29,"left_children":[1,3,5,7,-1,9,-1,11,13,15,17,-1,-1,-1,-1,-1,-1,-1,-1],"loss_changes":[2.0651196E-1,3.1583798E-1,3.9205748E-1,2.0625909E-1,0E0,1.4316818E-1,0E0,2.2616604E-1,3.3425206E-1,5.0985456E-2,1.0872954E-1,0E0,0E0,0E0,0E0,0E0,0E0,0E0,0E0],"parents":[2147483647,0,0,1,1,2,2,3,3,5,5,7,7,8,8,9,9,10,10],"right_children":[2,4,6,8,-1,10,-1,12,14,16,18,-1,-1,-1,-1,-1,-1,-1,-1],"split_conditions":[8E-1,4E-1,2E0,5.7E1,1.2589522E-1,2.4E2,7.117461E-2,1E0,6.2E1,2.15E2,2E0,-3.618973E-2,1.0150995E-1,-1.2767874E-1,3.3514146E-2,-3.245962E-2,-1.5506637E-1,-5.7508837E-2,3.968357E-2],"split_indices":[9,9,10,0,0,4,0,2,0,4,2,0,0,0,0,0,0,0,0],"split_type":[0,0,0,0,0,0,0,0,0,0,0,0,0,0,0,0,0,0,0],"sum_hessian":[1.2646735E1,6.954291E0,5.6924443E0,5.659772E0,1.2945187E0,4.389511E0,1.3029331E0,2.6736412E0,2.9861307E0,2.1773548E0,2.2121563E0,1.1971976E0,1.4764436E0,1.3180963E0,1.6680344E0,1.1533477E0,1.024007E0,1.1816621E0,1.0304941E0],"tree_param":{"num_deleted":"0","num_feature":"13","num_nodes":"19","size_leaf_vector":"1"}},{"base_weights":[-4.7211293E-3,1.8857504E-1,-8.7194E-2,3.0413827E-1,-2.0795409E-2,-1.4184475E-1,3.8061816E-2,-2.4048295E-3,1.36368E-1,-9.375598E-3,-1.0574748E-1,1.3111721E-1,-6.4616725E-2,-3.134074E-2,8.206138E-2],"categories":[],"categories_nodes":[],"categories_segments":[],"categories_sizes":[],"default_left":[0,0,0,0,0,0,0,0,0,0,0,0,0,0,0],"id":30,"left_children":[1,3,5,7,-1,9,-1,-1,-1,11,-1,13,-1,-1,-1],"loss_changes":[2.2828908E-1,1.4894915E-1,1.3496684E-1,1.5147573E-1,0E0,2.3212649E-1,0E0,0E0,0E0,2.07895E-1,0E0,1.7325354E-1,0E0,0E0,0E0],"parents":[2147483647,0,0,1,1,2,2,3,3,5,5,9,9,11,11],"right_children":[2,4,6,8,-1,10,-1,-1,-1,12,-1,14,-1,-1,-1],"split_conditions":[1E0,1E0,3E0,1E-1,-2.0795409E-2,1.4E2,3.8061816E-2,-2.4048295E-3,1.36368E-1,7E-1,-1.0574748E-1,1E0,-6.4616725E-2,-3.134074E-2,8.206138E-2],"split_indices":[1,8,2,9,0,3,0,0,0,9,0,6,0,0,0],"split_type":[0,0,0,0,0,0,0,0,0,0,0,0,0,0,0],"sum_hessian":[1.2288834E1,3.29041E0,8.998424E0,2.1483872E0,1.142023E0,7.4371233E0,1.5613E0,1.0064718E0,1.1419154E0,5.20707E0,2.2300532E0,3.3119826E0,1.8950872E0,1.3482462E0,1.9637365E0],"tree_param":{"num_deleted":"0","num_feature":"13","num_nodes":"15","size_leaf_vector":"1"}},{"base_weights":[-6.1004E-4,6.2328547E-2,-6.9249205E-2,2.2987984E-1,-1.1995599E-2,-4.7031865E-3,1.04773246E-1,-1.8045178E-1,8.068059E-2,2.654225E-2,-1.000336E-1,2.2096711E-1,-6.10132E-2,3.3839053E-1,-2.4207603E-2,3.1354997E-2,1.1849044E-1],"categories":[],"categories_nodes":[],"categories_segments":[],"categories_sizes":[],"default_left":[0,0,0,0,0,0,0,0,0,0,0,0,0,0,0,0,0],"id":31,"left_children":[1,3,-1,5,7,-1,-1,9,11,-1,-1,13,-1,15,-1,-1,-1],"loss_changes":[2.034119E-1,1.4014088E-1,0E0,1.0629113E-1,1.48704E-1,0E0,0E0,1.6768122E-1,2.9336333E-1,0E0,0E0,1.9210097E-1,0E0,5.5785775E-3,0E0,0E0,0E0],"parents":[2147483647,0,0,1,1,3,3,4,4,7,7,8,8,11,11,13,13],"right_children":[2,4,-1,6,8,-1,-1,10,12,-1,-1,14,-1,16,-1,-1,-1],"split_conditions":[2E0,1E0,-6.9249205E-2,2.45E2,5.1E1,-4.7031865E-3,1.04773246E-1,2.23E2,2.73E2,2.654225E-2,-1.000336E-1,1E0,-6.10132E-2,1.29E2,-2.4207603E-2,3.1354997E-2,1.1849044E-1],"split_indices":[11,1,0,4,0,0,0,4,4,0,0,11,0,3,0,0,0],"split_type":[0,0,0,0,0,0,0,0,0,0,0,0,0,0,0,0,0],"sum_hessian":[1.2045388E1,1.0032053E1,2.0133348E0,2.4395537E0,7.5924997E0,1.0821031E0,1.3574505E0,2.3584526E0,5.234047E0,1.0081245E0,1.3503281E0,3.652371E0,1.5816761E0,2.54136E0,1.111011E0,1.0496702E0,1.4916897E0],"tree_param":{"num_deleted":"0","num_feature":"13","num_nodes":"17","size_leaf_vector":"1"}},{"base_weights":[1.6916301E-3,8.935207E-2,-1.2583485E-1,1.10695116E-1,-8.35799E-3,-2.46871E-1,3.666578E-2,1.5551586E-1,-1.3970973E-1,-1.1697874E-1,2.1817281E-3,-2.076235E-3,7.422912E-2,-2.555856E-1,3.7930913E-2,-1.0298118E-2,-1.0207207E-1],"categories":[],"categories_nodes":[],"categories_segments":[],"categories_sizes":[],"default_left":[0,0,0,0,0,0,0,0,0,0,0,0,0,0,0,0,0],"id":32,"left_children":[1,3,5,-1,7,9,-1,11,13,-1,-1,-1,-1,15,-1,-1,-1],"loss_changes":[1.54361E-1,2.2636116E-1,1.9921955E-1,0E0,1.7312683E-1,1.5245378E-1,0E0,5.5500783E-2,1.6896695E-1,0E0,0E0,0E0,0E0,5.2340552E-2,0E0,0E0,0E0],"parents":[2147483647,0,0,1,1,2,2,4,4,5,5,7,7,8,8,13,13],"right_children":[2,4,6,-1,8,10,-1,12,14,-1,-1,-1,-1,16,-1,-1,-1],"split_conditions":[3E0,4.6E1,2.62E2,1.10695116E-1,1E0,2E0,3.666578E-2,2E0,1E0,-1.1697874E-1,2.1817281E-3,-2.076235E-3,7.422912E-2,5.8E1,3.7930913E-2,-1.0298118E-2,-1.0207207E-1],"split_indices":[12,0,4,0,1,10,0,10,5,0,0,0,0,0,0,0,0],"split_type":[0,0,0,0,0,0,0,0,0,0,0,0,0,0,0,0,0],"sum_hessian":[1.1802312E1,7.171819E0,4.6304927E0,1.1381866E0,6.0336323E0,3.115216E0,1.5152767E0,2.6026335E0,3.430999E0,1.651368E0,1.463848E0,1.274669E0,1.3279643E0,2.4179435E0,1.0130557E0,1.0580511E0,1.3598924E0],"tree_param":{"num_deleted":"0","num_feature":"13","num_nodes":"17","size_leaf_vector":"1"}},{"base_weights":[3.5233211E-3,-1.1289251E-1,1.0165159E-1,-2.2529331E-1,4.8180178E-2,2.4757813E-1,-3.5934635E-2,2.7398756E-3,-2.918231E-1,-1.7488638E-2,1.2988973E-1,4.9497243E-2,-6.461193E-2,-1.1723467E-1,-9.857539E-3],"categories":[],"categories_nodes":[],"categories_segments":[],"categories_sizes":[],"default_left":[0,0,0,0,0,0,0,0,0,0,0,0,0,0,0],"id":33,"left_children":[1,3,5,7,-1,9,11,-1,13,-1,-1,-1,-1,-1,-1],"loss_changes":[1.5508811E-1,2.2750533E-1,1.5642032E-1,7.795033E-2,0E0,2.346255E-1,2.0337155E-1,0E0,8.4294885E-2,0E0,0E0,0E0,0E0,0E0,0E0],"parents":[2147483647,0,0,1,1,2,2,3,3,5,5,6,6,8,8],"right_children":[2,4,6,8,-1,10,12,-1,14,-1,-1,-1,-1,-1,-1],"split_conditions":[1E0,6.4E1,5.6E1,1.17E2,4.8180178E-2,1.22E2,2.44E2,2.7398756E-3,1.57E2,-1.7488638E-2,1.2988973E-1,4.9497243E-2,-6.461193E-2,-1.1723467E-1,-9.857539E-3],"split_indices":[2,0,0,3,0,3,4,0,7,0,0,0,0,0,0],"split_type":[0,0,0,0,0,0,0,0,0,0,0,0,0,0,0],"sum_hessian":[1.1571462E1,5.223743E0,6.347719E0,3.8271077E0,1.3966354E0,2.6925306E0,3.6551883E0,1.0367414E0,2.7903662E0,1.2747881E0,1.4177424E0,1.7623359E0,1.8928524E0,1.6505991E0,1.1397672E0],"tree_param":{"num_deleted":"0","num_feature":"13","num_nodes":"15","size_leaf_vector":"1"}},{"base_weights":[4.365076E-3,5.6453325E-2,-5.648412E-2,1.1571212E-1,-4.319151E-2,9.939923E-2,1.00586265E-2,-6.611832E-2,1.359292E-1,2.1015944E-1,-2.1228649E-2,8.782384E-3,9.196671E-2],"categories":[],"categories_nodes":[],"categories_segments":[],"categories_sizes":[],"default_left":[0,0,0,0,0,0,0,0,0,0,0,0,0],"id":34,"left_children":[1,3,-1,5,-1,-1,7,-1,9,11,-1,-1,-1],"loss_changes":[1.344927E-1,1.4119898E-1,0E0,1.9366302E-1,0E0,0E0,2.2822091E-1,0E0,9.2183985E-2,6.0064673E-2,0E0,0E0,0E0],"parents":[2147483647,0,0,1,1,3,3,6,6,8,8,9,9],"right_children":[2,4,-1,6,-1,-1,8,-1,10,12,-1,-1,-1],"split_conditions":[2E0,1.69E2,-5.648412E-2,1E0,-4.319151E-2,9.939923E-2,5.3E1,-6.611832E-2,2.71E2,1.32E2,-2.1228649E-2,8.782384E-3,9.196671E-2],"split_indices":[11,7,0,1,0,0,0,0,4,3,0,0,0],"split_type":[0,0,0,0,0,0,0,0,0,0,0,0,0],"sum_hessian":[1.1343698E1,9.485837E0,1.8578608E0,7.647423E0,1.8384141E0,1.8124813E0,5.8349414E0,1.7959058E0,4.039036E0,2.9594226E0,1.0796132E0,1.4820634E0,1.477359E0],"tree_param":{"num_deleted":"0","num_feature":"13","num_nodes":"13","size_leaf_vector":"1"}},{"base_weights":[4.535426E-3,-1.0069318E-1,9.330158E-2,8.609813E-2,-2.6532936E-1,2.339465E-1,-3.771441E-2,7.153598E-2,-2.828742E-2,-1.14663474E-1,-1.6054546E-3,-8.420823E-3,1.16511516E-1,6.0461428E-2,-1.6783023E-1,-1.06868535E-1,2.8662989E-2],"categories":[],"categories_nodes":[],"categories_segments":[],"categories_sizes":[],"default_left":[0,0,0,0,0,0,0,0,0,0,0,0,0,0,0,0,0],"id":35,"left_children":[1,3,5,7,9,11,13,-1,-1,-1,-1,-1,-1,-1,15,-1,-1],"loss_changes":[1.2327251E-1,2.0918716E-1,1.402443E-1,1.2125099E-1,1.03266254E-1,1.5569325E-1,1.7558064E-1,0E0,0E0,0E0,0E0,0E0,0E0,0E0,2.0746197E-1,0E0,0E0],"parents":[2147483647,0,0,1,1,2,2,3,3,4,4,5,5,6,6,14,14],"right_children":[2,4,6,8,10,12,14,-1,-1,-1,-1,-1,-1,-1,16,-1,-1],"split_conditions":[1E0,1.53E2,5.6E1,7E-1,1.32E2,1.22E2,1.26E2,7.153598E-2,-2.828742E-2,-1.14663474E-1,-1.6054546E-3,-8.420823E-3,1.16511516E-1,6.0461428E-2,1.42E2,-1.06868535E-1,2.8662989E-2],"split_indices":[2,7,0,9,3,3,3,0,0,0,0,0,0,0,3,0,0],"split_type":[0,0,0,0,0,0,0,0,0,0,0,0,0,0,0,0,0],"sum_hessian":[1.1191505E1,5.0594144E0,6.1320915E0,2.5937092E0,2.4657052E0,2.5784774E0,3.5536141E0,1.2316178E0,1.3620915E0,1.3766252E0,1.08908E0,1.2595721E0,1.3189051E0,1.0584534E0,2.4951608E0,1.2490917E0,1.2460691E0],"tree_param":{"num_deleted":"0","num_feature":"13","num_nodes":"17","size_leaf_vector":"1"}},{"base_weights":[4.779991E-3,9.1695815E-2,-1.0211673E-1,-2.3445358E-2,1.123975E-1,-2.1476257E-1,5.97896E-2,1.2857522E-1,-1.5578842E-1,-3.2700837E-2,-1.09412275E-1,-1.50711695E-2,7.162302E-2,-1.09403074E-1,2.7729062E-2,1.799606E-2,-3.2018468E-2],"categories":[],"categories_nodes":[],"categories_segments":[],"categories_sizes":[],"default_left":[0,0,0,0,0,0,0,0,0,0,0,0,0,0,0,0,0],"id":36,"left_children":[1,3,5,7,-1,9,-1,11,13,15,-1,-1,-1,-1,-1,-1,-1],"loss_changes":[1.2050683E-1,2.4091215E-1,2.4101058E-1,1.4084819E-1,0E0,1.1722316E-1,0E0,7.784255E-2,2.2360897E-1,2.859978E-2,0E0,0E0,0E0,0E0,0E0,0E0,0E0],"parents":[2147483647,0,0,1,1,2,2,3,3,5,5,7,7,8,8,9,9],"right_children":[2,4,6,8,-1,10,-1,12,14,16,-1,-1,-1,-1,-1,-1,-1],"split_conditions":[8E-1,4E-1,2E0,5.7E1,1.123975E-1,3E0,5.97896E-2,1E0,6.2E1,1.45E2,-1.09412275E-1,-1.50711695E-2,7.162302E-2,-1.09403074E-1,2.7729062E-2,1.799606E-2,-3.2018468E-2],"split_indices":[9,9,10,0,0,12,0,2,0,7,0,0,0,0,0,0,0],"split_type":[0,0,0,0,0,0,0,0,0,0,0,0,0,0,0,0,0],"sum_hessian":[1.0962433E1,6.1247272E0,4.837705E0,5.0051923E0,1.1195353E0,3.7308774E0,1.106828E0,2.3426704E0,2.6625216E0,2.2351122E0,1.4957652E0,1.1004844E0,1.2421861E0,1.1910319E0,1.4714897E0,1.0766875E0,1.1584247E0],"tree_param":{"num_deleted":"0","num_feature":"13","num_nodes":"17","size_leaf_vector":"1"}},{"base_weights":[5.371922E-3,7.4316695E-2,-1.1113075E-1,1.667422E-1,-3.7464906E-2,-9.537599E-2,3.8749114E-2,-1.8842656E-2,3.2382536E-1,4.713491E-2,-6.019662E-2,1.2810555E-1,1.8671388E-2],"categories":[],"categories_nodes":[],"categories_segments":[],"categories_sizes":[],"default_left":[0,0,0,0,0,0,0,0,0,0,0,0,0],"id":37,"left_children":[1,3,5,7,-1,-1,-1,9,11,-1,-1,-1,-1],"loss_changes":[1.0243762E-1,1.6747239E-1,2.775814E-1,1.7719711E-1,0E0,0E0,0E0,1.478299E-1,6.071061E-2,0E0,0E0,0E0,0E0],"parents":[2147483647,0,0,1,1,2,2,3,3,7,7,8,8],"right_children":[2,4,6,8,-1,-1,-1,10,12,-1,-1,-1,-1],"split_conditions":[1E0,6.1E1,1E0,5.3E1,-3.7464906E-2,-9.537599E-2,3.8749114E-2,3E0,2.59E2,4.713491E-2,-6.019662E-2,1.2810555E-1,1.8671388E-2],"split_indices":[11,0,6,0,0,0,0,12,4,0,0,0,0],"split_type":[0,0,0,0,0,0,0,0,0,0,0,0,0],"sum_hessian":[1.0725075E1,6.9652395E0,3.7598355E0,4.8690276E0,2.0962121E0,1.8471757E0,1.9126599E0,2.6354449E0,2.2335825E0,1.4083109E0,1.227134E0,1.1482139E0,1.0853688E0],"tree_param":{"num_deleted":"0","num_feature":"13","num_nodes":"13","size_leaf_vector":"1"}},{"base_weights":[7.4773193E-3,-4.2415746E-2,5.021351E-2,7.083923E-2,-1.6855405E-1,2.073641E-1,-1.21735536E-1,-8.5373394E-2,-1.5149528E-2,-1.6206443E-2,1.2356013E-1,-6.280831E-2,7.800592E-3,-7.539517E-2,7.071681E-2],"categories":[],"categories_nodes":[],"categories_segments":[],"categories_sizes":[],"default_left":[0,0,0,0,0,0,0,0,0,0,0,0,0,0,0],"id":38,"left_children":[1,3,-1,5,7,9,11,-1,13,-1,-1,-1,-1,-1,-1],"loss_changes":[9.920434E-2,1.4904301E-1,0E0,1.7670487E-1,8.176705E-2,2.2221805E-1,4.4539012E-2,0E0,2.4521191E-1,0E0,0E0,0E0,0E0,0E0,0E0],"parents":[2147483647,0,0,1,1,3,3,4,4,5,5,6,6,8,8],"right_children":[2,4,-1,6,8,10,12,-1,14,-1,-1,-1,-1,-1,-1],"split_conditions":[2.95E2,8E-1,5.021351E-2,2.41E2,2E0,1E0,2.61E2,-8.5373394E-2,2.32E2,-1.6206443E-2,1.2356013E-1,-6.280831E-2,7.800592E-3,-7.539517E-2,7.071681E-2],"split_indices":[4,9,0,4,2,2,4,0,4,0,0,0,0,0,0],"split_type":[0,0,0,0,0,0,0,0,0,0,0,0,0,0,0],"sum_hessian":[1.0544925E1,8.597142E0,1.9477826E0,4.760902E0,3.8362398E0,2.7409337E0,2.0199683E0,1.6973823E0,2.1388576E0,1.5261389E0,1.2147948E0,1.0061121E0,1.0138562E0,1.1008031E0,1.0380545E0],"tree_param":{"num_deleted":"0","num_feature":"13","num_nodes":"15","size_leaf_vector":"1"}},{"base_weights":[6.668505E-3,7.273718E-2,-1.0625284E-1,-3.0404083E-2,7.4792586E-2,-2.7711236E-1,4.4002853E-2,1.4409491E-1,-1.8676193E-1,-1.8952185E-2,-1.0743059E-1,1.0326694E-1,-3.589054E-2,-9.199798E-2,1.18762925E-2],"categories":[],"categories_nodes":[],"categories_segments":[],"categories_sizes":[],"default_left":[0,0,0,0,0,0,0,0,0,0,0,0,0,0,0],"id":39,"left_children":[1,3,5,7,-1,9,-1,11,13,-1,-1,-1,-1,-1,-1],"loss_changes":[9.2493184E-2,1.4893085E-1,2.3944482E-1,1.8491003E-1,0E0,3.0945376E-2,0E0,2.154145E-1,1.0684618E-1,0E0,0E0,0E0,0E0,0E0,0E0],"parents":[2147483647,0,0,1,1,2,2,3,3,5,5,7,7,8,8],"right_children":[2,4,6,8,-1,10,-1,12,14,-1,-1,-1,-1,-1,-1],"split_conditions":[1E0,1.61E2,6.3E1,1E0,7.4792586E-2,5.7E1,4.4002853E-2,3E0,2E0,-1.8952185E-2,-1.0743059E-1,1.0326694E-1,-3.589054E-2,-9.199798E-2,1.18762925E-2],"split_indices":[11,7,0,6,0,0,0,12,10,0,0,0,0,0,0],"split_type":[0,0,0,0,0,0,0,0,0,0,0,0,0,0,0],"sum_hessian":[1.0361696E1,6.7614994E0,3.6001973E0,4.7908263E0,1.970673E0,2.091635E0,1.5085622E0,2.3011348E0,2.4896915E0,1.063189E0,1.028446E0,1.1347978E0,1.1663371E0,1.3956205E0,1.094071E0],"tree_param":{"num_deleted":"0","num_feature":"13","num_nodes":"15","size_leaf_vector":"1"}},{"base_weights":[2.9273669E-3,1.3652621E-1,-5.4431465E-2,-2.0541854E-3,7.0771955E-2,3.5105266E-2,-1.1897101E-1,-1.6447155E-1,2.0631172E-2,-4.32189E-2,-1.03334956E-1,9.059248E-2,-6.686593E-2,5.568278E-2,-1.3357635E-2],"categories":[],"categories_nodes":[],"categories_segments":[],"categories_sizes":[],"default_left":[0,0,0,0,0,0,0,0,0,0,0,0,0,0,0],"id":40,"left_children":[1,3,5,-1,-1,-1,7,9,-1,11,-1,13,-1,-1,-1],"loss_changes":[9.275521E-2,5.3330854E-2,1.0803027E-1,0E0,0E0,0E0,6.8329014E-2,1.0879463E-1,0E0,1.2909243E-1,0E0,5.072312E-2,0E0,0E0,0E0],"parents":[2147483647,0,0,1,1,2,2,6,6,7,7,9,9,11,11],"right_children":[2,4,6,-1,-1,-1,8,10,-1,12,-1,14,-1,-1,-1],"split_conditions":[1E0,2E0,2.12E2,-2.0541854E-3,7.0771955E-2,3.5105266E-2,3E0,1.44E2,2.0631172E-2,6E-1,-1.03334956E-1,5.7E1,-6.686593E-2,5.568278E-2,-1.3357635E-2],"split_indices":[1,10,4,0,0,0,2,3,0,9,0,0,0,0,0],"split_type":[0,0,0,0,0,0,0,0,0,0,0,0,0,0,0],"sum_hessian":[1.0134421E1,2.6295416E0,7.50488E0,1.4576812E0,1.1718605E0,1.8301039E0,5.674776E0,4.6675167E0,1.0072592E0,3.5296803E0,1.1378365E0,2.3071537E0,1.2225268E0,1.1351895E0,1.1719642E0],"tree_param":{"num_deleted":"0","num_feature":"13","num_nodes":"15","size_leaf_vector":"1"}},{"base_weights":[1.6840509E-3,-7.003645E-2,1.0499428E-1,5.9405103E-2,-2.2607565E-1,-3.563618E-2,2.217332E-1,6.778241E-2,-3.4136683E-2,-1.12703934E-1,1.9349692E-3,3.7685523E-3,8.990106E-2],"categories":[],"categories_nodes":[],"categories_segments":[],"categories_sizes":[],"default_left":[0,0,0,0,0,0,0,0,0,0,0,0,0],"id":41,"left_children":[1,3,5,7,9,-1,11,-1,-1,-1,-1,-1,-1],"loss_changes":[8.884796E-2,1.5666884E-1,1.5452868E-1,1.6035339E-1,1.21519074E-1,0E0,5.4492638E-2,0E0,0E0,0E0,0E0,0E0,0E0],"parents":[2147483647,0,0,1,1,2,2,3,3,4,4,6,6],"right_children":[2,4,6,8,10,-1,12,-1,-1,-1,-1,-1,-1],"split_conditions":[2E0,1.58E2,2.32E2,1E0,1E0,-3.563618E-2,4E-1,6.778241E-2,-3.4136683E-2,-1.12703934E-1,1.9349692E-3,3.7685523E-3,8.990106E-2],"split_indices":[2,7,4,8,6,0,9,0,0,0,0,0,0],"split_type":[0,0,0,0,0,0,0,0,0,0,0,0,0],"sum_hessian":[9.998712E0,6.091747E0,3.9069643E0,3.668147E0,2.4236E0,1.3333895E0,2.5735745E0,1.714754E0,1.9533931E0,1.1001363E0,1.3234637E0,1.0138174E0,1.5597571E0],"tree_param":{"num_deleted":"0","num_feature":"13","num_nodes":"13","size_leaf_vector":"1"}},{"base_weights":[-5.0333585E-4,1.09788984E-1,-6.7379735E-2,2.2025584E-1,-3.0082846E-2,-1.9367681E-1,5.2835807E-2,9.798605E-2,4.199272E-3,5.489714E-2,-1.2680537E-1,-4.416688E-2,7.5897925E-2],"categories":[],"categories_nodes":[],"categories_segments":[],"categories_sizes":[],"default_left":[0,0,0,0,0,0,0,0,0,0,0,0,0],"id":42,"left_children":[1,3,5,7,-1,9,11,-1,-1,-1,-1,-1,-1],"loss_changes":[8.765167E-2,1.2621784E-1,1.22481525E-1,6.6810146E-2,0E0,4.0683228E-1,2.2038044E-1,0E0,0E0,0E0,0E0,0E0,0E0],"parents":[2147483647,0,0,1,1,2,2,3,3,5,5,6,6],"right_children":[2,4,6,8,-1,10,12,-1,-1,-1,-1,-1,-1],"split_conditions":[2.29E2,5.9E1,2.62E2,1.55E2,-3.0082846E-2,1E0,1E0,9.798605E-2,4.199272E-3,5.489714E-2,-1.2680537E-1,-4.416688E-2,7.5897925E-2],"split_indices":[4,0,4,7,0,6,6,0,0,0,0,0,0],"split_type":[0,0,0,0,0,0,0,0,0,0,0,0,0],"sum_hessian":[9.880507E0,3.4874113E0,6.3930964E0,2.2537308E0,1.2336805E0,2.8196862E0,3.5734103E0,1.1019316E0,1.1517992E0,1.1421095E0,1.6775767E0,1.9194095E0,1.6540009E0],"tree_param":{"num_deleted":"0","num_feature":"13","num_nodes":"13","size_leaf_vector":"1"}},{"base_weights":[2.4825928E-3,4.8821047E-2,-4.969735E-2,9.471503E-2,-3.0573877E-2,8.2366295E-2,3.4258987E-3,-5.206976E-2,1.0208706E-1,5.1261064E-2,-3.1767946E-3],"categories":[],"categories_nodes":[],"categories_segments":[],"categories_sizes":[],"default_left":[0,0,0,0,0,0,0,0,0,0,0],"id":43,"left_children":[1,3,-1,5,-1,-1,7,-1,9,-1,-1],"loss_changes":[9.16284E-2,7.3144436E-2,0E0,1.2307867E-1,0E0,0E0,1.2289893E-1,0E0,3.6663003E-2,0E0,0E0],"parents":[2147483647,0,0,1,1,3,3,6,6,8,8],"right_children":[2,4,-1,6,-1,-1,8,-1,10,-1,-1],"split_conditions":[2E0,1.69E2,-4.969735E-2,1E0,-3.0573877E-2,8.2366295E-2,5.3E1,-5.206976E-2,2.44E2,5.1261064E-2,-3.1767946E-3],"split_indices":[11,7,0,1,0,0,0,0,4,0,0],"split_type":[0,0,0,0,0,0,0,0,0,0,0],"sum_hessian":[9.722228E0,8.17805E0,1.5441784E0,6.5541487E0,1.6239011E0,1.5308516E0,5.023297E0,1.5261931E0,3.497104E0,1.8508104E0,1.6462934E0],"tree_param":{"num_deleted":"0","num_feature":"13","num_nodes":"11","size_leaf_vector":"1"}},{"base_weights":[1.7528977E-3,6.138422E-2,-9.822398E-2,-4.1309834E-2,7.030298E-2,-8.144469E-2,3.272896E-2,1.1951201E-1,-1.7769031E-1,8.806593E-2,-3.159134E-2,-8.020757E-2,3.7005716E-3],"categories":[],"categories_nodes":[],"categories_segments":[],"categories_sizes":[],"default_left":[0,0,0,0,0,0,0,0,0,0,0,0,0],"id":44,"left_children":[1,3,5,7,-1,-1,-1,9,11,-1,-1,-1,-1],"loss_changes":[6.9388464E-2,1.3885234E-1,1.8605565E-1,1.3996425E-1,0E0,0E0,0E0,1.5149905E-1,6.006121E-2,0E0,0E0,0E0,0E0],"parents":[2147483647,0,0,1,1,2,2,3,3,7,7,8,8],"right_children":[2,4,6,8,-1,-1,-1,10,12,-1,-1,-1,-1],"split_conditions":[1E0,1.61E2,1E0,1E0,7.030298E-2,-8.144469E-2,3.272896E-2,3E0,2E0,8.806593E-2,-3.159134E-2,-8.020757E-2,3.7005716E-3],"split_indices":[11,7,6,6,0,0,0,12,10,0,0,0,0],"split_type":[0,0,0,0,0,0,0,0,0,0,0,0,0],"sum_hessian":[9.627589E0,6.2724156E0,3.3551738E0,4.413229E0,1.859187E0,1.6591426E0,1.6960312E0,2.0819042E0,2.3313246E0,1.0011337E0,1.0807705E0,1.3074236E0,1.0239011E0],"tree_param":{"num_deleted":"0","num_feature":"13","num_nodes":"13","size_leaf_vector":"1"}},{"base_weights":[1.4389011E-3,-6.70039E-2,9.772701E-2,5.0396487E-2,-1.4019004E-1,-3.05661E-2,1.9976488E-1,-2.2322425E-1,3.0277835E-2,8.043276E-2,8.094379E-3,-7.885725E-3,-9.838024E-2],"categories":[],"categories_nodes":[],"categories_segments":[],"categories_sizes":[],"default_left":[0,0,0,0,0,0,0,0,0,0,0,0,0],"id":45,"left_children":[1,3,5,-1,7,-1,9,11,-1,-1,-1,-1,-1],"loss_changes":[7.54506E-2,1.3885595E-1,1.1711703E-1,0E0,1.3579619E-1,0E0,3.3878192E-2,8.458027E-2,0E0,0E0,0E0,0E0,0E0],"parents":[2147483647,0,0,1,1,2,2,4,4,6,6,7,7],"right_children":[2,4,6,-1,8,-1,10,12,-1,-1,-1,-1,-1],"split_conditions":[2E0,1.12E2,2.32E2,5.0396487E-2,6.4E1,-3.05661E-2,2.71E2,2.41E2,3.0277835E-2,8.043276E-2,8.094379E-3,-7.885725E-3,-9.838024E-2],"split_indices":[2,3,4,0,0,0,4,4,0,0,0,0,0],"split_type":[0,0,0,0,0,0,0,0,0,0,0,0,0],"sum_hessian":[9.455254E0,5.7045317E0,3.7507222E0,1.04709E0,4.6574416E0,1.2692331E0,2.481489E0,3.5195897E0,1.1378518E0,1.3828142E0,1.0986749E0,1.6560054E0,1.8635843E0],"tree_param":{"num_deleted":"0","num_feature":"13","num_nodes":"13","size_leaf_vector":"1"}},{"base_weights":[4.075608E-3,7.133031E-2,-9.2535235E-2,-7.732271E-2,1.7089918E-1,-1.8822122E-1,2.9239563E-2,-8.272144E-2,4.7187917E-2,9.0487674E-2,-2.2920854E-2,-9.296159E-2,5.8755516E-3],"categories":[],"categories_nodes":[],"categories_segments":[],"categories_sizes":[],"default_left":[0,0,0,0,0,0,0,0,0,0,0,0,0],"id":46,"left_children":[1,3,5,7,9,11,-1,-1,-1,-1,-1,-1,-1],"loss_changes":[7.387545E-2,1.1192512E-1,1.03516705E-1,1.9995466E-1,1.6223519E-1,9.3457974E-2,0E0,0E0,0E0,0E0,0E0,0E0,0E0],"parents":[2147483647,0,0,1,1,2,2,3,3,4,4,5,5],"right_children":[2,4,6,8,10,12,-1,-1,-1,-1,-1,-1,-1],"split_conditions":[3E0,1E-1,2.62E2,1.59E2,1E0,2E0,2.9239563E-2,-8.272144E-2,4.7187917E-2,9.0487674E-2,-2.2920854E-2,-9.296159E-2,5.8755516E-3],"split_indices":[12,9,4,7,11,10,0,0,0,0,0,0,0],"split_type":[0,0,0,0,0,0,0,0,0,0,0,0,0],"sum_hessian":[9.353911E0,5.669098E0,3.6848133E0,2.363659E0,3.305439E0,2.4568734E0,1.2279398E0,1.1856636E0,1.1779953E0,2.0186794E0,1.2867596E0,1.2398834E0,1.2169901E0],"tree_param":{"num_deleted":"0","num_feature":"13","num_nodes":"13","size_leaf_vector":"1"}},{"base_weights":[4.2456188E-4,-8.946284E-2,7.831497E-2,5.766056E-2,-6.870015E-2,7.745093E-2,-2.9540949E-2,6.554523E-2,-3.666832E-2,-1.255007E-1,4.0228482E-2,2.8915133E-2,-8.203227E-2],"categories":[],"categories_nodes":[],"categories_segments":[],"categories_sizes":[],"default_left":[0,0,0,0,0,0,0,0,0,0,0,0,0],"id":47,"left_children":[1,3,5,7,-1,-1,9,-1,-1,11,-1,-1,-1],"loss_changes":[7.847025E-2,1.2006767E-1,1.24050535E-1,1.23120435E-1,0E0,0E0,8.983203E-2,0E0,0E0,1.3950978E-1,0E0,0E0,0E0],"parents":[2147483647,0,0,1,1,2,2,3,3,6,6,9,9],"right_children":[2,4,6,8,-1,-1,10,-1,-1,12,-1,-1,-1],"split_conditions":[1E0,1.55E2,2.28E2,7E-1,-6.870015E-2,7.745093E-2,1.42E2,6.554523E-2,-3.666832E-2,5.6E1,4.0228482E-2,2.8915133E-2,-8.203227E-2],"split_indices":[2,7,4,9,0,0,3,0,0,0,0,0,0],"split_type":[0,0,0,0,0,0,0,0,0,0,0,0,0],"sum_hessian":[9.207148E0,4.2054195E0,5.0017285E0,2.3326902E0,1.8727292E0,1.3525813E0,3.6491473E0,1.1183287E0,1.2143614E0,2.447139E0,1.202008E0,1.1183319E0,1.3288072E0],"tree_param":{"num_deleted":"0","num_feature":"13","num_nodes":"13","size_leaf_vector":"1"}},{"base_weights":[2.7886725E-3,1.2748753E-1,-5.0953217E-2,-2.8153793E-3,6.611479E-2,2.4858683E-2,-1.6239965E-1,-1.1164317E-1,7.6276205E-2,-7.962865E-2,3.6311434E-3,3.0693106E-2,-8.979408E-2],"categories":[],"categories_nodes":[],"categories_segments":[],"categories_sizes":[],"default_left":[0,0,0,0,0,0,0,0,0,0,0,0,0],"id":48,"left_children":[1,3,5,-1,-1,7,9,11,-1,-1,-1,-1,-1],"loss_changes":[7.399617E-2,4.4269495E-2,6.954401E-2,0E0,0E0,2.0002991E-1,6.2033884E-2,1.9651386E-1,0E0,0E0,0E0,0E0,0E0],"parents":[2147483647,0,0,1,1,2,2,5,5,6,6,7,7],"right_children":[2,4,6,-1,-1,8,10,12,-1,-1,-1,-1,-1],"split_conditions":[1E0,2E0,1E0,-2.8153793E-3,6.611479E-2,1.61E2,2E0,1.49E2,7.6276205E-2,-7.962865E-2,3.6311434E-3,3.0693106E-2,-8.979408E-2],"split_indices":[1,10,11,0,0,7,2,7,0,0,0,0,0],"split_type":[0,0,0,0,0,0,0,0,0,0,0,0,0],"sum_hessian":[9.072333E0,2.3190818E0,6.753252E0,1.3010639E0,1.0180179E0,4.481582E0,2.2716699E0,3.1314976E0,1.3500844E0,1.1007314E0,1.1709384E0,1.6758204E0,1.4556774E0],"tree_param":{"num_deleted":"0","num_feature":"13","num_nodes":"13","size_leaf_vector":"1"}},{"base_weights":[2.4189816E-3,6.768814E-2,-7.643027E-2,-5.0794434E-2,6.906163E-2,-6.214964E-2,7.1201846E-2,2.6825713E-2,-5.613449E-2,-3.7555654E-2,6.8473175E-2],"categories":[],"categories_nodes":[],"categories_segments":[],"categories_sizes":[],"default_left":[0,0,0,0,0,0,0,0,0,0,0],"id":49,"left_children":[1,3,5,7,-1,-1,9,-1,-1,-1,-1],"loss_changes":[5.629686E-2,1.2655668E-1,1.1064685E-1,9.833409E-2,0E0,0E0,1.23492055E-1,0E0,0E0,0E0,0E0],"parents":[2147483647,0,0,1,1,2,2,3,3,6,6],"right_children":[2,4,6,8,-1,-1,10,-1,-1,-1,-1],"split_conditions":[8E-1,1E-1,2.39E2,5.7E1,6.906163E-2,-6.214964E-2,2E0,2.6825713E-2,-5.613449E-2,-3.7555654E-2,6.8473175E-2],"split_indices":[9,9,4,0,0,0,2,0,0,0,0],"split_type":[0,0,0,0,0,0,0,0,0,0,0],"sum_hessian":[8.933778E0,4.9652424E0,3.9685357E0,3.2692566E0,1.695986E0,1.8908468E0,2.0776887E0,1.7812212E0,1.4880354E0,1.0133313E0,1.0643574E0],"tree_param":{"num_deleted":"0","num_feature":"13","num_nodes":"11","size_leaf_vector":"1"}},{"base_weights":[2.645214E-3,1.2545352E-1,-5.0689906E-2,3.3901765E-3,5.2878644E-2,3.195722E-2,-1.1055559E-1,-7.408464E-2,-2.9116431E-2,9.285301E-2,-6.2692285E-2,-3.4712244E-2,8.6362794E-2],"categories":[],"categories_nodes":[],"categories_segments":[],"categories_sizes":[],"default_left":[0,0,0,0,0,0,0,0,0,0,0,0,0],"id":50,"left_children":[1,3,5,-1,-1,-1,7,-1,9,11,-1,-1,-1],"loss_changes":[7.079329E-2,1.6953334E-2,8.3031364E-2,0E0,0E0,0E0,5.916386E-2,0E0,1.263259E-1,1.796048E-1,0E0,0E0,0E0],"parents":[2147483647,0,0,1,1,2,2,6,6,8,8,9,9],"right_children":[2,4,6,-1,-1,-1,8,-1,10,12,-1,-1,-1],"split_conditions":[1E0,6.2E1,2.12E2,3.3901765E-3,5.2878644E-2,3.195722E-2,5.1E1,-7.408464E-2,2.73E2,1.35E2,-6.2692285E-2,-3.4712244E-2,8.6362794E-2],"split_indices":[1,0,4,0,0,0,0,0,4,3,0,0,0],"split_type":[0,0,0,0,0,0,0,0,0,0,0,0,0],"sum_hessian":[8.83727E0,2.2664397E0,6.5708294E0,1.0745772E0,1.1918625E0,1.5971502E0,4.9736795E0,1.0996652E0,3.8740141E0,2.596772E0,1.2772422E0,1.451362E0,1.1454101E0],"tree_param":{"num_deleted":"0","num_feature":"13","num_nodes":"13","size_leaf_vector":"1"}},{"base_weights":[2.2548584E-3,-7.650958E-2,7.072441E-2,-1.6099818E-1,3.682008E-2,-6.706658E-2,2.0029666E-1,1.2796045E-2,-7.360104E-2,-6.4253695E-2,3.0037731E-2,8.11127E-2,7.1050473E-3],"categories":[],"categories_nodes":[],"categories_segments":[],"categories_sizes":[],"default_left":[0,0,0,0,0,0,0,0,0,0,0,0,0],"id":51,"left_children":[1,3,5,7,-1,9,11,-1,-1,-1,-1,-1,-1],"loss_changes":[5.79264E-2,1.0407663E-1,1.1571737E-1,7.830596E-2,0E0,1.0816024E-1,3.324437E-2,0E0,0E0,0E0,0E0,0E0,0E0],"parents":[2147483647,0,0,1,1,2,2,3,3,5,5,6,6],"right_children":[2,4,6,8,-1,10,12,-1,-1,-1,-1,-1,-1],"split_conditions":[1E0,6.4E1,1.53E2,1.23E2,3.682008E-2,5.9E1,8E-1,1.2796045E-2,-7.360104E-2,-6.4253695E-2,3.0037731E-2,8.11127E-2,7.1050473E-3],"split_indices":[2,0,7,3,0,0,9,0,0,0,0,0,0],"split_type":[0,0,0,0,0,0,0,0,0,0,0,0,0],"sum_hessian":[8.7377405E0,4.008784E0,4.728957E0,2.9498556E0,1.0589281E0,2.5255802E0,2.2033772E0,1.0086166E0,1.9412389E0,1.1939719E0,1.3316083E0,1.1973747E0,1.0060025E0],"tree_param":{"num_deleted":"0","num_feature":"13","num_nodes":"13","size_leaf_vector":"1"}},{"base_weights":[4.7446094E-3,1.1713258E-1,-4.4324107E-2,5.623153E-3,4.7698338E-2,2.9477695E-2,-1.5209904E-1,-9.841805E-2,7.2223864E-2,-7.732268E-2,8.332971E-3,2.4609456E-2,-7.583101E-2],"categories":[],"categories_nodes":[],"categories_segments":[],"categories_sizes":[],"default_left":[0,0,0,0,0,0,0,0,0,0,0,0,0],"id":52,"left_children":[1,3,5,-1,-1,7,9,11,-1,-1,-1,-1,-1],"loss_changes":[5.8367938E-2,1.0220472E-2,6.364159E-2,0E0,0E0,1.656103E-1,6.768883E-2,1.3163005E-1,0E0,0E0,0E0,0E0,0E0],"parents":[2147483647,0,0,1,1,2,2,5,5,6,6,7,7],"right_children":[2,4,6,-1,-1,8,10,12,-1,-1,-1,-1,-1],"split_conditions":[1E0,1E-1,1E0,5.623153E-3,4.7698338E-2,1.61E2,1E0,1.49E2,7.2223864E-2,-7.732268E-2,8.332971E-3,2.4609456E-2,-7.583101E-2],"split_indices":[1,9,11,0,0,7,6,7,0,0,0,0,0],"split_type":[0,0,0,0,0,0,0,0,0,0,0,0,0],"sum_hessian":[8.642559E0,2.2050211E0,6.4375377E0,1.090277E0,1.1147442E0,4.25221E0,2.1853275E0,2.9814715E0,1.2707386E0,1.1040269E0,1.0813006E0,1.5905437E0,1.3909278E0],"tree_param":{"num_deleted":"0","num_feature":"13","num_nodes":"13","size_leaf_vector":"1"}},{"base_weights":[3.8755457E-3,6.662701E-2,-8.48328E-2,-3.289824E-2,1.4202975E-1,1.6620906E-2,-6.872049E-2,-9.145843E-3,8.560071E-2,4.499637E-2,-5.1187504E-2],"categories":[],"categories_nodes":[],"categories_segments":[],"categories_sizes":[],"default_left":[0,0,0,0,0,0,0,0,0,0,0],"id":53,"left_children":[1,3,5,-1,7,-1,-1,9,-1,-1,-1],"loss_changes":[5.877367E-2,9.731512E-2,1.015612E-1,0E0,1.0535839E-1,0E0,0E0,1.097987E-1,0E0,0E0,0E0],"parents":[2147483647,0,0,1,1,2,2,4,4,7,7],"right_children":[2,4,6,-1,8,-1,-1,10,-1,-1,-1],"split_conditions":[3E0,1.37E2,1.57E2,-3.289824E-2,1.38E2,1.6620906E-2,-6.872049E-2,5.6E1,8.560071E-2,4.499637E-2,-5.1187504E-2],"split_indices":[12,7,7,0,3,0,0,0,0,0,0],"split_type":[0,0,0,0,0,0,0,0,0,0,0],"sum_hessian":[8.542938E0,5.1492953E0,3.393643E0,1.4065404E0,3.7427547E0,2.0329509E0,1.3606921E0,2.2769477E0,1.465807E0,1.1826439E0,1.0943038E0],"tree_param":{"num_deleted":"0","num_feature":"13","num_nodes":"11","size_leaf_vector":"1"}},{"base_weights":[2.3122486E-3,3.5406966E-2,-4.4093598E-2,3.7156016E-2,-5.942571E-2,-7.9277895E-2,1.6146044E-1,3.0344E-2,-6.391036E-2,6.3835226E-2,9.155995E-3],"categories":[],"categories_nodes":[],"categories_segments":[],"categories_sizes":[],"default_left":[0,0,0,0,0,0,0,0,0,0,0],"id":54,"left_children":[1,-1,3,5,-1,7,9,-1,-1,-1,-1],"loss_changes":[5.5917494E-2,0E0,1.0081045E-1,9.575133E-2,0E0,1.0915154E-1,1.4347576E-2,0E0,0E0,0E0,0E0],"parents":[2147483647,0,0,2,2,3,3,5,5,6,6],"right_children":[2,-1,4,6,-1,8,10,-1,-1,-1,-1],"split_conditions":[2.12E2,3.5406966E-2,1.4E0,2.62E2,-5.942571E-2,1E0,1.32E2,3.0344E-2,-6.391036E-2,6.3835226E-2,9.155995E-3],"split_indices":[4,0,9,4,0,6,3,0,0,0,0],"split_type":[0,0,0,0,0,0,0,0,0,0,0],"sum_hessian":[8.44443E0,1.9754496E0,6.468981E0,4.731338E0,1.737643E0,2.6300454E0,2.1012924E0,1.223485E0,1.4065604E0,1.0605521E0,1.0407403E0],"tree_param":{"num_deleted":"0","num_feature":"13","num_nodes":"11","size_leaf_vector":"1"}},{"base_weights":[3.2466005E-3,-7.196278E-2,6.870771E-2,-1.5191737E-1,3.4748744E-2,-3.5933957E-2,1.3840804E-1,-1.0050394E-2,-7.166297E-2,7.7505775E-2,-1.403836E-2],"categories":[],"categories_nodes":[],"categories_segments":[],"categories_sizes":[],"default_left":[0,0,0,0,0,0,0,0,0,0,0],"id":55,"left_children":[1,3,5,7,-1,-1,9,-1,-1,-1,-1],"loss_changes":[5.103667E-2,9.034456E-2,8.905893E-2,3.144498E-2,0E0,0E0,1.1186518E-1,0E0,0E0,0E0,0E0],"parents":[2147483647,0,0,1,1,2,2,3,3,6,6],"right_children":[2,4,6,8,-1,-1,10,-1,-1,-1,-1],"split_conditions":[1E0,6.4E1,1.43E2,5.8E1,3.4748744E-2,-3.5933957E-2,1.34E2,-1.0050394E-2,-7.166297E-2,7.7505775E-2,-1.403836E-2],"split_indices":[2,0,7,0,0,0,3,0,0,0,0],"split_type":[0,0,0,0,0,0,0,0,0,0,0],"sum_hessian":[8.362088E0,3.8450844E0,4.517004E0,2.8308506E0,1.0142338E0,1.0254434E0,3.4915607E0,1.7851665E0,1.0456842E0,1.8794081E0,1.6121525E0],"tree_param":{"num_deleted":"0","num_feature":"13","num_nodes":"11","size_leaf_vector":"1"}},{"base_weights":[3.3437475E-4,1.0547963E-1,-4.5279868E-2,1.0033487E-3,4.579388E-2,5.7185132E-2,-1.0838454E-1,-3.416248E-2,5.3603347E-2,-7.261785E-2,3.6281243E-2,6.052764E-2,-4.7731444E-2],"categories":[],"categories_nodes":[],"categories_segments":[],"categories_sizes":[],"default_left":[0,0,0,0,0,0,0,0,0,0,0,0,0],"id":56,"left_children":[1,3,5,-1,-1,7,9,-1,-1,-1,11,-1,-1],"loss_changes":[4.9316417E-2,1.4472302E-2,5.260183E-2,0E0,0E0,9.079704E-2,1.0134833E-1,0E0,0E0,0E0,1.345446E-1,0E0,0E0],"parents":[2147483647,0,0,1,1,2,2,5,5,6,6,10,10],"right_children":[2,4,6,-1,-1,8,10,-1,-1,-1,12,-1,-1],"split_conditions":[1E0,6.2E1,2.29E2,1.0033487E-3,4.579388E-2,1E0,1.28E2,-3.416248E-2,5.3603347E-2,-7.261785E-2,2.64E2,6.052764E-2,-4.7731444E-2],"split_indices":[1,0,4,0,0,6,3,0,0,0,4,0,0],"split_type":[0,0,0,0,0,0,0,0,0,0,0,0,0],"sum_hessian":[8.2867365E0,2.1101677E0,6.176569E0,1.004949E0,1.1052189E0,2.3898695E0,3.7866995E0,1.0185152E0,1.3713543E0,1.6182042E0,2.1684952E0,1.1564506E0,1.0120445E0],"tree_param":{"num_deleted":"0","num_feature":"13","num_nodes":"13","size_leaf_vector":"1"}},{"base_weights":[9.193946E-4,3.20338E-2,-4.2151578E-2,4.5328125E-2,-1.7475845E-1,-4.538708E-2,1.9304183E-1,2.9573636E-2,-1.0877866E-1,-2.135801E-2,1.0796548E-1],"categories":[],"categories_nodes":[],"categories_segments":[],"categories_sizes":[],"default_left":[0,0,0,0,0,0,0,0,0,0,0],"id":57,"left_children":[1,-1,3,5,7,-1,9,-1,-1,-1,-1],"loss_changes":[4.6457995E-2,0E0,9.211545E-2,1.792732E-1,1.9443443E-1,0E0,1.7506489E-1,0E0,0E0,0E0,0E0],"parents":[2147483647,0,0,2,2,3,3,4,4,6,6],"right_children":[2,-1,4,6,8,-1,10,-1,-1,-1,-1],"split_conditions":[1.2E2,3.20338E-2,1E0,4E-1,7E-1,-4.538708E-2,2.39E2,2.9573636E-2,-1.0877866E-1,-2.135801E-2,1.0796548E-1],"split_indices":[3,0,8,9,9,0,4,0,0,0,0],"split_type":[0,0,0,0,0,0,0,0,0,0,0],"sum_hessian":[8.202141E0,1.9442964E0,6.257845E0,4.167051E0,2.0907938E0,1.7772201E0,2.3898308E0,1.0451297E0,1.0456643E0,1.146837E0,1.2429938E0],"tree_param":{"num_deleted":"0","num_feature":"13","num_nodes":"11","size_leaf_vector":"1"}},{"base_weights":[-1.792702E-5,5.3351976E-2,-8.743191E-2,1.3613433E-1,-3.4195907E-2,-6.2976085E-2,3.340586E-2,-1.2673786E-2,8.469887E-2],"categories":[],"categories_nodes":[],"categories_segments":[],"categories_sizes":[],"default_left":[0,0,0,0,0,0,0,0,0],"id":58,"left_children":[1,3,5,7,-1,-1,-1,-1,-1],"loss_changes":[4.6943445E-2,1.0206868E-1,1.16252646E-1,1.3282174E-1,0E0,0E0,0E0,0E0,0E0],"parents":[2147483647,0,0,1,1,2,2,3,3],"right_children":[2,4,6,8,-1,-1,-1,-1,-1],"split_conditions":[1E0,6.1E1,2.61E2,5.3E1,-3.4195907E-2,-6.2976085E-2,3.340586E-2,-1.2673786E-2,8.469887E-2],"split_indices":[11,0,4,0,0,0,0,0,0],"split_type":[0,0,0,0,0,0,0,0,0],"sum_hessian":[8.062439E0,5.2479863E0,2.814453E0,3.635818E0,1.6121682E0,1.706756E0,1.1076969E0,1.9579066E0,1.6779115E0],"tree_param":{"num_deleted":"0","num_feature":"13","num_nodes":"9","size_leaf_vector":"1"}},{"base_weights":[1.0266792E-3,-6.982866E-2,6.25541E-2,2.8690483E-2,-5.344485E-2,6.86037E-2,-3.9903108E-2,5.495796E-2,-3.5654474E-2,-1.24428995E-1,3.23922E-2,-7.7528104E-2,1.9054629E-2],"categories":[],"categories_nodes":[],"categories_segments":[],"categories_sizes":[],"default_left":[0,0,0,0,0,0,0,0,0,0,0,0,0],"id":59,"left_children":[1,3,5,7,-1,-1,9,-1,-1,11,-1,-1,-1],"loss_changes":[4.351863E-2,5.4695502E-2,9.991464E-2,9.6872E-2,0E0,0E0,6.531643E-2,0E0,0E0,9.462775E-2,0E0,0E0,0E0],"parents":[2147483647,0,0,1,1,2,2,3,3,6,6,9,9],"right_children":[2,4,6,8,-1,-1,10,-1,-1,12,-1,-1,-1],"split_conditions":[1E0,3E0,2.28E2,6E1,-5.344485E-2,6.86037E-2,1.42E2,5.495796E-2,-3.5654474E-2,2E0,3.23922E-2,-7.7528104E-2,1.9054629E-2],"split_indices":[2,12,4,0,0,0,3,0,0,10,0,0,0],"split_type":[0,0,0,0,0,0,0,0,0,0,0,0,0],"sum_hessian":[7.9804206E0,3.6463468E0,4.3340735E0,2.2945547E0,1.3517921E0,1.1833823E0,3.1506915E0,1.0027803E0,1.2917744E0,2.1056666E0,1.0450246E0,1.0103227E0,1.0953441E0],"tree_param":{"num_deleted":"0","num_feature":"13","num_nodes":"13","size_leaf_vector":"1"}},{"base_weights":[1.6574165E-3,5.918647E-2,-6.868474E-2,-5.8009516E-2,6.510724E-2,-5.483627E-2,1.9734716E-2,1.9888813E-2,-5.0680727E-2],"categories":[],"categories_nodes":[],"categories_segments":[],"categories_sizes":[],"default_left":[0,0,0,0,0,0,0,0,0],"id":60,"left_children":[1,3,5,7,-1,-1,-1,-1,-1],"loss_changes":[4.0003914E-2,1.1289575E-1,8.042957E-2,6.498982E-2,0E0,0E0,0E0,0E0,0E0],"parents":[2147483647,0,0,1,1,2,2,3,3],"right_children":[2,4,6,8,-1,-1,-1,-1,-1],"split_conditions":[8E-1,1E-1,2.39E2,5.7E1,6.510724E-2,-5.483627E-2,1.9734716E-2,1.9888813E-2,-5.0680727E-2],"split_indices":[9,9,4,0,0,0,0,0,0],"split_type":[0,0,0,0,0,0,0,0,0],"sum_hessian":[7.8809524E0,4.422566E0,3.4583862E0,2.9010108E0,1.5215552E0,1.676465E0,1.7819211E0,1.5577333E0,1.3432775E0],"tree_param":{"num_deleted":"0","num_feature":"13","num_nodes":"9","size_leaf_vector":"1"}},{"base_weights":[1.0991067E-3,3.277199E-2,-4.3462154E-2,-9.829542E-2,3.1117877E-2,-7.1586385E-2,5.247318E-3,4.4750195E-2,-4.953138E-2],"categories":[],"categories_nodes":[],"categories_segments":[],"categories_sizes":[],"default_left":[0,0,0,0,0,0,0,0,0],"id":61,"left_children":[1,-1,3,5,-1,-1,7,-1,-1],"loss_changes":[4.727773E-2,0E0,6.641355E-2,8.244982E-2,0E0,0E0,1.2745586E-1,0E0,0E0],"parents":[2147483647,0,0,2,2,3,3,6,6],"right_children":[2,-1,4,6,-1,-1,8,-1,-1],"split_conditions":[2.12E2,3.277199E-2,2.95E2,1.25E2,3.1117877E-2,-7.1586385E-2,1.5E2,4.4750195E-2,-4.953138E-2],"split_indices":[4,0,4,3,0,0,3,0,0],"split_type":[0,0,0,0,0,0,0,0,0],"sum_hessian":[7.825664E0,1.8601102E0,5.9655538E0,4.5883856E0,1.377168E0,1.3942568E0,3.1941288E0,1.7987944E0,1.3953344E0],"tree_param":{"num_deleted":"0","num_feature":"13","num_nodes":"9","size_leaf_vector":"1"}},{"base_weights":[-7.179129E-4,5.080462E-2,-8.424553E-2,-4.340773E-2,6.195158E-2,-6.437649E-2,3.2459754E-2,3.2887798E-2,-5.0789073E-2],"categories":[],"categories_nodes":[],"categories_segments":[],"categories_sizes":[],"default_left":[0,0,0,0,0,0,0,0,0],"id":62,"left_children":[1,3,5,7,-1,-1,-1,-1,-1],"loss_changes":[4.1979596E-2,9.759163E-2,1.1648536E-1,1.0699684E-1,0E0,0E0,0E0,0E0,0E0],"parents":[2147483647,0,0,1,1,2,2,3,3],"right_children":[2,4,6,8,-1,-1,-1,-1,-1],"split_conditions":[1E0,1.61E2,6.3E1,1E0,6.195158E-2,-6.437649E-2,3.2459754E-2,3.2887798E-2,-5.0789073E-2],"split_indices":[11,7,0,6,0,0,0,0,0],"split_type":[0,0,0,0,0,0,0,0,0],"sum_hessian":[7.7600923E0,5.0418677E0,2.7182243E0,3.5905097E0,1.4513583E0,1.5519943E0,1.1662301E0,1.6788492E0,1.9116604E0],"tree_param":{"num_deleted":"0","num_feature":"13","num_nodes":"9","size_leaf_vector":"1"}},{"base_weights":[8.883348E-4,-7.592207E-2,6.8065695E-2,1.25771165E-2,-5.4847505E-2,6.250062E-2,-2.306305E-2,-1.0077898E-1,3.1653285E-2,1.8665792E-2,-6.413245E-2],"categories":[],"categories_nodes":[],"categories_segments":[],"categories_sizes":[],"default_left":[0,0,0,0,0,0,0,0,0,0,0],"id":63,"left_children":[1,3,5,-1,-1,-1,7,9,-1,-1,-1],"loss_changes":[4.9942628E-2,6.462273E-2,7.0715435E-2,0E0,0E0,0E0,5.0861824E-2,6.893715E-2,0E0,0E0,0E0],"parents":[2147483647,0,0,1,1,2,2,6,6,7,7],"right_children":[2,4,6,-1,-1,-1,8,10,-1,-1,-1],"split_conditions":[1E0,1.55E2,2.28E2,1.25771165E-2,-5.4847505E-2,6.250062E-2,1.42E2,5.7E1,3.1653285E-2,1.8665792E-2,-6.413245E-2],"split_indices":[2,7,4,0,0,0,3,0,0,0,0],"split_type":[0,0,0,0,0,0,0,0,0,0,0],"sum_hessian":[7.6774473E0,3.5211737E0,4.156274E0,1.9639847E0,1.557189E0,1.1302989E0,3.0259748E0,2.0207322E0,1.0052426E0,1.0112928E0,1.0094393E0],"tree_param":{"num_deleted":"0","num_feature":"13","num_nodes":"11","size_leaf_vector":"1"}},{"base_weights":[1.361606E-3,-3.0136125E-2,4.3491274E-2,1.335095E-1,-6.047917E-2,-1.836256E-2,7.705718E-2,2.636924E-2,-6.6469595E-2],"categories":[],"categories_nodes":[],"categories_segments":[],"categories_sizes":[],"default_left":[0,0,0,0,0,0,0,0,0],"id":64,"left_children":[1,-1,3,5,7,-1,-1,-1,-1],"loss_changes":[4.1325167E-2,0E0,7.164136E-2,1.10640004E-1,1.11254774E-1,0E0,0E0,0E0,0E0],"parents":[2147483647,0,0,2,2,3,3,4,4],"right_children":[2,-1,4,6,8,-1,-1,-1,-1],"split_conditions":[1.37E2,-3.0136125E-2,1.58E2,5.8E1,5.8E1,-1.836256E-2,7.705718E-2,2.636924E-2,-6.6469595E-2],"split_indices":[7,0,7,0,0,0,0,0,0],"split_type":[0,0,0,0,0,0,0,0,0],"sum_hessian":[7.6156344E0,1.8237523E0,5.791882E0,2.9519534E0,2.8399286E0,1.3401507E0,1.6118027E0,1.714784E0,1.1251447E0],"tree_param":{"num_deleted":"0","num_feature":"13","num_nodes":"9","size_leaf_vector":"1"}},{"base_weights":[-2.9776926E-4,5.807671E-2,-8.198318E-2,-3.2922722E-2,4.9985964E-2,-6.2067673E-2,1.38847055E-2,-4.752994E-2,2.7802536E-2],"categories":[],"categories_nodes":[],"categories_segments":[],"categories_sizes":[],"default_left":[0,0,0,0,0,0,0,0,0],"id":65,"left_children":[1,3,5,7,-1,-1,-1,-1,-1],"loss_changes":[4.5525413E-2,6.0514502E-2,7.330409E-2,7.561833E-2,0E0,0E0,0E0,0E0,0E0],"parents":[2147483647,0,0,1,1,2,2,3,3],"right_children":[2,4,6,8,-1,-1,-1,-1,-1],"split_conditions":[3E0,1.38E2,1E0,2E-1,4.9985964E-2,-6.2067673E-2,1.38847055E-2,-4.752994E-2,2.7802536E-2],"split_indices":[12,3,6,9,0,0,0,0,0],"split_type":[0,0,0,0,0,0,0,0,0],"sum_hessian":[7.548902E0,4.5712147E0,2.9776874E0,2.8655262E0,1.7056887E0,1.1980188E0,1.7796685E0,1.3025006E0,1.5630256E0],"tree_param":{"num_deleted":"0","num_feature":"13","num_nodes":"9","size_leaf_vector":"1"}},{"base_weights":[-2.332519E-3,6.272268E-2,-8.024332E-2,-3.2862544E-2,5.5679657E-2,-5.249441E-2,1.195119E-2,2.171837E-2,-3.992753E-2],"categories":[],"categories_nodes":[],"categories_segments":[],"categories_sizes":[],"default_left":[0,0,0,0,0,0,0,0,0],"id":66,"left_children":[1,3,5,7,-1,-1,-1,-1,-1],"loss_changes":[4.813321E-2,6.711951E-2,5.5981345E-2,4.9426608E-2,0E0,0E0,0E0,0E0,0E0],"parents":[2147483647,0,0,1,1,2,2,3,3],"right_children":[2,4,6,8,-1,-1,-1,-1,-1],"split_conditions":[8E-1,1E-1,2.39E2,5.7E1,5.5679657E-2,-5.249441E-2,1.195119E-2,2.171837E-2,-3.992753E-2],"split_indices":[9,9,4,0,0,0,0,0,0],"split_type":[0,0,0,0,0,0,0,0,0],"sum_hessian":[7.503524E0,4.1953588E0,3.308165E0,2.7717628E0,1.4235957E0,1.5936501E0,1.714515E0,1.4874288E0,1.2843342E0],"tree_param":{"num_deleted":"0","num_feature":"13","num_nodes":"9","size_leaf_vector":"1"}},{"base_weights":[-1.997398E-3,3.314973E-2,-4.822523E-2,2.5530288E-2,-5.3853165E-2,-7.937826E-2,4.2589724E-2,2.204182E-2,-5.6364734E-2],"categories":[],"categories_nodes":[],"categories_segments":[],"categories_sizes":[],"default_left":[0,0,0,0,0,0,0,0,0],"id":67,"left_children":[1,-1,3,5,-1,7,-1,-1,-1],"loss_changes":[4.932137E-2,0E0,6.937936E-2,7.430054E-2,0E0,6.9460325E-2,0E0,0E0,0E0],"parents":[2147483647,0,0,2,2,3,3,5,5],"right_children":[2,-1,4,6,-1,8,-1,-1,-1],"split_conditions":[2.12E2,3.314973E-2,1.4E0,2.62E2,-5.3853165E-2,1E0,4.2589724E-2,2.204182E-2,-5.6364734E-2],"split_indices":[4,0,9,4,0,6,0,0,0],"split_type":[0,0,0,0,0,0,0,0,0],"sum_hessian":[7.459338E0,1.7675791E0,5.691759E0,4.160144E0,1.5316149E0,2.3558147E0,1.8043293E0,1.1120775E0,1.2437372E0],"tree_param":{"num_deleted":"0","num_feature":"13","num_nodes":"9","size_leaf_vector":"1"}},{"base_weights":[-2.9340473E-3,3.0074658E-2,-4.8581325E-2,2.8321726E-2,-4.6790443E-2,-8.889266E-2,6.584915E-2,2.5721895E-2,-7.16585E-2],"categories":[],"categories_nodes":[],"categories_segments":[],"categories_sizes":[],"default_left":[0,0,0,0,0,0,0,0,0],"id":68,"left_children":[1,-1,3,5,-1,7,-1,-1,-1],"loss_changes":[4.4430837E-2,0E0,5.806961E-2,1.2330782E-1,0E0,1.1432177E-1,0E0,0E0,0E0],"parents":[2147483647,0,0,2,2,3,3,5,5],"right_children":[2,-1,4,6,-1,8,-1,-1,-1],"split_conditions":[1E0,3.0074658E-2,1E0,1.61E2,-4.6790443E-2,1.49E2,6.584915E-2,2.5721895E-2,-7.16585E-2],"split_indices":[1,0,11,7,0,7,0,0,0],"split_type":[0,0,0,0,0,0,0,0,0],"sum_hessian":[7.399248E0,1.9025306E0,5.496718E0,3.6319964E0,1.8647215E0,2.5831954E0,1.0488008E0,1.3913333E0,1.1918621E0],"tree_param":{"num_deleted":"0","num_feature":"13","num_nodes":"9","size_leaf_vector":"1"}},{"base_weights":[-1.690184E-3,-7.6554805E-2,6.442842E-2,2.178144E-2,-5.351298E-2,-4.718138E-2,5.077492E-2,-5.884805E-3,1.5724516E-2,-5.3904764E-2,2.9467614E-2],"categories":[],"categories_nodes":[],"categories_segments":[],"categories_sizes":[],"default_left":[0,0,0,0,0,0,0,0,0,0,0],"id":69,"left_children":[1,3,5,7,-1,9,-1,-1,-1,-1,-1],"loss_changes":[4.613181E-2,4.754536E-2,6.604552E-2,4.971325E-3,0E0,7.902431E-2,0E0,0E0,0E0,0E0,0E0],"parents":[2147483647,0,0,1,1,2,2,3,3,5,5],"right_children":[2,4,6,8,-1,10,-1,-1,-1,-1,-1],"split_conditions":[1E0,3E0,1.53E2,1.49E2,-5.351298E-2,